{"config":{"softmax":true},"layers":[{"inputCount":784,"outputCount":128,"weights":[[-0.3154117804800074,0.8255122304651492,0.23954239552694134,0.9245212998443191,0.9461612091235436,-0.9170999407242688,-0.38002779910823614,0.24554499595164447,-0.3377288698865508,-0.5999701504004527,-0.401681872056846,-0.5170941350741463,0.029957975558835948,0.7171881375363001,0.40550677939707946,-0.7041541172946659,-0.5272935961297742,-0.015325183068581438,-0.25620673668358096,-0.18686778977654406,-0.5681742501442115,0.978252090323017,-0.5105681734911258,0.8195051602347032,0.5676938597596277,-0.821134737582166,0.3628725161172206,0.6449468582846154,-0.9244630209578799,0.44773127850739325,0.1526676425293878,-0.6038641099494506,-0.7782122764473551,0.91615582231216,-0.8321108090222356,-0.9453585458565263,0.6342863148581286,-0.5523095339626662,-0.8908438573526414,-0.16278953565798004,-0.4323633213183995,0.7509759624417738,0.9002582769787426,0.19537361232352657,0.13956928718744366,0.613512735193706,-0.49541887527889084,-0.27614573451383384,-0.5185191042010948,-0.8797576143338806,-0.4200944396008177,-0.8488529868148509,-0.8155420445664554,0.4519943131918289,-0.30348460213728123,-0.44340933083209344,0.49944281517977207,0.9793586160765526,-0.36626461197237004,-0.8025880917149499,-0.5879025065008638,-0.1574279945211765,-0.200301210384078,-0.7459489650739219,-0.372760486333636,0.5941093745461885,0.8783528665707874,-0.05381793216764086,0.13991629267245953,-0.4665873215702625,0.44586549824024213,-0.9754764047728888,-0.43498573976416166,-0.6277823196591548,0.21323406540537237,-0.4535890797793558,0.9458236793808525,0.17679020032629844,0.5730501107664547,0.9421337304760582,0.6118323545795232,0.11551182306637564,0.7133898868722242,0.747356618942439,-0.3445102812022265,0.3654109893485902,-0.4146604589854439,-0.6556012225415582,0.9596562878034878,-0.48946134139711917,0.5179510063987045,-0.30377424988220736,0.19162181508229503,0.5686015859802787,-0.34433880091363855,0.3942332938922428,-0.41755294877261817,0.34060999334207676,-0.2542243216758002,0.19182375707727628,0.24018022266831585,-0.3817237575353336,-0.7527918738027775,0.5364187831721179,0.717666052770958,0.03202568458764543,0.4555364924015892,0.8356559852627818,-0.10386677573853631,0.5877769343365205,-0.9091869546316067,0.545577368727953,-0.7518671822288132,-0.13992941662468672,-0.708336780328062,-0.5351466371177083,0.7526167249170335,-0.09347514218331865,0.7858714257233115,-0.6954524944627529,0.23662034621129102,-0.967933021576288,0.9877547797258721,0.27554280401848996,0.34414694553925984,0.882952913616085,-0.6916130261280693,-0.4324652348990776],[-0.17932977836440323,-0.2078526338368123,-0.3259518528180272,0.6159206793354519,-0.22742107915816612,-0.968365302259732,0.6753898192318528,-0.007486549213976401,0.7374604791831423,0.6714020125303757,-0.18594176710641186,0.010955757004537103,-0.05839988876740243,-0.16242789321288464,-0.334369166249296,0.22257079762027177,-0.48583666044279195,-0.6376605522203942,-0.622025536306845,-0.8190791261593047,0.4361449825587269,-0.9380478261296579,0.4284098940155865,0.9652673532702489,0.3996754843651287,0.8490577383398032,0.40814727724291555,0.741497745962022,0.7947096634997279,-0.9648154547117318,-0.6711734015211808,0.39161954467468085,0.5106581907876169,-0.18952861915266683,0.16968042492392166,0.46559697294890445,-0.14863526831020302,-0.08635406342445151,0.07232060285173714,-0.08888228448662883,0.2003111603400889,-0.4899018957673251,0.7209198846833176,-0.7683276636235319,-0.2973815904480659,-0.47205792483523745,0.3117982676144475,0.6147105653786078,-0.6096156414266616,0.8904067515732905,-0.35599592391377066,-0.44253841536310934,0.3001222412088138,0.4956394215469899,0.0358184046747787,-0.6381838329177316,0.8069846731723418,-0.8633913078066004,-0.8759612885079944,0.258972326513093,0.18103985180243543,-0.7421764529209427,0.34609306025851994,0.672247779642285,0.33883810606029474,-0.4294363545036026,-0.11416683234859715,0.05348462540853882,0.5492037493420845,-0.9471786572946559,0.4759909842661214,-0.42977947547247286,0.8731707518032197,0.16017574047835126,-0.8682656915090274,0.490599888153209,-0.08183513703306167,0.33178553998625526,0.30973879398247894,0.07288666647537712,0.4376233509287233,-0.16919380045765853,-0.9629109036770549,-0.06533081738203861,-0.0660935450994109,-0.4631434455168797,-0.05215351609750041,0.7368299377621381,-0.4495367643990338,-0.9585359498894543,0.8221924486935628,0.564113274243909,0.49711824671587856,0.054660826841112176,-0.08893908929243377,-0.899316861294333,-0.7194879638030729,-0.006743070518834493,-0.7704524534363719,-0.7374183597267054,0.3818822835143756,-0.9774595140912201,0.5532839791148634,-0.06586191402033892,-0.10566159837358646,0.3676642172483342,-0.055218232620417584,-0.8745329358245351,0.23357379954459967,0.7902188267271868,0.5060561826138763,0.7344188869481965,0.2754601412759219,0.7439681320458893,-0.3028374114794481,0.9686141986322558,-0.10979280422704596,0.9807875687283958,-0.5137267286436655,0.07112920224878283,0.24412916270684493,0.3710693349194656,0.6678351416442148,-0.9731995432593892,0.6403231852327278,0.27288020016371206,0.9391957045828885,0.9244058098495902],[-0.652491200536857,-0.9058241008937853,0.8268983583111265,0.19084870423148614,0.054332625996557304,-0.17489585256137197,0.06237220319326786,-0.00944245917893749,0.9565416732686243,-0.9858783116074017,0.1879451167721884,-0.870361010127743,-0.5072566877896152,-0.9753490009895185,-0.09592108658143172,-0.4277544437762304,-0.9268364532115236,-0.9193306734633497,0.7380349016481551,-0.7081385900379591,-0.9618532816715857,-0.28690416930930907,0.8475141815306839,-0.28224282954217084,-0.21571737156734305,-0.17433851906348452,-0.22732561351849867,0.7075668751510975,0.6359988383933664,-0.9053885626562261,0.7590830651994731,0.9404461081095445,0.8954958240458171,0.9682402182844105,-0.7518174763277632,-0.9125001612179071,0.7671340450744661,0.6824082909372728,0.1026139486504054,0.5785732046017904,-0.9347344738854739,0.47644865796861824,-0.4409671932973034,0.07953487844105189,-0.5016745027001743,-0.39246071773581215,-0.15511246653175204,0.26914829855326583,-0.871391953446172,0.39980731682495385,-0.5674237297501878,0.4205834001995432,0.4460127717218936,-0.708619582985841,-0.4207271997443467,-0.7429579155338635,-0.4491735096114762,-0.48384705594206223,0.9664000107014055,-0.38560664390579036,0.7097659769086069,-0.8677607332637256,-0.31077716511663334,0.16701744191586565,-0.4624489522697812,0.7337850617305319,0.8955550239298229,-0.26698287339859594,-0.04435681805001779,0.07245934289101474,0.9098274672440538,0.8750895096018192,0.7425732415625752,0.0013573437175800063,0.09267932286536129,-0.693204870350036,0.7237871220001115,0.022167398295697582,0.7677763551245635,0.887009345770355,-0.4815900350461608,-0.05938582441967499,-0.8000115441606437,0.12961694729719042,-0.8329592673371666,0.20062128643269128,0.25153199567007234,0.9079271262525481,-0.3698971548867034,0.9810504102759174,0.6087841002195185,0.06320602907879258,0.295335136012985,0.3206338759352718,-0.4759194052574627,0.06022221414316964,-0.5280916594122231,-0.1040599903913988,-0.7754693380722983,0.9272353859142852,0.4422171747144674,0.48594465985202473,-0.6534061597398104,0.6258263989721986,-0.9098698251622102,-0.9918753590534981,0.24133938175753156,0.3805239873332844,-0.3920797900870352,-0.33571077075067923,0.978053850632951,0.39018050618186306,-0.7423197478524719,0.042083349166207595,0.9384450552416084,0.7336788243110814,0.6666984595399219,0.9978348225582514,-0.7067817564756824,0.6015434414231013,-0.5389556360083472,0.9628329261549557,-0.09232667827867957,0.019805175520234863,-0.5769547126010954,0.7645284428067483,-0.5876538451536422,0.0033870072231121373],[-0.6693877021317822,-0.5526159988082497,0.20664037113100586,0.7691089466355283,0.5029607884865743,-0.7056826079734244,0.16759611239449135,0.2141106768291503,0.9444833683200682,0.27021733278133375,-0.833541360245772,-0.9529639543347734,0.27477210380051753,-0.2016555721090867,0.9856059755581903,-0.3399982468903153,-0.46517639860593185,0.919478050231654,0.8157073041878546,-0.6377353450318091,0.8664180640325361,-0.42964676255243206,-0.8024637818434834,0.8499533729998612,0.4906860229470691,0.30112149326514026,0.4621595898969566,-0.9633256826832934,-0.7887629096725297,0.4297657019930081,0.8858885210891059,0.6410695083253319,0.34266765128700993,-0.401396932658759,0.8400462257994263,-0.9976650728583634,-0.3808027308702773,0.8918949184368088,-0.5329570861678794,-0.07650429941724446,-0.7485031087061664,-0.09420554205693277,-0.2152663935155188,0.5195082648114759,-0.0724902883334706,0.11334762643358465,-0.8810757404988532,-0.9209504645278159,-0.03273955919463045,-0.6862639492094746,-0.40053236303275064,0.40051056856218237,0.1068416961770462,0.8648326572956695,-0.47685454330901234,0.8426451221508324,0.532338955715524,0.11873189714929833,0.5503815065183275,0.8852130191785412,0.27698723734622166,-0.1959591093631705,-0.26161625814900025,-0.7269910531360941,0.18802492363899415,0.9118811974724061,-0.9386268008277159,-0.7568500683589536,0.9823850665205958,-0.6748140705382479,0.5028589897248457,0.6333492304256703,-0.5846291259185414,-0.9764681576563958,0.050565521917961265,-0.2750666263076653,0.39699907176436144,-0.48825287084474067,0.9840904338220839,0.903844273948816,-0.21119690974426142,0.14064362650677276,-0.7388129328187572,-0.9311696549523667,0.05634998149605974,0.08922868752646607,0.7389708368962082,-0.4089562586392874,0.989158744231057,0.14412554582064563,-0.5916463879993232,0.25030107533120094,0.0020538006618426863,0.3650656636114835,0.2226345938613321,-0.3962334853895546,-0.8440183759145659,-0.5717067744547346,0.685027607190374,0.5196318961375339,0.9063485555062616,0.48801817905280487,-0.004869152402168009,-0.6279227246853543,0.854779862473011,-0.1922609219488136,0.5179426472711013,-0.8397625981527987,-0.8290349638966732,-0.22800949541165383,0.4006911947184022,-0.8823695381824586,-0.9556551161549398,-0.4646743718837032,-0.7316611129115103,-0.3592833418739685,-0.4344038886244346,-0.5581623492077168,0.5629235719163161,0.9564941042252557,0.6569692018532358,0.60790019247447,-0.16813871361410793,0.8164500699489146,-0.2829051634870636,-0.9868001677283191,-0.42773007348926595,-0.9579875129754032],[-0.9211571869277337,0.8328616093239849,-0.7953784427252306,0.6363941453642292,-0.3391261408903019,0.28211069013554635,-0.15459136628698134,-0.026721890750334154,-0.48674427475853754,-0.998880437519194,-0.5843748008691896,0.9909868195963238,-0.31130734928903014,-0.08609856218514045,-0.14286311887008507,0.0901666202354463,0.3979405298301051,0.9987632850362778,0.7068426374585708,0.6375608199958935,0.6625794013337383,0.9552942574339043,-0.030510515482797373,0.9426744645701302,0.7177596462525311,0.6107240068011084,0.6658028993446334,0.6437889462434063,-0.1728509635965234,-0.9266766951353083,-0.945460137322164,0.44176018999245925,-0.7822592371196493,0.6368735344807925,-0.3510022265631012,-0.20104797087228454,0.8661335254939835,-0.3027820309621283,0.9396113965224187,-0.3774925854005464,0.48490755060351853,0.039324130177280425,-0.9382177444778179,0.8613395229286342,-0.3309731612928821,0.7444903985878617,0.18830161328886996,-0.1789981374455878,0.2998256262835912,0.5458397668281652,-0.7850538453262881,0.9392928875936795,-0.4415176858861525,0.31305956044194705,0.24888030734256383,-0.9851932920656985,-0.042045060888193486,-0.2335766231172023,-0.3025604650595184,0.6960929536385156,0.5484952693742526,-0.10652731871786059,0.5201642846329539,-0.3880041547915909,0.7972738249308204,-0.5912513404355282,0.056336731168273646,-0.721875078419387,0.9601187224088605,-0.3704571119991522,-0.008284674516016777,-0.12982212210959232,-0.6215583367487714,-0.011370397781740094,0.47360810400583886,0.6985631223631172,0.8134034387685694,0.41244001388664375,-0.7171069044272962,-0.4304962205558711,-0.3786046496070439,0.8627701290460699,-0.7151175466646531,0.029776110560008506,0.9616758851355616,-0.8991419723160836,-0.8955331239238824,-0.33422050822504223,-0.6048001999057808,-0.3304873701197468,0.699143406696823,-0.6057360221068622,-0.2696417730661995,-0.2101306498311879,-0.5584088783333665,0.3881572837457046,-0.745268398184169,-0.5134583297149369,0.7184647748842916,-0.6710817582311204,-0.5305645143247912,-0.9987779822117644,0.26275130156176774,-0.7754640873338299,-0.2472613067221292,-0.34182585899523166,0.7687742655666978,-0.5336959246292441,-0.19301874256299945,-0.009705716608830572,0.7537962317469118,-0.4167858269403728,0.8168947945616991,-0.7202799112568941,-0.5643691333468213,-0.9009987483954001,-0.6636165798874474,-0.4203450323391784,-0.5834685188375353,-0.8126258874587553,-0.9013669318148878,-0.269153983155872,0.2941656331669975,-0.0006528378960624082,0.513146957399262,-0.1273985426402764,-0.8195986929983554,-0.4625981317910304],[0.2668447800373257,-0.6381101028560572,0.8227996329571063,0.8129990071272313,0.17367923830421916,-0.8580362801335639,-0.7152341961493758,-0.8536357095534366,0.10686433380280014,0.5431212651713351,0.542498520937299,0.24067582863789538,-0.4943391264599768,0.8005962949113905,-0.6154654066208303,0.13561809417173198,-0.22829789258708022,0.6514908444382719,-0.5899793385350538,-0.8480976569645804,-0.7838292523875057,0.3472583858780236,-0.10810186904757191,0.0824950096212862,-0.6955277691579074,-0.022886910051841847,0.10235882053802903,-0.18494519378472685,-0.8066866111696696,-0.27122000716523176,-0.7071408431124715,0.24800071908984633,0.280670940129232,-0.28560576205370314,-0.04770831084858784,0.5351879214888056,-0.10289905315562287,-0.659023693086227,0.9005436317665312,0.950614237892379,0.536199527658902,-0.79197974833915,0.012641017407460708,-0.3121492687816514,-0.7711075729671863,0.37633379891533836,0.9944931344849126,0.3219380594471011,-0.7343834878318343,-0.7589380460435198,-0.651694697299622,-0.8201875802246232,-0.45420097146885374,-0.6633851995605122,-0.5351408474551513,-0.2683760584302042,0.8844224145250512,0.2972512660474793,0.23566321814738878,0.5900606441571767,-0.1888117700857388,0.6362580503419133,0.03369943106394713,0.9731230765492858,-0.6200954075057878,-0.8253604389881715,-0.5511882310021774,-0.9837830020925749,0.5756102778991978,0.5823618176805996,0.6349113161175131,0.05472549204397614,0.9196611947153155,-0.3207975835507435,0.7826301320195788,-0.9502612653057783,-0.23265598798525744,-0.5111125825371639,0.8003718528028922,-0.8473901905724897,0.6499627151210272,0.6108662475049589,0.9846659418165593,0.464943884253453,0.13457377602614962,-0.9588790378379279,-0.6847564943907014,0.6294600871841107,-0.5546973265848645,-0.12319853565072392,0.14555853462309942,-0.4418327967204281,0.8218394452433484,0.2922123650150601,-0.47909448561894497,-0.8101251785791619,0.5468014748614138,-0.7299113392369798,0.10584273557132029,-0.2452515142374232,-0.12978071515737044,0.06526505966058127,0.5013086592072427,0.4323097475198405,0.23243873040735208,-0.2086293887731332,0.636694195582528,0.45184917637348354,-0.011928414673272991,0.9115507613409826,0.6386424562688096,0.9362142213730078,-0.875837620024392,-0.951143332232218,-0.34249858268863376,0.19875853343077932,-0.34987721138724437,-0.8374902684359278,-0.2702057002092684,-0.8127101393506826,0.20907402219696403,-0.7668085028329905,0.14690905642033636,-0.1349444348454112,0.7038176165340599,0.03496218908535664,0.38591635161530347,-0.31222702337957653],[-0.704854596686987,0.6340990987594974,0.01759007688276637,0.14368147583867885,0.6157691871920072,-0.3338110568702948,0.9816545686775793,0.404249368893278,-0.9589337662083119,0.24719316001013092,0.4557173313904843,-0.8848168791429798,-0.2836150710670011,-0.5871855362610459,-0.6564539655028834,0.6562499726111715,-0.7027804943051998,0.7347332224603627,-0.4923168579251245,0.9010153130036431,0.6372543969752777,-0.9875652229269978,0.8387411155206987,0.34028856832648624,0.8075504459655096,0.7386923494731132,0.9149069030414838,-0.6290074116644155,0.05901556857979373,-0.6840746326567835,-0.5637917689835796,0.5305680841479037,-0.5363780452202791,-0.6721894689778614,-0.7986115560720293,0.6523354326386215,0.758274355404609,0.1557960286340232,-0.5781126427429615,-0.2497203109560322,-0.06230097490352082,0.3504284557230357,0.9070309947148338,0.7329445457917152,0.36956224267982596,0.9014649214767696,0.753575353744161,-0.6373547362078535,0.3565613365440279,-0.4284146039712493,0.875535665470921,-0.7544410001802957,0.8810739920829591,0.47124086884366934,-0.0007781618490774189,0.004058930359267965,-0.14080108820511783,-0.5344679849487501,-0.24810396978195337,0.7009871218533597,0.6607290600318738,0.7865546816450901,0.11860223084451516,-0.8616272075698921,0.05727721395961427,0.7958174372082552,-0.16345590116695607,0.6930550855744229,0.37849068611304126,0.8736232273643696,0.6366433014576158,0.5752878461363939,0.04645540281288274,0.6312233215702574,0.6778495886726505,0.12413378497430605,-0.07226182836853412,0.6059090302599992,0.11275176822861677,-0.5423957645061621,0.2211847610607327,-0.24471307533045095,0.8791132396464436,0.13604349707174546,0.042149642416497324,0.3420191972268696,-0.13305364986259227,-0.5041464127433375,-0.4129512612100088,0.39028087395325173,0.04991578592532453,-0.7228829773923953,0.21072884664563762,-0.006623739511264715,-0.9049196295063635,0.05593649395419953,-0.11365529237010485,-0.4836096642079819,0.3646874271420675,-0.05319463474219166,0.720102456068344,-0.8007109865554567,-0.20793678023346307,0.9593894022997109,0.7225564672274223,0.4439146664420295,0.624958548402581,-0.8230488519728187,-0.21630386457271844,0.2730150197375327,-0.9752933046066303,-0.2117560008033672,0.769186041770654,0.033095632209448445,0.4366972964113336,-0.9212712181829328,0.20987798096746224,-0.7095754892438588,-0.8864247125669686,-0.8125693150834632,-0.47291358528919636,0.854630491940056,-0.3616317990008904,-0.40087256467713295,0.2900699990084301,-0.964155080510189,0.833124218350064,-0.24672789662095673],[-0.5916512292086602,-0.3790920605321426,-0.5449424034983303,0.647796199326099,-0.1298064811642854,-0.4048902612564951,-0.0032186157628288914,-0.27226999617500036,0.465465929612785,0.31779991372621574,-0.38249921484123717,0.6468604986366195,0.06061044886409461,-0.513595692873758,0.6220489768451676,-0.7999160741678202,0.7228430378235446,0.8907594276561763,0.5055182897074706,-0.041306481741566925,-0.2877184311281602,-0.868607708124693,-0.7047596837718337,-0.60596349528747,-0.6189040741717478,0.31345970032396164,0.7211046384908513,-0.022539935103072395,-0.32275783823530424,-0.7160768394030028,-0.3629797039250824,0.6984018180773865,0.9021858609812339,0.08606813921799139,-0.35435882415581776,0.6085007937573212,0.9922616992113886,0.29911855974528057,-0.4407562859868277,-0.14759832005752194,0.8771605384941692,0.5373957181701399,0.677368880862161,-0.7562709358309438,-0.47590107172072993,0.6089681264089675,0.6251413946125859,-0.37095682820593057,-0.3461984529045443,0.16144746585135739,0.19387508625767302,0.35036223487621654,-0.1784414807778636,0.013524535854007702,0.8276514872528158,-0.2108026657289459,-0.488145474183616,-0.01762653197172348,-0.41945472660355354,0.4271058495700242,-0.30162245088905215,0.692438314346105,-0.7246677834771362,0.5818795875199996,0.11245592165291507,-0.9305755593449001,0.7179571025138827,0.06523503615122617,-0.5490734423215369,-0.7590530015763655,0.9133330315089947,0.7415113967341842,0.10449800196982828,0.6776474653910505,0.9634626107352826,0.48720780062811353,-0.032471422980821396,-0.23282434784636008,0.76934558655759,-0.2971503545127405,-0.6179915677492851,0.5027216242491483,-0.8832592483955608,-0.9992924488816426,0.6094903910941365,-0.018336718332653934,0.4096952070064732,-0.15585456801205333,-0.3766592799714201,0.07962725903277024,0.33740997647906124,-0.9004257537019191,0.1539395385439506,-0.3630335048298854,0.15906199905844898,-0.1724272353553451,-0.08118341055903189,0.5492452227040419,-0.5097400580708236,0.6512994249767026,0.6319759576703978,0.7631401749445297,0.41692161921385806,0.06492314749874195,0.4865355666508173,-0.9984537023695224,-0.32659979093594904,0.03114309921312275,0.15802544697798826,-0.11846388643063821,0.25138608663165396,0.2586943009268403,0.28786694023971227,-0.5012659613010719,-0.8724198980381197,0.47858012003125805,0.3786406327158558,-0.9168607594141098,-0.3188737434449662,-0.9079949631064304,0.6601815019762225,0.5058126660031674,-0.027788757042334966,0.009295152116045813,0.03308398692109238,-0.048876005613704976,0.32997590394319554,-0.19180435754256675],[-0.49406570329976174,-0.8720824272091041,0.115948677774796,-0.8788188955570275,0.003434157309644137,0.6542492933195934,-0.6359860932146126,0.6082702401057498,0.08125846220993393,0.6100887571357643,0.14722217557758466,-0.02027815034031244,-0.04019930850671494,-0.4287694055138085,-0.7644218659101936,-0.23578817201313718,-0.8423125397271818,-0.040749071275191895,0.12260403429672961,-0.852272006842737,0.8869444514143401,-0.9703645970992048,0.4542540431277864,0.6499656205687165,-0.3858917784643554,0.7916564449511063,-0.014522488523068144,0.7928841382345162,0.3440622597039338,-0.9291314585802639,-0.6063423221661908,-0.5002351797635944,-0.6463042123227185,-0.6589043565838513,-0.3148382604641551,-0.29656231671217426,0.7600009121462146,-0.9029533636234657,-0.45540627699353586,0.3917351328775005,0.7911236113042901,-0.2509221658289107,0.7085353379061703,-0.8019476746761931,-0.9531140811214383,0.021050564173450192,0.1782375941676726,0.6524555289011229,0.3553084158776738,0.7975852935203629,-0.9428655110447512,0.8845893427131315,-0.13614741193914104,-0.7136175804689007,-0.27391984325294905,0.8715560065998904,-0.9582087930924919,0.21918104077193434,0.1597696359638323,0.3467034637936961,0.5328885882773367,-0.8184402903134789,-0.7694426177212248,0.2961590855366585,0.9662545417820796,0.17321096636262046,0.29960000529075326,-0.5802932636795974,-0.8861333280205135,-0.587816167605766,0.17940391007524292,-0.1381139857935758,-0.01747351826238641,-0.1917883009097956,0.4734490544708345,-0.6405950313366049,0.349171032066373,0.810302681453323,-0.8674151222977731,-0.2365727388556842,0.1889853652672282,-0.664215680373444,0.7884725019774204,-0.5867168789802333,-0.07850177394249358,-0.6529844210551909,-0.0785771610414534,0.8987098636138824,0.12123656052342247,0.973691641538317,0.935469869403454,0.5996986821084813,-0.5011248380685578,0.8099260060380791,0.3867855257981838,-0.8399975430966604,-0.13272072273489455,0.6208819501234843,-0.8510480837664516,0.2634567465057054,0.6231313044921947,0.21809064055107164,0.8418511435049978,0.23230405030357026,0.3316644964633628,-0.33453872655431427,-0.25160194523978774,-0.00950499202409727,0.015386918798163673,0.6724637128188471,0.6105736042358596,-0.5793932765913139,0.4273633802250567,-0.7846736921073232,-0.5722406195509011,-0.007151029388417163,-0.4916171116223589,0.7153978991971734,-0.7387893913148236,0.2234010957633199,0.012853807841967768,0.8218514632783709,0.25837189397649074,0.6809560250421909,0.8304265540848572,0.4249219063183933,-0.4826978189548954,0.42513669789203834],[-0.9211710743875479,0.6270819374800694,-0.5067458478844111,-0.5699925420350369,-0.33130633349887084,0.5270640221672052,0.883406566963076,0.6279835112599477,-0.3661584511015261,0.9824621512370386,0.42267796439238303,0.9395633676632977,-0.7375077319435144,-0.036433941116865265,0.9432457574650301,-0.1389241587304888,0.9858573588126225,-0.19143968020735813,0.290837531104021,0.14915259214782584,0.8971815379636947,0.1257371479649454,-0.042989120608140086,0.4317122926231829,-0.06924843466876363,0.15678438725142074,-0.2157319618823732,-0.7986562511085984,0.23078832645082792,0.8025794941986328,0.6441083292881029,-0.25152554841744457,-0.20102173563082149,0.29078241398350224,0.1950530350057571,0.5818762946319962,0.0285227657643774,0.38038918005680866,0.29675327490590453,0.3367596426221251,-0.05719578397737868,-0.5189531294050809,-0.7488419192788041,-0.8466584109817896,0.4738122687517934,-0.4714600175776016,0.507366301076666,0.7627631327621771,0.9536308215143872,0.11880015387431064,0.4982746097045805,-0.5763008015269293,0.258916373149348,0.32392144120379185,0.49518221459251,-0.8316376129279293,-0.8280238447548516,0.059433899248831246,-0.5706952670779699,0.18920948361345835,-0.46316943142128353,0.2822026710095853,0.673946768678928,0.7412784935309487,-0.18727476479965421,0.44277631153110253,-0.013969471404743583,-0.5075285081304264,0.03630066595745407,0.7378021689324321,-0.31481918140321863,-0.6178489584201812,-0.5303558894448637,-0.21349358271766272,-0.04689159333288906,-0.7789085273563428,0.5576992889051247,-0.3321683056503488,-0.03115656096835595,0.6283954566618417,-0.028998403005005224,0.8188038852028667,0.624580158498355,-0.7778422298578613,0.7856805970842626,-0.3825581501683457,0.737619563701853,-0.7624253254312163,-0.10134545993972366,0.720198855674733,-0.936580276974452,0.3821976998953991,0.03548378739566527,-0.5380226286406129,0.29557488023623346,0.8936777060200154,0.9602479760158869,-0.6608098444576775,-0.794817281011374,0.11166116312780439,0.5261875789024553,0.6932697338959506,-0.15718767523792887,-0.7686707715299363,0.5108310183425007,-0.49530373421266627,0.9349064973178902,-0.7045937872074353,0.4850282247882123,-0.1002476018761127,0.2539208149490364,0.9860258678007898,0.2083716987858577,0.7346928386433598,-0.9748526786542802,-0.9083574981403584,0.035278986352780706,0.9759823170618882,0.8460385235750238,-0.23527114664170834,-0.5556664851066186,-0.5257203808621709,0.9152007468829333,0.5563144152633259,-0.022566235726693584,0.15324100176144695,-0.6509719442857564,0.08594017994315206],[0.729129813744416,0.07177459066948111,0.6071258597612001,0.451511024029819,0.7436424435735585,0.6424808744536106,0.4573250744871926,-0.9747911821470654,-0.21263113858232563,0.31318794717924026,-0.7411792853109214,0.8579254998124115,0.8496579908390438,0.19050599728109718,0.4151355417321352,-0.9491243830453275,0.706795945306536,-0.5552310853061375,-0.405493463562141,0.7933979204036063,-0.07665770755433932,-0.04685777530161905,-0.8102663588297512,-0.0031885249592396026,0.6611503360414581,-0.5509182639707733,0.04475439906646317,-0.6923439391559731,-0.04648076550107172,0.8173234974589361,-0.9698307428331909,0.17946258442663288,-0.7083003469525406,-0.6302442681306182,-0.9691274536112822,0.5115540790556428,0.1570602067800979,-0.1662662943278006,-0.31156651643014466,0.10779695863391248,-0.9454963978722273,-0.613158507943129,0.6883878914939221,-0.14652464829729062,0.3615842676899972,0.36654944170635906,-0.621118948948904,0.7252937702617432,0.6711487573404102,-0.17695664580250114,0.5767958079352893,-0.0665972767777343,0.3979616673211437,-0.5072980100174209,0.9329312179463465,-0.011211828312151395,-0.06719209021101213,0.5924299261406274,-0.487018005697859,0.6722932001691406,-0.9718590475911502,-0.5302661577247012,0.05173856827016676,-0.7713954633930946,0.8486104293025551,0.3320467338817472,0.32447024680161296,0.4347285107922425,-0.7356190140928884,-0.0990760131082511,-0.9422962585832424,0.8279144342676632,-0.1153429470854841,0.16116918807025815,0.6579487723475734,-0.2166219392784372,-0.5859296348423317,0.0466134448451192,-0.9618321228187796,0.030346691537174175,-0.7139830367486857,0.178687146786489,0.1993487316699365,-0.3970947184150826,-0.5625612839616954,0.8972799593847016,0.3616503320741786,0.3679795918204818,-0.1133589231308838,-0.05404862098959895,-0.47324751140270527,-0.21543597033808126,-0.2963366855774443,-0.670679798257185,0.7071290514744921,-0.8330724558378455,-0.5835536506947361,0.01696744031305908,-0.5821378734570668,0.5554155317084741,0.6106361474186657,0.6611661038693268,0.27847994458715863,-0.34927634137610797,-0.7163567390985599,0.338088316011554,-0.7804945968865029,-0.24823252897656944,-0.1854833823786728,-0.8113863300137891,-0.5403716897406508,0.7936658550088787,0.6888193106788998,-0.3559990627866645,-0.6195753669051172,0.5715736768233293,0.18097968932036967,-0.8772144080233966,-0.3100576206308947,-0.5129942004891346,0.9904823141570014,-0.7506381169228802,-0.869743487191176,-0.29600973874411696,0.5073644497220136,-0.8951173774277001,-0.5297386162449143,-0.7767637693858715],[-0.0736728975674823,-0.7745046974086391,-0.497714441790293,-0.42954260763197905,0.21980579007988643,0.16804139483800462,0.5453928771652066,0.9971099332410631,-0.8538942365445847,-0.2270562576441828,-0.8422426275089425,-0.9393000279670756,0.44208601680588955,-0.9015442488894505,-0.6420631691951326,0.8265661557524646,0.6446007701123282,-0.8564395299381655,-0.7086044940814973,-0.9145088103117558,-0.5498735554635699,0.16773882526118777,-0.49290973491009993,-0.9117564815397459,0.1214121579039491,0.25095427854969055,0.13342876082168154,0.4174846266937462,0.622319777345945,0.04289343336494933,-0.1743842247109324,0.9452434515074828,0.9356945642047194,0.09907554407525088,-0.6164803858579735,0.05339503663884382,-0.12085767161576966,-0.9518825078045487,-0.2082479011980023,0.4614606391371312,-0.2546660569548722,-0.1755548660111661,0.798481115587417,0.9824399279731566,0.24869627864199928,-0.2892629354316161,0.9235245493525714,0.5946516701192108,0.29209207914881463,-0.4481596839039723,-0.7416926192068434,-0.8988985596766579,0.7194986205737601,-0.24205399545208572,0.16218960083848,-0.5593716387090373,-0.6797791455425795,0.7862640372900285,0.16622262597230675,-0.7692284597442893,0.6317179868717373,0.6354394306949005,0.5712188635036768,0.11236477615995866,-0.3375344521726804,0.5494302379231135,-0.2647448516729145,-0.45217580538648217,-0.17933481886075797,-0.435093426581042,-0.758230351724198,0.11099160137226205,-0.8564459734204348,0.9960319192223979,0.10342299282286849,-0.010449568644455232,-0.6161127743534489,0.9737624954453872,-0.7253528673324046,-0.8315721252209924,-0.18935755293143397,-0.8226941451240164,0.799748516812264,0.792448987431893,0.2888607295427814,0.4754248239324568,-0.1993244141209609,-0.47838442508920687,0.5859891224629235,-0.45274766409446565,0.9279565686424267,-0.5663266447935147,-0.5063473747419884,0.2829534741553903,-0.022818886090467005,0.9678888368356164,0.5085765279748935,-0.7490637096369546,0.6122331509804091,0.1130903196386821,-0.9832870661644342,-0.49000263660436816,0.40886360262473875,-0.010995234985869073,0.982298091987919,-0.7858628055355308,-0.13046429560974993,0.6323526474524948,0.8725821486360668,0.17525787564783069,0.2552699074180407,-0.8390762069829658,-0.6388558628381069,-0.822639861067147,0.9203436000157383,-0.6987849582212735,0.4161734637207106,0.8809613201648152,-0.5579522885501775,0.5364425258669367,-0.9343611421684404,-0.5604225547837793,0.08688644868536599,0.7724675679877608,-0.47035141001248815,0.8395736947615451,-0.04500637498471116,0.7327680526470948],[-0.10962079581260009,0.1973495217154997,0.9408706694772098,-0.601891324158716,0.8790877230904282,0.6236829236123622,0.9459007806553035,0.972724014535288,-0.6079993196558533,-0.5582361250237975,-0.9958432113541351,0.5689912919884534,0.38887508360515843,-0.22346087198600695,0.5939604386924808,0.48042497603906464,-0.8808480153934659,0.3550149622428276,0.37787729200563613,0.42881529371716787,-0.143301719494765,0.1935539342938548,-0.6100930421334689,0.11224728143981366,0.3535309228146495,-0.6581295263726108,-0.5355627401196865,-0.3513171403791078,0.8040473975344569,0.5548287315521143,-0.02942005230061784,-0.8341164947667321,-0.671854972811861,-0.9989419802460993,0.47269050307811655,-0.3610438584514202,-0.7856797648058553,0.2175865545733746,-0.44930600487754346,0.6629035772917753,0.21526194533694953,-0.6979462918854784,-0.9171859110885354,-0.15074402536418918,0.5745695282155188,-0.833356393040674,-0.6440718357493611,-0.6944958763381053,-0.349308780987736,-0.9477733574444605,0.9721711986923443,0.6149983952251519,-0.9052283235340748,0.9019972531245353,0.07296074393194618,-0.4622013015533719,0.630421832536946,0.6186247059081247,0.371740026930254,0.9873103959936311,0.0509263204838748,0.09363277543911352,0.35534487709232576,0.5057298221185624,0.6936079697438469,0.31499392053528963,-0.12897977461661347,-0.9377659988037368,-0.6116505699325834,0.6921117492532907,0.6777712139521017,0.2738239078434068,0.3336497704398096,-0.0881557780916633,-0.340313114187353,0.9852339245361565,0.9337256382179089,0.13290776164976403,0.2938617252684601,-0.07052229625948181,-0.32182431457461513,-0.9843241991210148,-0.05359845964707155,-0.48365160860389467,-0.5312117334474336,0.7031698175658594,-0.7669749839725153,-0.4230421682251706,-0.23664593632850162,-0.20305891726097913,-0.36389423262135145,-0.6467836526340192,-0.6794722399524065,0.5060276097642245,-0.5186869767154703,-0.777140645099381,0.5277324017061973,-0.49937546623191587,0.22407125075370082,-0.20976162981723623,0.9656823171729016,0.6511329870298346,-0.24503918665856972,0.0021883061979264262,-0.6713530132472489,-0.9516673863958909,-0.024545762658433334,-0.9106322278290262,0.8931819378868939,-0.8720316296329294,0.7157541053563798,-0.6783263608065873,0.2485728625115362,0.2629153825645012,-0.6625774317071176,0.14522758136412062,-0.07197182152609494,-0.4639317925471391,0.1399447861193932,-0.4481463469558684,-0.42756249176961836,0.9951935001989554,0.31456643642276405,-0.37987464965502693,0.5893078971452204,0.29788480190545785,-0.843298939786367,0.45264694254796245],[0.8254703577050244,0.657421546295361,-0.9095946518683384,-0.9888661935010639,0.9927088393840828,0.1583187450645176,0.24841043307022903,0.7081773150077857,0.9498013857761345,-0.7509621546564835,-0.04896959991517358,0.20329688697241144,-0.6503515032691318,-0.021454134655180646,-0.9190638747784343,0.11463889575419328,0.22815426407435035,-0.4697526957379645,-0.5084054394180859,-0.3179687974001417,0.8911459098031116,0.8116547451336731,0.41210071044554275,0.0990459405255939,-0.8302474575303169,-0.23730946627559169,0.1260043454481523,0.9971929769573458,0.8924937198467189,-0.08935111167635146,-0.299881750732246,0.3041359635718379,-0.8596217982308509,-0.8871455539592894,0.9436776445463935,-0.18517320398803672,-0.35110874278634885,-0.5555118303663549,-0.8778221439757201,0.3577990179146804,0.5516036060006102,0.3368722402648614,-0.6702483303299502,-0.9109290588242527,0.25150317141306155,0.8590107959971169,-0.39264100246061595,-0.42758483056650975,0.37757813309390764,-0.47301537071639577,0.09621952771417175,-0.13968756831283158,0.10656441806023675,0.4522041778204451,0.49109507489914983,0.44992868753900916,0.3631261022072103,-0.4655109187126536,-0.23308699284627288,-0.2914962102895424,0.09671388546123838,0.7760009219952269,0.6649013231617762,-0.8702989288648149,-0.8472002135328836,-0.5343609924666384,-0.2858838503389054,0.28608523978844613,-0.12050436991102376,0.3079386359003,-0.9570087287743296,0.23552175559183786,-0.1809497232092121,0.2712908302959893,0.22858481493626814,0.5163320098324253,0.6688592331228727,0.12476481326802413,0.7940937603602438,0.7813073822247016,-0.7159082637436625,0.8907212566921712,-0.16367358464701542,0.42229828028985716,-0.46114312165855664,0.5672255824181596,0.912473331444239,-0.4222286105462365,0.40404246321021176,-0.9394135834136874,-0.5728442485388112,0.9639616548189993,0.6652107008724386,-0.8560140410866097,-0.21357096654349994,0.8396001127944788,0.11053972191232209,0.228174390807367,0.21365135780460953,-0.7896140205951359,0.4718404032958563,0.4798182886103739,-0.6702123237032864,0.5537421225090193,-0.24152184892565076,-0.7705633920548347,0.3601777972262603,0.7292115398982093,-0.5229789752844569,-0.014096099194307765,0.7473072168304151,-0.49343686316260493,-0.5442106015864694,0.4032182375050881,0.2950236759816287,0.667356030319272,0.6474065372463484,0.13372675462277628,0.868654233389647,-0.5615737371606224,0.8040856962261742,-0.9471243974862129,0.9780952950760546,-0.3865558248649448,-0.35596844762305646,-0.24325246841333836,0.3045804353062638,0.024262312150981735],[0.853111170215259,0.8156837857405648,-0.1487229975841191,-0.43202581189478995,-0.35053827134456883,-0.10595583923914442,-0.43592192688557785,-0.9762332231447837,-0.2208879811533373,0.4307619291650713,-0.16185843306424297,0.5790034135780435,0.9363165593450387,0.3032253610515867,0.9078809200798406,0.9008181772708808,0.15601494608943,0.5407253702232622,-0.3234380241161321,-0.9028867763761688,-0.03949319395085049,0.8327023192691878,0.1523279035408598,-0.25254330439770345,0.8635260994441913,0.8264931391753871,-0.9927084564507807,-0.5274671994100453,-0.2959145954353697,-0.33749748762681,-0.31252975666975313,-0.6978142299773276,0.4181805781615795,0.3476521277686322,0.07575612532558496,-0.552694691096028,0.06837505250768028,0.4062970821209131,0.8488199223766035,-0.057180598042302355,0.632142587079922,-0.6755755659728773,-0.6648569247330804,-0.4071672423438266,-0.629459433665533,0.8402771553271648,0.41882518579397177,0.7335354892873978,-0.5046562531965708,0.5991523828262877,-0.57201452632641,0.0018611204149636684,-0.8029800962229212,0.2977415345066168,-0.6516338096771837,0.6826302509340487,-0.008584038152099627,-0.24005440536019385,0.6544832411047412,-0.6638809542282729,0.08215285512508563,0.8329337554552814,-0.09841972303005897,0.5339549089907007,-0.871621923860117,-0.07888958675941637,0.3494227254976183,-0.9186206782870916,-0.04479705381170129,-0.980365279969744,-0.5923327324455911,-0.9498848493637997,0.004954460759961421,0.7567722575885074,0.8463920383873413,0.22815368993683216,-0.6304193152153881,0.06395956375668987,-0.8690308457207458,-0.8258286300555078,0.4288164970807782,-0.17528226040206363,-0.09438156807130205,0.6793290964201397,-0.20813203304851524,-0.4266885398223692,0.6304757470355076,0.5102037339778276,0.1279431090791956,-0.3351595974049564,-0.9597056908320052,-0.15007161125772517,0.6470325268250017,-0.0067541593881697,-0.09059145012706615,0.4387324140573994,-0.505052859121496,-0.7034025481070507,-0.7453083655061055,-0.7823796164286789,0.6803845203314041,0.4304979004705154,-0.22689092348676954,0.45965298121250964,-0.7235515172970217,-0.36115214930637807,-0.6354701487998731,-0.4760017437530988,-0.9303796550420025,0.5827660600646107,0.8594077115120113,-0.6909429574651123,-0.8242606965561745,-0.8108234638988625,-0.44717309158101015,0.683494363079443,0.4025974978368787,0.4898006159428021,-0.2561456518898235,0.4905425746007206,0.30539748941731637,0.8014574949147677,-0.07348925248665039,0.6147083435707066,-0.8428185371659478,0.04007631629965269,0.7954674984765486,-0.7381142457261722],[0.4403889942847854,-0.8753627948474796,0.009414933064447517,0.5440834799294822,0.7321072297093709,0.9058103694396618,-0.010301603138968884,-0.9372243673835523,0.8092579154939106,0.21627844307085753,0.9958745766251258,-0.2880686948620659,-0.7161029427827628,-0.7679141523589321,-0.17525441945721965,0.21624932998330038,-0.9732236740528499,-0.375399188269653,-0.9642484260896531,-0.9683026680711986,-0.948221268543493,0.5845020917676556,-0.038999762728989085,0.49024034661699356,0.3030129452052319,0.6601411785334426,0.5837570878187928,0.0378181850344641,-0.9256632854376146,0.021556591538143044,0.42331527759971155,-0.6004954809319469,-0.08623362858656392,0.8091281055690109,-0.2531610823236232,-0.29541191041070336,-0.08254371613694778,-0.8701149536190991,-0.6336693037535228,-0.9580269617252708,0.7926970745627622,-0.364238034445864,0.864835861722042,-0.14370838227098637,-0.9970257852360775,-0.5753884331091248,-0.4365385229841694,-0.8621219698152909,-0.32788407792944496,0.298449296788738,0.6342430174685361,0.36959539862755686,-0.3486535278381999,0.24495104164317016,0.31248122668765843,0.3167105385359552,-0.5065552835567884,-0.375950378385852,-0.17300746446423232,0.8980240846754315,0.33630070590010375,0.2520963472107478,0.25706247503541446,0.445020002925989,-0.6052809171859952,0.031881953546391895,0.9828780474840648,-0.8126940871808903,0.43616035602966896,0.10425921505140145,0.8481581597786494,0.15388064039393856,0.49793811120169806,0.7021205808881397,-0.4954919784914913,-0.7695629533323327,-0.9752375606845292,-0.42885815662819593,-0.3321574320307994,0.43572548252288734,-0.751936016997587,0.020568691920814786,-0.4195050461042735,-0.7439245268556582,-0.02562854498030065,0.4478067218367654,0.7792100410721092,0.9833208966149618,-0.22185120136414915,-0.670739578949505,-0.21125485452796156,0.4108343277954296,-0.40690441208339334,-0.9480790528160528,-0.19566278492045197,-0.6608257826296524,0.7584438107528151,-0.1428821477445632,0.4841168021500002,0.9123716870684566,-0.5460421363092098,0.10532917440393885,-0.9219186758629219,-0.9362702668282352,-0.34997854114086,-0.16184741602663832,-0.6919494827035491,0.8860133100442451,-0.7408318551870521,0.22672618688941037,0.00573694412903758,-0.6201766398515651,-0.6056814766941561,-0.9365888374587394,0.19322818025324606,-0.9935795997654897,-0.7269869360463292,-0.8431282366254376,-0.3270913845779255,0.3413832873901732,-0.25688716652945875,0.3518986606270542,-0.20917125662840386,0.39581716210281725,-0.24564498934189083,-0.6614836166014864,-0.015447922236537348,0.7817651611211531],[0.3593536982628185,-0.13488891046565565,0.0861924805136669,-0.6158741017187652,-0.909304669807661,-0.6887656227450301,-0.10624304371860949,0.3456771083329371,0.9987136954329752,-0.09324771008563304,-0.8188313357901427,-0.8523096736656397,-0.2936168090171052,-0.18092063349147747,0.25957604750089414,0.21440222155804833,-0.31819967751643596,-0.8919120618833911,0.6544303590751943,0.46506008621963946,-0.4786245707302186,-0.6894364103051394,0.9559117679915621,-0.6480342805773649,0.4697765328124863,0.6612893488273879,0.17892946702816714,0.1345440077711395,0.8508833057140435,0.5189307595851183,0.16191938013573437,-0.013375644367771944,0.9882851210044115,0.9247097537355637,0.05831488512481142,-0.17682817928035832,-0.894057414539287,0.5176506538077146,-0.6592978408143364,0.5774569143502781,-0.6065081702081345,-0.3626964096710852,-0.6195473440502146,0.7485029827712164,0.5626055952479208,0.6945386386245564,0.5673532585829757,0.9775205658010926,-0.5037001787800361,0.5813947117745586,-0.44205280097664135,-0.6887589109207395,0.6024056490986738,0.7938442605794476,0.46831052971340004,0.78421841544561,0.2984132652634801,0.0548267463574279,0.5912842163229313,-0.42427842301581054,0.4174413741054046,0.4826112532543605,-0.05986952966524872,-0.16785911183951052,0.87723640600604,-0.1640421304628381,0.5712325003855889,-0.4460686146130486,0.17660057678536778,-0.12395783583864084,-0.302796560871349,0.1672591592326751,0.1543711320353489,0.5017115228552071,0.2712198935707597,-0.43203693601523874,-0.5838354070530412,-0.8292460717864771,-0.790987579829038,-0.7287855234260092,-0.837978110667754,0.7077139398602705,0.12003569009952941,-0.520367490157329,0.05505953572126199,0.2144870019105356,-0.15537744244653373,0.24470076014606756,0.4382088564846136,0.057843085191219945,0.18828954624086913,0.1713800584167997,-0.08211064274189361,0.6316692552739287,-0.28079813421719435,-0.10784998402351675,0.21296433570648854,-0.02428885528738145,0.9146722944726309,0.6127920317160584,-0.7336237597482873,0.2687702628659936,0.8862447561830227,-0.017283297198052328,-0.9540814041485608,-0.7449260885173352,-0.8992333808594841,-0.19540429395236325,-0.621249348511721,-0.6368861458592416,0.5413499611585979,-0.15196906352293138,-0.27795396815495965,0.8331301663440491,0.17498835652180822,-0.28564266141320216,-0.6901405272225949,0.8969749816904402,0.9876308134043994,-0.4683902118962231,-0.20631629638561355,-0.8624955187263557,-0.18220475373230505,0.6165169015174976,0.032501511886125156,-0.18802776631792084,-0.7799252850296379,-0.5032740089862513],[0.553094521669834,0.191111406595321,-0.38013543297408825,-0.23940633677245549,0.00023049988809686894,-0.22640977743822166,-0.2895308858012864,-0.58155044324261,0.052989027479871886,-0.19015979750995715,0.8301777496179894,0.02075306280021949,-0.21776496788908384,0.07769664592067227,-0.003962546078167373,-0.0009483625153445807,-0.8789175409995329,-0.7933079763807769,-0.8380429337434399,-0.1880489255547464,-0.7488753410646223,0.22598371635219405,0.9070758714477387,0.9991205012457993,-0.806871870360736,-0.5384669843048753,-0.5489333067126412,-0.42958474470944785,-0.9213137774157814,0.6699510678709379,0.4704210774981994,-0.833287985397074,-0.5531446552329995,-0.9433823634421101,0.23848411471459063,0.9116573778298753,-0.08797193757160193,0.2386604156326042,-0.5712323235131791,-0.36524527996096,-0.22298776365368767,-0.13181201464930403,0.27049382344646844,-0.6870277976519061,-0.09279093018737239,-0.13415972222833683,0.9118776391893866,-0.7171472348252814,-0.6934102732483285,0.6344452030536754,-0.6416754317036955,0.565716692268267,0.8026821654283416,0.772466951113195,-0.09903615984288172,-0.7885795309081078,-0.2577463016864052,-0.5078086692234287,0.426182322431943,-0.9566798071228917,0.043598088832778936,0.12378925712194211,0.03026231455018502,-0.7728780475995864,-0.22616806639031983,0.24735814913812515,0.5124348562501007,0.5057198992827798,-0.11294926609372768,0.3776647146557406,0.597547746438549,-0.035572240885265005,0.2558715182075868,-0.18152777896409478,-0.35345625321570484,0.17808742198402716,0.17952864321672402,-0.3246547230527317,0.014300262710470246,0.8594169181795672,-0.5773456586960579,0.3695278086325089,-0.6442320593890194,0.712185835740748,0.6594659748951144,-0.38571652379446864,0.5346498391807013,0.10258026504915141,-0.7483449601031793,-0.752211506846111,-0.47878775209359414,-0.3218658981105489,0.3897737938754531,-0.11797268436619879,-0.06414647569805698,0.31343489022919746,0.9746055239740552,-0.15723746075896106,0.21546544513134003,-0.10085251013289209,-0.4597737592393598,0.7503497026187069,0.04105003408815011,-0.27567785148764123,-0.8675465302887662,-0.46783779552474436,0.06460716514567699,-0.9802314970452048,0.1395785163953409,-0.15418670978087,0.8622421163818246,-0.3526968652168605,-0.3088105198485318,0.795340728149897,0.5226331953885066,0.9344915834673437,0.4084786618991332,-0.4747898438286795,0.49312914443840206,-0.905948928832534,0.5506296859524185,0.023734514030983478,-0.9323475310644393,-0.5573168368610322,-0.7161897724523278,-0.686669632745665,0.04444263638393853,-0.46403310811891196],[-0.7956871032494182,0.600443018979447,-0.36659043986351314,0.8892400145304116,0.34745989703711433,-0.7860280642501982,0.7427669491766646,0.9502701683126127,0.6993417069073593,-0.6633647386014874,-0.6865585858937808,0.8756976026039036,-0.8476357889466992,-0.5711271884072231,0.14764307006591193,-0.23563174632239536,0.2518266147529078,0.8438515105546094,0.8549289917475755,-0.4468275589823332,0.5055333355552121,0.7977442035843765,0.17619946068029946,-0.5363772580070298,-0.9618671920514841,-0.1618280446792255,0.036338683168967156,-0.8264542783775053,-0.8950534541304935,-0.15578049263475746,0.476330475312569,-0.7144233857282924,-0.830391901458974,-0.9048812620230251,0.7883089149995928,0.5860447282459922,-0.7324156151011232,0.7698484474488976,0.5893741775527008,0.922571148487932,-0.8822459884860732,-0.26783921459086635,-0.3851329514467883,-0.8162952142603883,-0.6739091884906103,0.6983741908770509,-0.6364098265861333,0.3430893782512092,0.5549348133602214,0.4086425029100622,0.45850417826687684,-0.8819807690367119,-0.4838771580124195,0.44835464179040696,-0.06067374011679938,-0.6333257021202046,0.2037260885555685,-0.5677081165000692,-0.19899122001886882,0.09039159023415633,-0.05734959376621207,-0.47098277848460146,-0.6127337552785814,0.7008664087791208,-0.11124193046070041,-0.12425572786466987,0.18524129388331856,-0.21970741851784537,-0.3516572489537344,-0.0735569376412113,0.6652800553603668,0.06236758010642163,-0.016806312574938254,0.10578388313390441,-0.18900302208878883,-0.8954032918323953,0.060184328773037254,-0.8718206227935839,-0.6779420344535783,0.2216134704190067,0.345778785405489,0.8368013816513487,-0.6215652964264653,0.03726074192604889,-0.7111189380734704,0.07296827238897663,-0.2000928657105494,0.5737414459251895,0.39271832847815613,0.4940082999357098,0.8159034530885463,-0.6622833920947089,0.6047771037817335,0.9994420287227621,-0.6461992278531457,0.7945193097289915,0.4307422318638392,0.7757271322245445,-0.8290955307579815,0.4490385102086787,0.7932604531122458,-0.5787539147976719,0.6121392996614963,-0.22628374655574457,-0.9164064186204866,-0.29672781451483554,0.8849975543428701,0.872250122537811,0.31541420164162215,0.505149310304521,-0.13974059591482413,0.07564668351929082,-0.8801118653800792,0.1932072433906995,-0.36481638213683665,0.3568207037912776,-0.8845476160853774,0.49903804809081764,-0.4020243139066011,-0.9505561951803443,0.08020701274075903,-0.9515918245645942,-0.5733536476908967,-0.3167531981935616,0.09114048337813818,0.08825825426256939,-0.777270272609341,-0.02196720899048188],[0.46819226635410827,-0.3536402643020422,-0.34576999204438574,-0.4739527240857109,0.6861238427358449,0.6507947286783111,0.978950450982149,-0.1344102779447005,-0.8536300894063789,0.23231604193549837,-0.83494831396857,-0.5569175343482946,-0.0379973616065874,0.3913184424210081,0.403822485746379,-0.06209620119110082,0.9306214536343518,-0.3639396380579525,0.3347680270433948,0.6632615123955699,0.5875047163458287,-0.8999752941051313,0.7836671626606133,0.7474978274349708,-0.2658592289629358,-0.34728673357586914,-0.4824387092305078,0.08128678811745749,0.5658755800187163,0.47914292048167995,0.6341273299325136,0.7641797725455652,0.03416643387095353,-0.7723934645555193,0.44482041395905747,-0.827798543432597,-0.6790721510489479,0.6323881610434376,-0.811524908203689,0.8388798915255227,0.5969451407048161,-0.2775133337512372,-0.7264928681289515,0.009883513045375159,-0.9800979661537941,0.9063304839326769,0.8232975822108075,0.05454156407817812,-0.19622529856067317,0.30257038398662983,0.6336651862672413,0.5053453539316777,-0.4400482138303461,-0.4832758378817801,0.5090291685937383,-0.45951712049919946,-0.20004231792001548,-0.21983712454938087,-0.6226682961974146,0.18115666537109387,-0.9252636288519327,0.8708888714931731,0.05481960628679139,0.7041411073959696,0.07023985986955061,-0.46970762776977004,0.12056000954561585,-0.8706067656124117,-0.3815994866171035,0.39891200283972905,-0.724610375997667,-0.2695721881658213,-0.14190747834168893,0.5541914398037533,-0.12454342554199971,-0.6440152854925545,0.5127423598008036,0.293306603013767,0.9726985475236287,-0.4383672921297257,0.013506890881398892,-0.32349493083321734,0.6485624143462965,-0.18787368715555486,0.2951851051200438,0.7554164018044722,-0.6607943975799535,-0.054926307880917014,0.009693044098074033,-0.629138784579172,0.2760595717648682,-0.2632722471869635,-0.08305775762931944,0.3893792472373194,-0.54660705592166,0.18817401310090798,-0.3222484751382373,0.38620345734552974,-0.3668547829261515,-0.3741871509756345,0.2899591690871146,0.029265093362380146,0.5026012896833898,0.8867844897389769,0.3459778476796078,0.7483056841982341,0.44041564922199194,-0.13755644149842228,-0.9991665222112238,-0.7954933330577441,-0.8430046661473147,-0.29837913433146546,0.8607280632693048,0.9918341537930433,-0.021590842172914737,0.02392524752496672,-0.4084043137672999,0.59067414444903,0.1940226498826354,-0.7581025261243559,-0.3916633896195827,-0.6844218490121414,0.10699987930403099,0.010352323612578873,-0.0515011522162474,-0.4401963187231319,-0.3734472596755376,0.4357439408105255],[-0.3504375085627176,-0.7022030251580182,-0.29847957570588957,-0.9864134260788082,0.17005477759348842,0.8447159273700511,0.37788890421721066,-0.5203861148870421,0.1833600159880615,0.6452306345397874,0.2550488204091146,-0.5001473180351808,0.818056137617917,0.42840370238185965,-0.6257551024679417,0.724902956946001,0.5885867600773531,0.115484088376681,-0.8259934977503396,-0.18801982870709044,0.8976464493065923,0.6493042933155404,-0.6288823245352306,-0.9730260841439136,-0.20615108691694783,0.3674976485567185,-0.39374312137141554,0.5232238346352889,-0.43996092410501086,-0.3583753821043072,-0.5797726921092106,0.9386232287807361,0.36108514712969497,-0.38175051181824116,0.5187290965658404,-0.5327880424255524,0.8862805088299157,-0.5905935703769776,0.4984650764947465,0.1338353327766013,0.028042045292760553,0.4506874851708025,0.06954081229685505,-0.21666441999535757,-0.4736763565309272,0.42942905026047784,-0.5364988071192323,0.06526924831003811,0.5306748824227434,-0.6883043323222722,-0.215356417123294,-0.22835411971954955,-0.5618845467024118,0.9676416152406504,-0.2748296521152789,-0.5409900574585489,0.450523520909202,-0.5000041511256836,0.709029354615401,0.536377757661973,-0.6766098814409613,0.037045179370950976,0.6422429555752722,0.12659707975640022,0.12723489996818182,-0.24437904760373996,-0.19029255484447605,-0.8507946440958776,0.8634847393148757,0.3455667007390768,-0.435402966419433,0.5190348911173781,-0.936132546263128,-0.48748180883309455,-0.6833897854527489,0.8828436999764642,-0.1954432884340711,0.5696452493945403,0.7597296097675634,0.9890541628340932,-0.5153267669293791,-0.9611910563434505,-0.8804027881654493,0.12996835231043646,-0.4103271565374784,-0.21884015980562377,0.9162715312027294,-0.055907220613045316,0.7202113262701262,-0.891740471711324,-0.7314055376629565,-0.9675704606714934,-0.8365242870062566,0.7076950196469487,-0.006596767836488215,-0.024035455946627815,-0.6979243063689975,0.5164193015379956,0.6570788817817317,0.05673616597185527,-0.603853218627008,0.8654333542537982,0.27734676820543247,-0.5038428761538574,0.8586465956750744,0.3009055447201274,0.7334420341947323,0.08126053242015274,0.08133198290714194,-0.05516931911421796,-0.7616299976283178,0.7835069383891786,-0.26277938921975164,-0.4952240634942193,0.42982749912075646,0.4915364443754635,-0.00638681745685199,-0.04825373204307648,0.9062591902142139,0.9457882101680577,0.30275260809462146,0.13919733018348945,0.2638071572257046,-0.5484468678391703,-0.5335441981629991,0.8000988452686262,0.436949851555267,0.18532339447246549],[0.9309044925045027,0.9254586530296283,-0.3821111795614567,-0.18752108588016436,0.03893808269752119,0.9590215555179153,-0.5119428820001044,-0.5656361815442406,-0.33083593321755456,-0.5617614457121316,-0.31607650976912827,0.5656579002297797,-0.17797491982955593,0.38028335821150083,-0.5498193105322704,0.061603626427674474,-0.671849582742192,0.9294099065370502,-0.486851149104246,-0.797527386639582,-0.8105751798174166,0.7895178633051765,0.025089688663725962,-0.24556094083615054,0.16790938025126412,0.7631375435711005,-0.6749123955372451,-0.4494780586326901,0.8176479528965934,-0.49133876762218365,0.8369547629368295,0.005001059531842822,0.26588598032434607,0.3454650877037442,-0.6844809313825937,0.5465994924728461,-0.3243303944625029,-0.9968341221515085,-0.60632155974109,-0.16857549637590474,-0.6701368543631614,-0.7503194144961471,0.3017682978780116,-0.517135015657886,0.9491916653888046,-0.9041978091476073,-0.19179303106068746,-0.6421180057508658,-0.9714277687843118,0.9001449740894614,0.13458618402638378,0.9156706931677527,-0.9921603094836273,-0.4025362419122742,-0.2691394066615864,0.40189077739437207,-0.12729721411767936,0.7570216889306278,0.03369700973998779,0.48184995951698606,0.8004212333277962,-0.522470522663252,-0.2814288661620785,0.9404284239486442,0.5159424627130356,0.00028801741045869633,-0.5975865719145141,0.46705735696151374,-0.4277449635038011,-0.09515143476694132,0.17870709766868975,0.37477781147764677,-0.03521611865127827,0.47718565947764247,0.9957308036101007,-0.3133758707989134,-0.4756466919578475,-0.6736251164475744,-0.9868766454099767,-0.2286294188354845,0.5637058361303755,-0.7725207614241021,0.9580441828344148,-0.709435537304941,0.850833414311936,0.8069517561053372,0.9798519228713076,-0.7476878303183638,-0.5395877362046408,-0.8425702995646505,-0.12437271794183058,-0.33800214556529373,-0.6703765650143767,0.18163010795053247,0.08093939565498132,-0.3682755487675027,-0.7576947762483022,0.21872909306314936,-0.47808270824763466,0.21972443024241817,-0.36718019868061047,0.9445512820594288,-0.13979774809642675,0.32935269450769655,0.9794384832067584,0.2683561338403111,-0.3724677447829605,0.7056047318798433,0.16522521296276294,-0.22007689575689948,-0.3246581606093395,-0.1762396878488961,0.9552964680149842,-0.6642067092672617,-0.9551345807836487,0.8482969568110019,0.8222288708143024,0.8090122333711574,0.6515503544923913,0.011889998602505392,0.8432419494852557,0.6864908372746514,0.21850139638970667,-0.23529586906847544,0.10590657929328495,-0.269669969156626,-0.1569187795794844,0.7087302999866547],[-0.278668150200434,0.9242678130214972,0.08620288286445255,-0.7052403741806696,0.014098369577673964,0.7758349478622577,-0.7973350154768415,0.4524655530140427,0.5031993250801527,0.8911890522517347,-0.27861779065101877,-0.7992286495838739,-0.058059800451519816,0.783047428800046,-0.16817447618141634,0.2241530867505539,-0.9075711067123733,0.7067622856935125,0.3442613107078014,0.3948908984232926,0.9664256853408508,0.6357288585674334,0.23173552011026044,-0.6086397615227568,0.11071113321849735,0.31695644938240153,-0.36753602711454825,0.14525205840308608,0.24990178698624677,0.029177707241574646,-0.6922534510258931,-0.00845598569718109,0.5089544133005266,-0.5254044181184718,0.3624880959187353,-0.2680526659708977,-0.16893740654823164,-0.19431761408704373,-0.6960563253553933,-0.2830451749770122,-0.682957311006815,-0.4070462242730528,0.92561851016569,-0.8823285545901922,-0.5761408270584409,-0.24982495737752042,0.5895090277346469,0.20092619543182533,-0.15606025073892837,-0.24191374886888228,-0.2880662832950551,-0.6634137983907631,0.9188103104672043,0.38569696174709667,-0.9909313632010266,0.15197770606359629,0.9782440702574247,-0.7723097891378436,-0.7435456145252095,0.8403358666640188,-0.11102215229977341,0.2909877445658735,-0.28222844895027466,0.7775896207384687,0.6845495398456054,-0.5938833204072411,0.4327903864092233,0.40783490912921616,-0.19229102772255047,0.03042885527610628,-0.8618908386917452,0.36936786615550066,-0.0663477110990851,0.8986763325954636,0.9250138919920357,0.12060622040757418,-0.288010405889189,0.42308204832957497,-0.6577224686626064,0.4355800072742595,0.7082569297979744,-0.4812397823539245,0.5815400291892134,-0.04660242732464792,-0.7106030659781484,0.8439141815314792,0.8595287426971168,-0.35138470424125035,-0.7646641225061497,-0.3335745740052929,0.9288683039115992,-0.4974430908204033,-0.49469968475686943,-0.863946495575797,0.36365656861261964,0.7432352824916126,-0.9821278337520738,-0.16489930590659907,-0.17731434701144444,-0.623599898377061,-0.49952127064689766,0.25850036297216805,0.42369195731078,-0.8526663767442868,-0.48296781121562016,0.1137919324341683,-0.30987793708701483,0.03925378435093041,-0.47123356816310924,-0.4153154495521463,0.6842362714671597,0.5967582208044337,0.237777450139679,-0.21750873604138565,0.48504815303633686,0.1848577659226025,-0.48381854122368373,-0.8186216165369065,0.817545254316794,0.3043060711652381,0.5483513588514479,-0.9941795052086775,0.972330817616913,-0.2916719012737934,-0.6864772571691671,0.3500808209488062,-0.5255015435016674,-0.0357229123220022],[-0.9907940091164396,0.5321495555156743,0.9580860456773839,-0.37412366407167785,0.16295953712340672,0.12900038046236895,0.9871583505448989,-0.13254583557147637,0.3258207858788553,0.38977096300701053,-0.18606022567754987,-0.35062480769286064,-0.07409054260461012,-0.7972114107996287,0.19374784423368796,0.39975328770669716,0.49143110473939755,-0.27812684960953793,-0.43202940816203816,0.4705749014279823,-0.4627923648620407,0.9576492407551118,-0.5816972819729256,-0.23351971422288686,-0.2684252634992841,-0.19385719847847982,-0.4077161339579145,0.03289159311113776,0.9777728435048456,-0.040486020013471125,-0.9317789784732924,-0.5056661269578484,-0.9718655909728684,-0.5832668296541441,0.8094471494850801,-0.9094553602375572,0.9441490895596336,-0.6390618920885942,0.02472779100059541,0.4969986909209976,-0.7731089927223811,0.8845839446605333,0.04485212070784517,0.08260668170169061,0.16940464162311142,-0.9690438878344774,-0.25207573013784823,0.8965033366045125,-0.35254027844435165,-0.08717305401063968,-0.3281364763960426,0.4615284303380678,0.5563759417959979,0.24713329233529358,0.8702067253903196,-0.26982978015756,-0.9254246166898488,0.09944354736654137,-0.029032429768413692,0.2892270308605194,-0.879683769593615,-0.2450623657091111,-0.5611709410429389,-0.9407245731352287,-0.6872319558300006,-0.31548623352814564,0.8791817007098082,0.4255354242972149,-0.9721854029468655,-0.2709061062865985,-0.2234883745846612,-0.5908457471291826,0.2966242069599214,0.3272931605317393,0.3963813095379456,-0.8975880845271373,-0.1136260877723696,-0.3855400045828681,0.005812379512167176,-0.5772720826550302,-0.876937838297515,-0.9997869192805318,-0.10745971675270027,0.5976318559269276,0.27865796187245984,0.5956926530757156,0.20474444983062434,0.9664182036672764,-0.13697259642815718,-0.2090426652152162,0.2214633827080872,-0.3222506836829171,0.13166148688016732,0.3714728750755478,0.9331749753938836,0.14553373188302743,0.8970485753973787,0.35498226773966435,-0.28607198786403165,0.37533618664726376,-0.07944747053620449,0.7997260632951741,-0.3044942044247043,0.6800364513783201,0.5372070126403894,-0.41406722902091175,-0.7990627583175571,-0.25422322026386635,-0.7067395815881199,-0.6404949036027365,0.19549513177785705,-0.7115420519052169,0.05292800161461497,-0.049038296587663455,0.6475959915265752,0.8713953539627695,-0.08501608228687774,0.015412984919734862,-0.32895363047149195,-0.8391752970482325,-0.33583957135236076,-0.8631835958198328,0.13550848535218418,-0.7498832925853027,-0.4450465322185828,0.3139702488079412,0.9007370551140876,-0.9576764450472717],[0.9169069938312917,0.494117489589432,0.34268412328898235,0.6639507326291034,-0.13970739104099494,-0.9282300525415697,0.6581399478984622,0.4159178397810197,-0.7567934713992379,0.03229737128830967,-0.6488981923447548,-0.9991210788255147,0.6435683557436183,-0.5559851006231642,0.05786152886060636,0.18066328212264238,0.6781047797420516,0.8095056780301555,0.5162534608064164,0.6646624063646795,0.05566242701029189,0.20685862287488543,0.574378049363927,0.2536945421308261,0.30921164558965764,-0.8721203437226301,0.5359060417339576,-0.32402423481562104,0.3657948056783584,0.40810445563609,0.5128021882767193,0.7826568282666753,0.6554427794262179,0.7820177457679975,-0.34989282883812334,0.32035977424264894,-0.049325554221867574,-0.23304768820666344,0.9788678432683051,-0.5386476310838613,0.4226895369447343,-0.5916716571861134,0.8424529822487323,-0.7061186881125632,-0.5871173566295957,0.0021934778994929793,0.23305983673652908,0.9516393593877115,-0.6330906602777464,-0.2135411054275227,0.061964679288319946,0.4013863651448999,-0.1492674054397356,-0.6634117261836618,0.7722712738314947,-0.9973035315954568,0.1871122811510202,-0.4601597232824488,-0.37491606387685006,-0.3771551717396666,-0.8574579768474202,-0.011529995465651366,-0.5822876963487544,-0.17038036530476552,0.5046974967159954,0.05433553029520288,0.14334408160836443,0.5604573237645365,-0.2797185512322067,-0.3698284861683332,-0.305735462194058,0.7651037829849843,-0.8519339728671051,-0.4397784066910988,0.5204464595832607,0.7909675943459336,-0.10168085010802419,0.22095751426846766,0.3027779672200672,-0.9107067075124475,-0.3194121865035231,0.6629305513336958,-0.9003625691597066,0.4137949138240802,0.6112452027713537,-0.6170605953041342,0.1733454824371945,-0.9472008366358016,-0.6245534976786244,-0.20060893959048753,0.5766232610775144,0.21886583709068197,-0.45011061626642146,0.6386953245201588,0.57284976086372,0.6968751778972191,0.024847397999576692,-0.7193391610454776,-0.7826164980206061,-0.7904993271531779,-0.3296784105049,-0.7479285302596548,-0.8511221083808744,0.6357009250661954,0.7245145957794255,0.723992053328854,-0.3089230951911166,-0.9313770733597591,-0.3783429313138915,0.46995040718937897,0.9304942834203398,-0.68243349238801,0.3124031937374907,-0.3201474580293422,0.34715945774044354,-0.16165987719729413,-0.9141066320190498,-0.22731713395962116,0.08498492964388782,-0.9829959150710534,-0.7000127886958365,-0.7500367912767996,0.328728999389827,0.37447166638216056,0.2583947645956297,-0.26732805786401936,-0.24724042280697178,-0.76581623855609],[-0.4642472804894522,0.01741313135783873,-0.995015214910894,-0.693207173955851,0.8974699075001953,-0.6348385805761225,-0.39088414696357754,-0.7585288673855819,0.857835613053052,0.28494611080745225,-0.2852233912731077,0.7155215760994253,-0.7501951506427695,0.011607401113471028,0.7967436872310532,-0.6552633202451057,0.5114854520689298,0.6527635357075736,0.16216810439011442,0.7859271453799461,0.5239288214604241,0.36953440307177576,0.9501369570250571,0.33093357491402164,0.2534760698388163,0.5039683569491691,-0.304638654674819,0.6389903743076186,-0.7459129035049772,-0.12181607845376341,0.6653213382550918,-0.8845304622172134,-0.40125885484873103,0.7946151550410394,0.5487568300926944,-0.6929908916696172,-0.17436017718422336,0.33799761906212167,-0.5240525604240507,-0.44945819915750174,-0.8975672664320447,-0.6579653119210693,-0.7797756628602044,-0.29388331618508623,-0.4876708296991057,0.2778405883690278,-0.2431737994017258,-0.34559806813980787,0.24661080808529312,0.2276814130068634,-0.5263888214439243,0.12053024529839362,-0.4442702161319705,-0.5868300265375506,0.8747491334228652,-0.1854362925220805,-0.6038070550024519,0.9585699563771475,-0.7271260153828747,-0.7936542088315204,0.08554915704959187,-0.1600177595519474,-0.9594355935516159,0.4546432836095404,0.17689169100229352,0.33271872430876637,-0.22564470113563484,0.2107837025666628,0.49313492495377576,-0.5859139754749179,-0.8291255211103292,0.26332536584362476,-0.20673035587435473,-0.749016541567973,0.5402869289935734,0.38436344630994856,-0.016559320350689744,0.2024401726855678,0.7612388265398782,0.812876025160842,0.9307913959246523,0.9669185086501588,-0.9932103767139411,-0.7573697817829674,0.7488174639074707,0.16013118655273662,-0.6239693265750805,0.9281604327940045,-0.061485374904517,-0.5021637193863462,-0.6932094945162408,-0.6674139447158418,0.12759599961096169,-0.9595829783482572,0.3714505512419044,-0.10761277409059145,-0.4075954431218103,0.32117817600716725,0.48686601584689715,-0.642090746504915,0.9874331414845341,-0.7837648836439275,0.6691898138445185,0.10785788276740749,-0.5853422151447991,0.9895380421459208,0.9230904146066179,-0.5109826458866555,-0.7899584383291798,-0.3891602921241264,-0.9287490660205384,0.32798615041346135,0.7120832831081694,0.6609739376432784,0.48025930108782977,-0.05660471524381183,0.09340251560453905,-0.07414675865491649,0.05723955884711418,-0.29487315924099367,-0.08507977745791262,0.5390538849653617,0.8921074107505611,0.47607338825501055,-0.16667395793064488,-0.5602741294577811,-0.890069186209048,0.592575559186824],[0.005696316468338791,0.4889616941210806,-0.6754546571045732,-0.2701207025129331,-0.5174855772631943,0.11187114471567194,-0.033312458445653226,-0.3234599497575319,-0.03324044114612423,0.9890479130424226,0.5123674200418356,-0.2408577552010982,-0.7011310649126941,0.2556073959952905,-0.37150878487445493,-0.8787414062507175,0.8544164699155574,-0.9954393020672823,0.3113433466907327,-0.990979769757149,0.9737200989343595,0.29138755451925635,-0.8673311375302406,-0.11518068895650013,0.40425211705018294,0.17135957941426883,0.3042901886357028,0.7979112597468327,0.9277573803541943,0.22231670873024245,-0.7017045688820189,0.4336415320109426,0.15885683946723517,0.14270104587855403,0.737140841958025,-0.08595485973241512,0.6898958724970534,-0.45236657147382964,-0.10542412394321077,-0.49417580356103663,-0.8425468599965915,-0.752323456266405,-0.3457104534795341,-0.01863336941912519,0.34217334547501177,-0.8474036147349211,-0.04227481452986659,0.5673011639949597,0.8374328652436753,0.7070577554504098,0.020458839751730018,-0.7254268348488417,0.3639089531793338,0.7553486896575514,-0.17569735847133328,-0.5693141258722709,0.9447709598413241,-0.9415701901180507,-0.31777052525201377,0.20209070443695842,0.4005881474458397,0.27354737371828985,-0.5710474336495028,0.9604703765583684,-0.6293407170032517,-0.5576233772346373,-0.9989287697675486,-0.152103036542929,-0.5102364319925907,0.8925976469572214,0.9325195573647878,0.5585912212687554,-0.2470792120540215,0.33635884064688604,0.006856831879805014,-0.6221117875524578,0.5165372417721179,-0.19213328768360016,-0.09928966312773557,0.00035411499190507456,-0.8436255246159412,-0.43386073726045726,-0.8457916961146583,0.4901420941441825,0.1082743317929784,0.2710770864499046,-0.45281750402626963,-0.3766108728459798,-0.45223526547022996,-0.719163068330076,0.7373677119448725,0.6893529328945538,-0.5974890235398036,-0.65639776116148,-0.8546485216636943,-0.6948486463243135,-0.3840483252283746,-0.402643183858739,0.12328071268961294,-0.5502494607027677,0.9968311071955545,0.3750534723521277,0.7399940451608691,0.706657944221059,-0.6700486147006328,-0.2895159143223853,0.47795772603530007,-0.9212234359979377,-0.8209922482246481,-0.9990423203175347,0.9681344657087476,0.08095037759082535,0.046989369009456494,-0.49090023813478667,0.8740034052990291,-0.8385116159196992,0.8594977976066802,-0.5450996486634732,0.5887661414341787,-0.6561269134152741,-0.29457632718336324,0.828995430115933,0.9537675009210582,0.6633218136720698,0.7743588327485156,-0.09939737169592022,0.6406099223038881,-0.9314331558558404],[0.7853632338425018,-0.8723737089262791,0.8963313261851678,-0.32325875653834646,-0.8445055968987194,0.9733896354647975,-0.5927556551284965,-0.34366192656110073,-0.0867262675097853,-0.47480844471652306,0.8810687172058269,0.6846645013003625,0.507839735059793,-0.7750768131109023,0.008874951410190235,0.33268880957657343,-0.9187484404293544,-0.35805376512431586,0.04869427386994474,0.671013832190666,-0.1902082840767676,0.224825576765318,0.13936044138376302,-0.6607306051468946,0.6701873697374057,0.31622024831601925,-0.22778282990129295,0.1265119379768025,0.7437360866258178,0.5456450766843508,-0.7273971839012616,0.6308183782804175,0.7861047301920399,-0.8763844247199752,-0.24430299342317197,-0.21076962691374956,0.05719814286911662,-0.9655998169265658,0.35068022733789306,0.356257998513974,-0.19817992805392293,0.43770565168948505,-0.2194028839315083,-0.7792554117378274,0.1376931182587986,0.6164108286446928,-0.5086047960909603,0.6760338984997627,0.4119777591873355,-0.8854374421703812,-0.3756295760707302,-0.8540296543864916,-0.7250602715429844,-0.7854133075848369,-0.21085810320738063,-0.011124059008019493,0.5009266274062825,-0.8928046297892356,0.23188361184996298,0.18469544789369396,0.1208900047368422,0.735292254643602,0.7805910392317847,0.9883947537796269,0.9709860004553881,0.5757604485401786,-0.20265128162363788,0.9112057109338954,-0.32067344039301027,-0.715823351664781,0.8230866955117304,0.4573788960315752,0.2633174472769755,0.528460160629401,0.893220560482898,0.3462971113994575,-0.4655004623229242,-0.2966927372802859,0.1383296229083455,-0.5017523469136564,-0.4871555020379972,0.25138420041770204,0.20662041700449874,0.9537185406564992,0.05174254823049518,0.9909494720453336,-0.23092048063834736,-0.8653148622524511,-0.7059545287252302,-0.1410113067898684,-0.1518773692065949,-0.008845709345689734,-0.9631664347612663,-0.5579335826755367,0.19030933587038046,-0.3966454249876967,0.961535128804982,-0.7184223010617676,0.36101494713136106,-0.591940826356016,0.9228618907942252,0.8248593353516596,0.3075262959892926,0.6097394797935392,-0.04961667929832059,-0.6391871869616883,0.0400429347132345,0.6618521720240447,-0.3564596017217574,0.2754990041035683,-0.3010654344188568,-0.620793890067505,0.788424522774585,-0.7480558774501853,-0.926823459587786,-0.46288594848744724,-0.2185239987146006,-0.6823062209734221,0.4496645424713208,0.5314491288824301,0.018204293385353898,0.9555287411576507,0.773511822495162,-0.19587075814215793,-0.15428906298893197,-0.7357041408201228,-0.6501798641874017,0.7040083250288012],[0.3437923126791578,0.2682987902280103,-0.5677380651691548,-0.2047723804944228,-0.2863730757429528,-0.34324059541199015,-0.5742650028686014,-0.0463659732419639,-0.07799775115604679,-0.5728088151299808,-0.046121100285655636,-0.42138784760263337,-0.057682668057920994,-0.1185281243313494,-0.661708659110579,0.42244732547544195,-0.673503692057309,-0.03366554905449126,-0.809239649451208,0.083396858426521,-0.30779490800145926,0.4472410359619605,-0.5459339102696816,0.32306282409429077,0.6187610524422091,-0.4901914579060729,-0.21258696620908268,0.4305590145397655,-0.5138911849344254,0.5905206204473852,0.07184610403417024,0.4809161990923778,0.4739269042680414,-0.6251295366123337,0.8823354218671873,-0.12114461188198367,-0.07181820252452686,0.2474782571527303,0.04872288581017892,0.6432885751665236,0.6334348421307481,0.93538043653758,-0.24639308505223134,-0.014453140348489546,0.2417722187529039,0.5198353099956978,-0.04031950621854974,0.4178726236342931,0.11981651292883178,0.5773531599824904,0.033377695293350884,-0.7729890015946326,-0.22928267348236409,0.09319224867420695,0.7891466703206809,-0.15863965824359227,0.15630217977452077,0.5164636135899747,-0.9227856841005209,0.7439085922040263,0.7928191133804638,0.48792864448183493,-0.5643328834260737,-0.9331446449990408,0.03966505691587652,-0.37856666430871355,0.7091468531437188,-0.842392727944141,0.4693081725836865,-0.15240634874582604,0.7891565235920974,0.5963329620508278,-0.6998133082010287,-0.07951959306948542,0.08446057206498514,-0.8268316311565043,-0.7205047946867242,0.6247255535384719,0.8185371845246043,-0.5451313749921014,-0.9270558469517429,-0.1307892299507183,0.13473854292195253,-0.6655324093457031,-0.7519595583533742,-0.8268978330870407,-0.15163935736560386,-0.6120844395797651,-0.3445938208204242,0.15219265228343182,-0.6780916087554454,0.6636839341631562,0.4790009887891702,0.03011529211533981,0.6142402406164371,-0.33278026867337585,-0.7505084816115635,0.32677842840182914,-0.7676318875662931,-0.41379149829617257,0.36172953784994366,-0.5302288361672896,-0.08347276663723369,0.47925145090109744,-0.9490708110272252,-0.0017823328917105918,0.9410178031422447,0.7447698718906617,0.15959382786841347,-0.017559781968033983,0.8923706418408839,-0.32716295754708646,-0.7269125418955127,0.3664031095113087,-0.534214879733065,0.08622454722931727,0.1663899434316345,-0.9651280974557783,-0.1325640714280243,0.5799577619818148,0.48976862508034924,-0.4555055531630823,-0.7301943938689712,0.08023672321015574,0.2744287268832959,0.3419235331860617,0.04749538567003553,-0.7507756186312355],[0.03934854833618551,0.15110090045781632,-0.3347577819732641,0.6202644564669137,0.138937557215709,0.9223889578732412,-0.9994447138444904,0.15253261928721384,0.2490564034309044,0.2550143592043559,0.5278087658390018,0.7174919602204375,-0.9688338729253534,0.057207646545887725,0.5791064969686239,0.18932845575920298,0.8921944522250449,0.22846932312957424,-0.11887797489340612,-0.0559550821941317,0.3040963769925773,-0.8864667370434685,-0.6607507335628722,-0.7903844662276327,-0.18412638964758377,-0.8305245103474774,0.4990845033979805,0.09540684653518516,0.8500942568033851,0.37856330238790625,0.012813180012070546,-0.22101207928497346,-0.4825192154695874,-0.5731711616123596,0.7415730972235897,0.732757158556633,-0.3745972645068867,0.3187304313615926,-0.09845788379483777,0.6116959192271478,0.3720227482515246,-0.46822385865835514,-0.8514504293032874,0.5495768062519195,0.5289680058413093,-0.6214489191687631,0.6217215389632476,0.385318863045665,-0.7849690646649883,0.00591527750807086,-0.4527526921405711,0.2541245316400291,0.558229892944401,0.6257411108165802,-0.2104697407462941,-0.41685846910813784,0.8174334874004359,-0.9885472670886928,0.765021367855329,0.2625738050107518,0.46071800385234085,0.6441903186751619,-0.26053677512246054,0.026192761522473518,-0.08729488443859768,-0.9163027536567183,0.6111189226923575,-0.8565475657563166,0.5677645531750815,-0.3252205715709535,-0.6714443105807186,-0.5644943411318284,-0.8543955764686684,-0.8031319483542387,0.4865468065484633,-0.789653977986591,0.1693914494876818,0.3221546916048823,-0.6914848576819117,-0.9227376369888054,0.5303080997434273,-0.26052612563978683,-0.538106319718533,-0.7985644345487715,0.11068482992057183,-0.09599751829288161,-0.8740174722500089,-0.4781752387080018,0.99278138283558,-0.1622496557971509,-0.10556952712351153,-0.5212333401160445,0.9449979318954371,0.7902691249029261,0.16413049970642168,0.2796464284769533,-0.6114023151728325,-0.5403072643315918,-0.5885153060673547,0.9093273106808852,-0.11042464964095067,-0.6206079350502816,-0.3959015804337258,-0.8057207219395341,-0.9103005328461169,-0.4638171093309351,-0.7608840827968988,0.4015236681701315,-0.28070065961705515,-0.8872248926514614,-0.24500875712629933,-0.6990603497457619,0.3521129417046496,0.41579392711509966,-0.002620917517688115,0.31429520704107317,-0.4455079238561037,-0.10984390188749349,0.1969988865058614,0.6000848066262872,0.9579923023753243,0.5479364348964797,0.10171688810418855,0.5877713073712809,0.8240834135289155,0.08434855078676051,-0.9516825166634677,0.9287382836275708],[-0.6704888801115931,-0.11232500290900727,-0.679154580854002,0.6447507457525505,-0.8558123290832087,0.7018599943662684,0.938751390675181,-0.41000935302784103,-0.28959087294861585,-0.7669596261686829,0.33662877526776347,0.9681161973631178,0.39981110519909624,-0.4934058532663246,0.36882891917254823,-0.696539811391611,-0.9693386720430073,-0.7078633792130669,-0.8299142664033559,-0.1972498830143845,-0.7033422690072741,-0.3402729980163832,-0.37583393050638514,0.9949853402218651,0.8589829437159548,-0.8942254493275648,0.179032260509024,-0.9523297618782136,0.7423519170331254,-0.4260472058008935,0.06951975423115853,0.5085476587352831,-0.5825127625148132,0.7928603012159645,0.3331215331125308,0.8893237417270157,-0.5342895766117379,0.8216175245889021,-0.8603236432738421,0.9399211954861506,0.6285477357609504,-0.07887946439397941,-0.3517687146161401,-0.11226754261023153,0.887207429535199,-0.5528090979105735,-0.2862600589496551,0.3692153429034779,0.9798805545655895,-0.9097503389853316,-0.999555863751296,-0.13037333322439948,-0.3072589175795153,-0.6189876680442807,0.30281880442356424,-0.052570350984698644,0.3911793180724841,-0.25222573395652725,-0.13650663328411228,0.04928876574324881,0.502736541423898,-0.7109301701153175,0.2201701703088308,-0.6666574952179867,-0.6371392292231093,-0.2522358267757585,0.5716587544452143,-0.7083501379040433,-0.3824393508679593,0.6941700905273775,0.33297570650641584,-0.06915515202656608,0.7976371128339415,-0.3413135205818312,-0.9003095087544497,-0.6582331603640463,-0.07418471813618499,0.49652091400757237,0.790893374444329,0.46803789436237175,-0.871326249888315,0.08241990974350832,-0.44795584113738607,-0.223751373304389,0.8039072053118068,0.5947519394868697,-0.6093692837292544,0.23106437430948978,-0.07338893090721599,0.7941858945803271,0.9103124856370812,0.7731721614386111,0.4567010067389923,0.481154537538107,-0.9913710923556045,0.4677606898113056,0.941186354556492,-0.8867168202370801,-0.20665180576152586,-0.9873482863284224,-0.21561963537449857,0.5835090771453295,-0.8520066724496649,0.42974892542663023,0.2996460033189252,0.1539707333839211,-0.8368164326768894,0.39941577038829834,-0.8098805755155714,-0.737512624182274,-0.39505094212609615,-0.47756875389691045,0.9396598967733434,0.9254391853501223,-0.4743330309709488,-0.8457077027778384,0.31707864363836036,-0.5011140632604774,0.724764479312987,0.6523814286573582,0.4722487806594,-0.6755155587136799,-0.06535234576408877,0.34364907467249495,-0.8845596306769907,-0.4715585418527537,-0.7789067819808295,-0.6357821394089183],[0.9288488123994658,-0.2824382471636733,0.6432842700346646,-0.7664755665316989,0.9089527250632043,-0.3871463730602551,-0.1158768619636883,0.9975318852718107,0.5346725869390339,-0.34792839055633484,-0.756459818521912,-0.2747362277776788,0.3555912514631092,-0.8081205581951274,-0.6447397820846243,0.47703646915664355,-0.1696810743359054,-0.43688160904709594,0.7570077002537081,-0.6391397095996831,-0.1610315159242639,-0.9479342512936104,0.4810972771828561,-0.70816305305666,-0.7074076759355683,-0.24097260627759698,-0.07834981511025485,0.585471699225316,-0.4646312470964833,0.8114072427039958,0.1679767429823109,0.10995380923471965,0.4057301300472558,-0.22755328412239062,0.6108475733194736,0.5386577256663463,0.0948245327791748,0.19568487864754092,0.7342360402872812,-0.7374777289983765,-0.2793516596662775,0.8444924942774412,0.13281087073602582,0.7962326296641216,-0.599465885292598,0.7807934796991771,0.2084708593315836,0.02103168176933612,0.3969408084602062,-0.2694073758381639,0.19053888054615808,0.22395635571178674,0.8741034467342883,-0.42481964150340445,0.49804175008720986,0.22873508257526676,-0.9794436389896413,0.8515234783271108,-0.16036603879703049,-0.4926934550729347,0.8131697188783513,-0.16436825497633545,0.011769143790334002,0.27511083568148553,-0.11060300951776436,-0.3089593750047206,0.9696877532283577,0.5802691711601529,-0.1527907736978702,-0.6619850470565383,0.039888720442937675,0.5144156943006353,0.8343210078599896,-0.0713581292071428,0.22306717872973314,-0.4972499841840541,0.4170731078296319,0.22494478639747095,-0.05509710272448465,0.0863782463521996,0.5945073130265563,-0.792017015585861,0.3038016276015312,0.2114097072759562,0.6342907721260416,0.16782006318078535,0.6865871601451077,0.17057015118992558,0.5139020510880463,-0.4943983272065795,-0.11392994287594349,-0.8553215186617962,0.4182231417955138,-0.6480820449153692,-0.06879949193131085,-0.21288344597332354,0.043162232281671375,-0.3724423577897229,0.5177780472112676,0.07342160287657262,-0.6315805085623845,-0.49808064807609753,-0.5677197700628069,-0.19726023233156553,0.2236169603140301,0.10607614954604405,0.3963987833436595,-0.0015971453325211993,0.5254847687771169,0.22569296794693194,0.10734695377750958,-0.8366943319233888,-0.9189104551375988,0.15282987392968694,0.5533720630361816,0.39798314293645265,0.026066662508035465,-0.4745873692573235,-0.4896339187062928,0.9840636025289016,0.9625489720546554,-0.8413509862315784,-0.7874220587900895,0.6592956222635755,-0.5726837299921606,0.860900419641065,-0.24306664697113534,-0.2671526659777008],[-0.20841124221142482,0.9722633052458867,0.9928672847137743,-0.187369272636148,0.27801177618098705,0.8412505519121718,-0.8749336400434577,0.4413218743730547,-0.46380427483747133,0.3853833899970531,0.8888285769743214,0.213149649416162,-0.19872551227554003,-0.3683882104897638,-0.7042975402700051,0.9654979926003229,0.6803222904496828,-0.7971584722646377,0.20378641896845684,-0.07395109272255906,0.8733027120809245,-0.7721714617872979,0.9802392284867905,0.9461906884805205,-0.3800639204607372,0.0017835652887214781,0.9097058126574216,0.7595110365967821,-0.6369243100408657,-0.5092553198259391,-0.012915294746537631,0.256167378753988,-0.08327733564105744,-0.6309785890855462,0.5430211577659347,0.16236634814922501,-0.07466037802854708,0.11701200965096326,0.721966818971584,-0.7668663072827657,0.895136564851039,-0.5562092758446897,-0.19764903223569696,-0.6030303597515041,-0.9860460131261157,0.21846886687949807,-0.19677788961162923,-0.5527695603901532,-0.671703174180525,-0.5138268806355168,-0.9132264356342683,0.3676545331327492,0.9479514718818567,0.6265429771124245,-0.37037308489025356,-0.09967398039004216,0.8916435872250237,-0.6266998189738406,-0.659333783090621,0.16886912185534242,-0.5111971080955111,0.5872575696404998,0.9125859081351322,-0.6639368971749486,-0.9717580193593327,-0.9211897756698095,0.023769394596871996,-0.19896511381374227,-0.985569432515927,0.5598307957452491,-0.8354469392108623,0.5724514608676041,0.02094511551580025,-0.9345373649159383,-0.31982902450297757,-0.2934757072391987,0.3674565225346311,-0.026295546628891442,-0.6177254438046393,0.4658982699834564,-0.6484363118713123,-0.33589212778145483,0.5458635327790682,-0.4730007646972574,0.3821510206842522,-0.7603147824477807,0.500868017726904,-0.9849635872308409,0.37947164032538105,0.671502578626878,-0.25788579109134435,-0.551595180309872,0.5135534965151389,-0.641060636787306,-0.769776111184127,0.23872042278536254,-0.04049223801370805,0.5835951098702361,-0.8103165783080433,-0.7779670980606335,-0.5900862984999393,0.17660964513520083,-0.5811851866315207,0.6188005449856886,-0.6379555987900836,0.5444312249247665,-0.25433457575850604,-0.5835827358451107,-0.1268380497055328,0.17936680009118144,-0.293330556399344,-0.5144486766525986,-0.588822623730257,-0.7281085984323943,0.570805616309362,-0.7452303220222969,-0.9123073124995944,0.024028592640605417,0.6277876646341447,-0.08942195461751701,-0.8829526767462401,-0.7770208742659004,-0.8138922849308752,0.501591477726177,-0.045285844917098084,-0.562211609571756,-0.9816236655873543,-0.2338520828241315],[-0.3534589406618116,-0.24961045299249895,0.7032425516348118,-0.807681745247036,-0.3177221805795116,-0.9565062078811015,0.8110570508411414,-0.5078177807714697,-0.6813450659978868,0.17429044239993385,-0.5784470301209113,-0.15183884021714156,0.8252898986526651,-0.743369594438966,0.7890070179374244,0.6534514908310001,0.2308145117474989,-0.20923357998941428,-0.05518788800751917,0.6773902358864436,-0.9703735333947088,0.2196254621785363,0.4616445718118163,0.12447011346461756,-0.41789415949543973,0.9338482001224808,0.9699132512776192,0.5580333328208404,0.6498282249278042,0.6721767171266675,-0.06611375777825779,-0.7654896897951606,-0.3402206469909166,-0.4924785198616901,-0.4757135341925456,-0.2409023275177984,-0.07369999572715624,-0.8495973480779149,0.8515122970111142,0.15018387565647218,-0.31978193607450334,-0.9556213913166685,0.588089068804601,-0.19934648161809654,0.8236519335006156,-0.48183077389079276,0.17745424134363175,0.14338061967408144,0.7585056638112428,-0.08473448117231208,-0.6772119309060467,0.0645333396037957,-0.4848558702897263,-0.6696689488450562,-0.42243681722793935,0.6858943214236333,-0.596940424579198,-0.8852567609830884,-0.009586178112378718,0.00019821704765288217,0.39891032174239505,-0.41697833365396075,-0.2408373787628424,-0.3998721642966898,-0.1564222279009324,-0.22976062054442892,-0.36384657891714545,-0.9135798280359246,0.49819600765248984,0.6304627634772808,0.12512769321205885,-0.5174379511956011,0.4552163834292071,-0.31868714675621757,0.5241900187132629,-0.7118445096667532,0.30195238526764556,-0.8322823039768952,0.0731409687312341,-0.11813192134393535,-0.3602316638910579,0.6877241680854143,-0.6703175025676762,-0.8132489667314216,-0.5822642220747631,-0.05813594919776377,-0.291921874664963,-0.9737432012341785,0.15575914390731205,-0.5057359146686111,0.38817392892054414,-0.9044464218596548,-0.9600948822717934,-0.5312134425010735,-0.3271488412727943,0.5277260673951745,-0.12399696171468144,-0.5099885202502918,0.0724028868799238,-0.7021594233722026,-0.26232775194142044,0.3379585778402221,-0.04250754189859052,0.9747042810605702,-0.6397004541922493,-0.4915512398794255,0.13164647323671863,-0.7174270318025073,-0.4481447673640264,0.8434516936696823,0.07498146939764516,-0.1476704967019835,-0.8127083035028546,0.05548933409020962,0.48933356311102627,0.6692148166672314,0.22822285023142985,-0.6778741238660362,0.17972478064133712,-0.58085432186436,0.767498169563513,0.6335461866684191,-0.4079327004681661,-0.6814147692494994,-0.794196216834278,-0.7154671351579978,-0.17595345161383258,0.44642785033677557],[-0.03500702247776277,0.8137715771638963,-0.10896357488447994,0.8218335996367527,-0.6726329906984843,0.5260220670389009,-0.37708520313710947,-0.06608510998261852,-0.7324679757127717,0.8003104246969595,0.7363988756406088,0.11070932273626033,0.8586717136190554,0.8593647968625655,-0.8336843440014858,-0.11921721035939137,0.5654751304254839,0.8235897264968981,0.47547859872025944,-0.02495369657186286,-0.34476607606672816,-0.26031709720378915,-0.4267546813965095,0.464219693867157,-0.5106462717703477,0.3469949529936851,-0.7381980116257474,-0.4742324665920461,-0.6212668531377601,0.26014552027236215,-0.6291290194375183,-0.2511510681913762,-0.8539665435193668,0.22536383891084144,-0.4634682261841301,-0.8537589066842373,-0.5168369577431684,0.5087051746542113,-0.6215589607215981,-0.745154804688756,0.24447511470744399,-0.030933014879115817,0.1953124029273563,0.9371036025474946,0.0984507868224942,0.41827892960022584,0.881031153982816,-0.49665620959027623,0.6265185751135558,0.47429698141299625,0.4824637613901257,0.45723336960376537,-0.3548262343846065,0.6872350900194371,0.27775217039573197,0.8578093970298415,-0.3225383197027878,0.5969616775286233,-0.29754253033753564,-0.39968071093527846,0.9264188588095963,-0.46712090759548763,-0.8683658836284591,-0.7954694152337909,0.06893174617372422,-0.9823992830007873,0.8407270896329035,0.1548246424206412,0.8287341158409072,-0.06308367354309219,-0.6773640176368387,0.7180604578876473,0.9395245372398786,-0.4816965821837229,0.4763385576248069,-0.2235864370613092,-0.7573527879518624,-0.5876068263876597,-0.6018494708798374,0.29208865302336284,-0.8854956750115035,-0.4693253211333954,-0.4965096231985926,0.826289208978366,-0.5174172996705244,-0.6087586131049056,-0.23076457801045747,-0.4527414264594891,0.21062104227315137,-0.004113329218234263,-0.5648050073572541,-0.6879956388046946,0.5815195231449488,0.6699312427084099,-0.31906290275872173,0.8782160217481458,-0.44463026945941864,-0.39335359496439626,0.1521018390088653,0.4218180760344856,0.3523432559294857,0.1926589046704963,0.16849319719483313,0.9438586383027603,-0.7258531017695984,-0.9940736816573907,-0.4424438604259926,-0.6509044658690002,0.6601190452665702,-0.2565683383909112,0.19068858749724105,-0.7262532009518434,0.7746448152229743,0.9534357437833236,-0.3756345000021426,-0.767132526254314,-0.262321495781932,0.6042825145709261,-0.8738468193511839,0.6501202294918287,0.9111814859284875,-0.43354462912462166,-0.6084831350788793,0.7831599919759729,0.8925221194883344,0.35312328079621746,0.6851046647067407,-0.7440355825471938],[-0.8176295414898742,0.12085155114275414,-0.2793583952574419,0.3178337548875163,-0.32767206869898646,-0.5181943613591264,0.6336153647137936,0.8239839666862583,0.26819352851365164,-0.04961327411372807,-0.6791034828589022,-0.2910595944862713,-0.8155685568065385,-0.7556238711646597,-0.5901605127245153,0.678356577535453,-0.00024058004647353748,0.9099003894318389,-0.2201612516847904,-0.17948628453140913,-0.6094720740396833,0.710821544128283,-0.3814748039955471,-0.8990849063309476,0.8816800688455384,-0.623329734609406,0.02339860505904734,0.4730065092722784,0.3343539921726799,0.6774124330509477,-0.23758050805374742,-0.5212288372872302,-0.035593798431101886,-0.8420887551688299,0.4687444439352597,0.10908864598398882,0.9577256024852914,-0.018689713525207097,-0.6244503822317886,-0.37736442776717305,-0.28118369276232813,0.7651348663534594,-0.17803892162884538,-0.47871029986246927,-0.05962995863661158,0.48674106261054684,-0.8301511448348278,0.23229258901237548,0.9828084474429113,-0.8378174038098418,-0.9483322003021517,0.561755277486566,-0.4431274340367686,0.9240834223795709,0.15099146482785497,-0.3686976351422877,0.19349718165904117,0.6165173460956181,-0.9573935646051681,-0.23986933941390465,-0.971711335993223,-0.1628852843300257,0.24188749931245934,0.6995271242845602,0.12457535984636081,-0.7443363412010024,-0.81586203914689,-0.7795096124597589,0.5109912259854978,0.704203110753743,0.8660612662522933,-0.7373101597328469,0.056294384749040915,0.49416517188231546,0.8409239681113954,-0.36135822909503856,0.2644734209055697,-0.02089615680984247,0.8794436782203003,-0.3826034501577731,-0.02579294817857325,-0.33374824155555793,0.9292382303358426,0.2308799426672119,-0.27850670118576937,0.8629550398844279,-0.06046090340080057,-0.3327553966639032,0.7353038399560627,0.6881298784595495,0.899160251766361,-0.5269758746520072,-0.5480947412550992,-0.9831496390813224,0.6126282856703678,0.3969548758524071,-0.5070033285416427,-0.7232524339793238,0.453911645911937,0.5299919628024881,0.21009273510327198,-0.5195715547355928,-0.26196401718452456,-0.9188823770179266,0.7802363466099764,-0.8711632279479578,0.23834831255437816,-0.5841938835927929,0.03955826416663011,0.1507813877356834,-0.8545409351701114,0.9661462350540235,0.7302408128797606,0.7254948941628299,-0.9574771763450085,0.5519518020680985,0.7003239240913397,0.837471515892789,0.021588951593342953,0.1889634009319734,0.3468369504604438,-0.6357421834377732,0.6705464965466237,0.7676401183405468,-0.434566322851486,0.937917975290143,0.3252459353452575,-0.6777561495755551],[0.46901162037940436,0.7295942753730769,0.6269829407202441,0.521939661964115,0.7559795825376259,0.46352551819303844,0.8745782125126687,-0.7280166550162082,0.17075578655128254,0.35951053296574687,-0.9655693542839541,-0.7984972346822197,-0.010343228618110656,0.014478240316567526,-0.2429721704423362,0.9711941762943606,-0.9218688245004445,-0.6180359783177065,-0.6024879948718915,0.5555011226913755,-0.41569721807007065,-0.8852503314581848,-0.10752189845452365,-0.710518795631649,-0.13275859841428428,0.518524672992029,0.5261379370026944,-0.1840165708657988,0.80373673132297,-0.8481233030263577,0.833825253554048,0.7756561773573352,-0.7433117572306558,-0.6176515197228276,0.09540313328437167,0.2237715857524385,-0.9601457831849112,-0.5418259593599246,0.9627780155674837,0.0475391681861812,0.9861946459071484,-0.6144616563025265,-0.6705837555682159,0.9050960094747291,0.8493052885983126,-0.9291396211842433,-0.2508648273491023,-0.20966404653997972,-0.9211646602917212,0.7914630407328933,-0.01896820749093564,0.8443004914427787,0.9751886415320437,-0.7062895684023311,-0.4476464919623009,0.6746216969933292,-0.968995816784272,0.2682191037150814,0.16520955393609316,0.014824037988470984,-0.9587069664482994,-0.925198145530399,-0.029032394907168912,0.20689405509423286,0.18123821407567653,-0.41472333956756136,0.7307223717935596,-0.3434277493435043,0.512342308467514,0.3275860658370553,-0.6424087871514343,0.32330306485614724,-0.5412615998062864,-0.014951113912255343,0.8898647746849582,-0.8230120304429323,0.02030906572462765,-0.9421229429102702,-0.6649221532967056,-0.7650826920747673,-0.03040932397178686,0.295167784289897,-0.1343383598558976,-0.3492213359196781,0.12426933586915268,0.8346772029090015,0.9570094291410911,0.8846267507152414,0.15006858633085374,0.8946476086569417,0.2549508199385311,0.4477223812237694,0.19773595278708767,-0.8100399422806159,-0.3624978495667608,0.1600863058876305,-0.5926272286960692,-0.012781114020238071,0.07608394401069085,0.6100522206487158,-0.6376925374531663,0.9384053313467859,-0.818278877313082,0.7752770095801333,-0.6538205874357157,0.479691457255893,0.06705481084466758,0.05417261146854546,-0.4903564428199112,-0.04796545068768299,-0.7179385896537767,-0.6382808438362839,0.13803678077008374,-0.6957791444605903,0.8515494488589244,-0.5685695262212529,-0.7080428657842361,0.2335546862432174,0.31140003419488305,0.39766745243702384,0.2851676393611995,-0.4930482543127317,-0.8845549032736468,0.07920806269542569,-0.2604525581141084,-0.4727276079304217,-0.8645464245575514,0.8779765287761072],[-0.06989823922025185,0.8582756930987328,0.482291995912699,0.960560011156792,-0.2928590602757679,0.42045642097996994,-0.4215939020293509,0.11799485677651433,-0.37321810520261667,0.9565083817796738,-0.08627273447169603,0.17227453728858744,0.9616946477667632,0.3496359099701234,-0.7769325585136164,-0.9190646853029232,0.02756199020439065,0.5723629771781005,-0.6696437277373677,-0.13945576095971113,0.24703579247832286,-0.38171478353239685,0.9678059600216944,-0.9598320131560929,-0.12600619221254616,0.5147690251255781,0.10855666219776028,0.02726352237234364,0.19408293926955378,-0.7943158985767964,0.15050279296758884,0.39924676010478244,-0.6630049260817719,0.7433672600977492,-0.130508703454286,-0.420634911848617,-0.5776036770135775,0.4197063759867341,0.7471561688659663,-0.434408640509063,0.9174837648549128,-0.792628088288901,0.8441912053348983,0.5642643232869522,0.803711869588636,0.10313211160894209,-0.21477935533519887,0.26171271548944564,-0.31786587281971723,0.8428403801269775,0.18365396936117984,0.0416549070043859,-0.9468375224640171,-0.22278765134129164,0.537733567947908,-0.9055598481373106,-0.3571660409095494,0.9790486826259397,-0.07875948672858213,-0.45127305943250606,-0.7976268952620649,-0.5994522577250498,0.8832459668661663,-0.6008576911345755,0.45449853941253116,-0.7229019285731679,0.17724555552918453,-0.6978862943779036,0.19012587965564332,-0.29160799624397904,-0.6372799299086518,-0.9659564023358369,-0.9914849936403385,-0.644958359840895,-0.48551511436334893,0.09288085622180087,-0.45566894299680993,0.680251877947827,-0.22968724176573696,-0.9526372143976667,0.009984312572415277,0.3539260287906816,-0.13497693321112414,-0.5583750088321779,0.08151654639342776,0.819471278287784,-0.8938751874497595,0.09843064222361364,0.5018921034968089,-0.6508589102705209,-0.11902502476817323,-0.877640938815442,0.508012859516108,0.5079853232690676,-0.24051692358138155,-0.32674519389813406,0.46414721033117345,0.5682823622269222,0.1148171868035952,0.5735942310262847,-0.6608896090654814,-0.6208480250323345,0.9419520672378812,-0.643981872061919,0.2213489463975824,0.8145890706162544,0.7631347304504514,-0.4656819883634631,0.08425227595925122,-0.867223733118333,-0.5225827880526599,-0.6102527909545827,0.5639042799313756,0.5254734326876498,-0.9514187312253224,-0.07337416504808991,0.599345285819167,0.476468667942314,-0.8427844749152227,0.6980701568369345,0.9874262889990852,0.39195353272985667,0.6085099863014813,-0.4621047837851653,-0.12534589968859788,0.9640329010855233,-0.28502850819246284,0.5877531629366],[-0.5003485784177779,0.8103627686885706,-0.7817847879797544,-0.2277977348127318,-0.49281268370599696,0.8863994345062571,-0.32899440189564255,-0.7732905047205145,0.9581469916693455,-0.5235811825416066,0.5772629787535286,-0.5525039555797198,-0.2338333052203434,0.91279306234453,0.20818135269535354,0.5963335009654083,0.7833568107550366,-0.32808945998013406,-0.9067950103082054,0.30580428816790284,0.539283438859518,0.9075580052322665,-0.3933393385450741,-0.6363793822291266,-0.7351265873729556,0.25172265111990244,-0.24648495916137336,-0.9905458131814318,-0.06260380021804779,0.5808338188689373,-0.24415819043733644,0.8907347153241774,-0.6221908937307177,-0.11150736699062724,-0.08895481622373858,-0.7285902692904973,-0.8912932755939043,0.6379125757173383,-0.931571569789609,-0.14792286518618747,-0.34498640237114087,0.14274739162743466,-0.8176406904046556,-0.17578487238602403,0.3766330264067739,-0.7117794643979609,0.5096397295392812,-0.8737044357591679,-0.8592949214562196,0.669296654177866,0.26483783364568203,-0.9929397006476819,0.4774075661300128,0.5098707485608793,-0.7723376938596618,-0.13399644508312347,-0.4501028867019452,-0.7141414436415727,0.48990626690010597,0.5864660366934207,-0.5497611789356776,-0.43448107993662455,0.0857209917993722,-0.08272027974785368,0.5352084478451413,-0.3770018735816252,-0.9795081868908007,-0.6681104304264356,-0.26714039261279243,0.7216923480682713,0.7910924441654812,-0.08893892656817792,-0.7178201024718958,0.6414156331369669,-0.18819140819244762,-0.144677244897349,-0.9930396763268796,-0.5337777683730167,0.8779491643529473,-0.1270474478605106,-0.6092225475842619,-0.24539596728433288,-0.9935646677724135,0.8362344593564666,-0.2669704080092221,-0.5856105332448158,0.5351116794631829,-0.8153235224024142,0.39908707537095567,0.45325196729858597,-0.22450480728040478,0.10905250018453794,0.14268677498064952,0.3386919672920692,0.6426996303085466,-0.7915411148002731,-0.24099496061718928,-0.2771822502893806,0.21430995190752,-0.3173136220087853,0.15282067368978458,0.3478181601131842,0.8866424846887588,-0.4088455737177821,0.9675294471584339,-0.8600019844741711,-0.307223193890622,0.23871082018956513,-0.2815679780208171,-0.7639729896019944,0.9079708629400376,0.7416905516149186,0.6775797069703551,0.20793268303661883,0.4910284297268004,0.4771241873381271,0.025679988507729457,-0.1671327450613449,-0.3694061542098648,-0.2827193356303863,0.11883066114310825,0.6625235856589275,-0.4734400638398608,-0.059467508677287784,0.5526198116879601,0.42279526459844363,-0.13689054888182395,0.1890353601903214],[0.0901707017450144,-0.28584515279470124,0.7387553839159997,-0.9109347861712869,-0.7135313331167012,-0.46893213235353626,0.8963071999831675,0.41665601967100185,-0.22317553474265295,-0.35768679103675916,0.5609630806749282,-0.914369070188704,0.3875096194499812,-0.06871499159792527,0.22486311827703576,0.6628955418384688,0.1048991234517116,-0.9523598487342886,0.5795680079798624,0.195468039687005,0.19276070940017953,-0.3673223909390362,0.4759764005507636,0.2964988119478902,0.27509082915519345,-0.693979028265433,-0.5976616554590857,-0.2261309099981723,-0.3697123971800582,-0.8281849597181361,0.9231475981451907,-0.22988891615135953,-0.9600635700055211,0.2865349215461732,-0.7231460096997944,0.8652057550198575,-0.07643508671996146,-0.921051883672801,0.19029833930967843,-0.5955008419657342,0.4113444872531391,-0.9567461810092235,-0.7769314179105804,-0.69873762449589,-0.6155457474240522,0.46268974980418487,0.0584223953705858,-0.21806792194937596,-0.6692126359514117,0.9888239318828542,-0.8112931656232405,0.5470645080792453,0.18776376541348516,0.358067022589992,0.5456109603478903,-0.7075421103889912,0.2748016996469409,-0.6253115817311135,0.12779097879651968,