{"config":{"softmax":true},"layers":[{"inputCount":784,"outputCount":128,"weights":[[0.5353556312071148,-0.47661997356634656,-0.4851452413328925,-0.08613102429646058,0.6486165887610544,-0.18032446099712995,-0.250651143539117,-0.2868582076912676,0.7885951270580951,-0.846810297396478,-0.9126669481866556,-0.42849515577221475,-0.7530619715593907,0.8216292262870633,0.6985545319648478,0.3753834895574053,0.7875325120519987,0.8931233298269956,-0.04614347008344022,0.8284625037492188,0.3673964071550291,0.9845276838660391,-0.8176599081045541,0.8310277448275947,-0.23685842831927117,-0.022048559245684496,-0.2955283263090527,-0.010255948618779653,0.6082253564172946,0.926381083358349,0.2826306818684623,0.5204744883657404,-0.3194843595576562,-0.8231913169520508,-0.09065843499238135,-0.5587711172405454,0.6015550634942042,-0.05166210471971633,0.6590237209893399,0.771368720897676,0.5310632892024885,-0.9437467938803106,-0.2158608739766985,-0.941812700006452,-0.5243895314373199,-0.09710514699816142,-0.8666325954085479,0.47838155495448453,-0.4312284366698349,-0.31907671799240633,-0.9107693761394147,-0.9966199918535852,-0.5404254479139468,0.8064123656824915,-0.3745999156905122,0.42351404074755017,-0.5107924254015255,0.3476844444515894,0.3171056537454924,0.06399610313147552,-0.228250541637125,0.5886097937191581,-0.7839498927777866,0.4242989860865467,-0.5778607677073901,0.3491087543568967,-0.6033160902722943,0.548155543069383,-0.5297282227149982,-0.11341683285181503,-0.3802975857137463,-0.5093000425699903,-0.7546001327993481,-0.9780064676739968,0.11804504266783633,0.3416494663105727,0.7531075494996824,-0.041668837392001334,0.2583038771859263,-0.07311484727653283,0.5524770680923841,-0.47102327865006655,-0.4147667817229388,-0.278832108803563,-0.9339910351202574,-0.3059538096492316,-0.7171121401668692,-0.8473895974223244,-0.7624675148810831,0.2539786189779123,-0.7441896234655692,-0.43254909453998924,0.640740024264363,-0.7033134954525835,-0.24145617277717535,-0.2615807789081632,-0.7082630798701963,-0.8284503515364297,0.39311544873607573,-0.21246287875518366,-0.9178098441440548,0.7441681610675819,-0.33562886215984933,0.22854829222336503,0.5779770095798407,0.44429698895575354,-0.6951336469485414,0.03184518687994675,-0.020088624443999947,-0.22596342237161315,0.707863449348306,0.9992841670237576,0.2968980966746162,-0.5320693116749222,0.5612337500207847,0.1851888091123246,0.6960830523771238,-0.8991980836690971,-0.48111783299076727,0.6599994360000458,0.2625548851938948,0.15820227212587534,0.18000943449444273,-0.4308762379353641,-0.19764337118294395,-0.7505329199229018,0.6042049999125023,-0.12356837453935676],[-0.8204108229265688,-0.11982230503501023,0.2477875354383221,0.5191359386810521,0.7795146990456023,-0.6581081418909673,0.31113860412738914,-0.8908197420100297,-0.09152439542831381,-0.5569521521575749,-0.6040838240771254,-0.9338193434334687,0.9606904954311384,-0.6508482295692579,-0.6449443277697176,-0.7996342278694015,-0.8361192059240057,0.7144452177207656,-0.7028934756344551,-0.055441535434858746,-0.1481371737900503,-0.8915504392329436,0.9437558041527494,0.15098934467443437,0.7113640686945337,0.1193263412473109,0.24759713376894643,0.45453197654852806,-0.5068352243200513,-0.8874027796103168,0.020547379221177442,-0.1610608411005876,-0.5659642822149751,0.2474478940813345,-0.41380982909285424,-0.20409087267417902,-0.31299295424394713,0.3215908784740462,-0.7149795225549198,-0.42958592422765696,0.09401043290427058,0.3186054493387649,0.017140692708698113,0.9156661353454321,0.06041438656893261,-0.11834367106580812,-0.3943033285646407,0.38547986716299554,-0.2537171348324918,0.8724536112296106,0.15482110592918752,-0.8024420978585205,-0.7585369364661427,0.38172738297462105,-0.8707189735419247,-0.1262073518388338,0.08372444998768613,-0.7818104094774041,-0.46352483939994027,0.7414988486106906,0.38950808765087785,-0.3049235856076633,-0.11754309264071083,-0.9956556132606198,0.06965559682368339,0.32928206931185633,-0.9674372723001059,-0.11101505550866708,0.6710469884552421,-0.5083838562177208,-0.311212274146657,-0.07080292303136027,-0.8673197109726027,0.40268249745993256,0.9347380463012298,0.8103041573485663,-0.051645672349518223,0.08662412549613352,-0.40119798293672004,0.16632260928966458,0.6055970671118327,-0.4266520305202566,-0.43184827417730665,0.2607821575534448,-0.42048874418492366,-0.5105581073666561,0.3082389283146276,-0.6575331964716884,0.6275379723369907,0.5527676096221921,-0.487537900899369,-0.6029548963890825,0.7046138822754182,0.8100967956210887,-0.36508564007763367,-0.3296292240629217,-0.2825768735535985,0.6341999754006105,-0.522570392439462,0.8307645039714424,0.4057236705136613,-0.7006636876282526,-0.9628819082776992,-0.505994764303551,0.34391129433316303,-0.5831951424315212,0.5873915163168477,0.22553813484085716,-0.714046443210709,0.4169183827638776,0.42240982857167664,-0.10274694999204348,0.3069150904865705,-0.7036866296778461,-0.38047300305308407,0.9157192136986432,-0.5408490024480466,0.1264850434917959,-0.12621901878299968,-0.6513622331885471,0.09679372838450151,-0.14184008763517997,-0.429640212354361,-0.51233101663686,-0.7657351595461386,0.19378444901285574,-0.4933885086439176,-0.9148174567359058],[-0.589372631961498,0.35627610155984724,-0.4275376931618893,0.8918175808597408,0.49820255380418654,0.7629371129414928,-0.789700125372055,0.3217157866408271,-0.9754145776471237,-0.6698132043013005,-0.2824565138319688,-0.5371599034002739,-0.2824009802591645,0.8732224606340142,0.02615092868248614,-0.7821597424529314,-0.4140963311993473,0.7756115433679005,-0.8681016140808813,0.6718411604918915,0.3304667688654095,-0.7591370703715492,-0.44845759475524627,-0.7225366758178486,-0.24896680179421482,0.41387057687942486,0.7675334891266203,-0.6787384768575282,0.11065420730206066,0.28589690267251755,0.7224551204128304,-0.15044596351310746,-0.9553156025651477,0.2377565606845784,-0.4564445610501049,-0.40091779532061844,0.5045217780237503,0.013196296506339689,0.9947600753823229,-0.3819154435379706,0.4503853862001306,-0.07862673692337419,-0.006200647191324515,0.9042063796710436,0.8406370040053086,0.3943512099502531,-0.5236961518448444,0.36166268474110264,-0.8774863067743401,-0.8631658248592973,-0.7295875054837755,0.2751159383185722,0.8549771139838498,0.0065051754721559,-0.10758405713824848,0.5119205488582022,0.16935215360086509,-0.6602975082625862,-0.6866043336498342,0.03979274529113108,0.24260355181838023,0.9696600083966107,0.9849696699973927,0.6033689781042284,-0.8061872580898255,0.6023045558419775,-0.8012478765432982,0.4115213572824399,0.7774657107382763,0.7648057835930135,-0.5322374146428932,0.07177036012273752,0.5517994080440194,0.017694457246222095,-0.27432347159455794,0.7868881883552192,-0.04221663153245836,0.9328257831560745,0.16444027306191855,0.4047547485984395,0.07035983157741277,0.22847706343618435,0.16674744157654398,-0.21845649481898888,-0.37140905529816615,0.4866794030969068,0.2554632092547351,0.004609000958795129,-0.8866952319500763,-0.7309058786921048,0.4539846031771557,0.8106361873307524,0.8722282962733503,0.26117430649484974,-0.8798004010847191,-0.6231843420507497,-0.31690500974507385,-0.23470177636793577,-0.10618031476991141,0.5574004159733577,0.5823865578106644,-0.7665144256759486,-0.8790568210031644,-0.14329599458473652,0.7238719172983186,-0.199901227423817,-0.1847100582661212,-0.026765057280672355,-0.6153892698999446,0.31844730445308,-0.8111143393353644,-0.35149617871102246,0.7570690625429539,-0.6612845442221169,-0.5178399291194768,-0.6573545320753607,0.9945683761064417,-0.4750305240342563,-0.94293350998447,0.3138368809893073,-0.32662168923100054,0.8996641809176329,-0.701524850569786,-0.690005984760091,0.04236754530471809,0.7762526019730507,0.4885316817166825,-0.09109002680379441],[-0.2980212615509379,0.19089395722361635,0.9086527965101503,-0.14759540684881745,0.7008987164616882,-0.15142330672062942,0.5560040029192839,0.8398286306804967,-0.34455770065366154,-0.23963911699346463,-0.44454925134863776,-0.6400127656983265,0.14824042260543857,-0.008338205013696864,-0.3854884274841528,-0.09868470498038517,0.3693305464262915,0.606801949233434,0.03437581311299431,-0.4914135094597798,-0.2556407307804087,0.4358017500339426,-0.18191298190701377,0.4226198541546571,-0.832335048219623,-0.4783164366541053,0.8112339509716369,-0.7385956382901462,0.8283792954840141,-0.20432406526683766,0.6622690228734185,0.3471245100158029,-0.08487277686508343,0.4262790415529165,-0.03951765136021845,0.23741715027121035,0.6144629807704312,-0.21673996233167236,0.11967195272366826,-0.9848396711942364,-0.7045371780987999,-0.8692358900405828,0.719910092568498,-0.34969297243364217,-0.5014339751566554,0.10669835112734827,0.2928387719538137,-0.5807019178367567,0.8407219615396813,-0.28420334697596417,0.9022774752410527,0.41601087652459534,-0.735127287962068,-0.028538476076763297,0.2776312706758499,-0.8047199999959636,-0.04883044022600913,0.4017701436868364,-0.08687351205942817,0.21928040661378745,-0.4610640947172868,0.7370078025688369,0.15080379507903663,-0.08000141040930497,-0.30023255017379125,-0.42625460574179486,0.6171248702557608,-0.3347439383691546,-0.2542794746878334,-0.10509205527724097,0.21955687408501534,-0.739930989816713,-0.5250725759717974,0.21911043102107874,-0.24067785441592204,0.997645151941537,0.3560416843807881,0.44813061636843954,-0.0286685651028864,0.5893220554775798,-0.9361122184988415,0.17509766312997677,0.8383880255077283,0.9612120606685801,-0.9828852009518205,-0.24934039255510942,-0.7804538498048292,-0.9524246414837918,-0.010589324786685061,0.9091542398226722,-0.4331045151415984,-0.6262784971155579,0.42959755807987765,-0.25869997688183566,0.060052095835807284,0.47892535729731867,0.7568961310208759,0.6038182728778989,0.47488447819212554,0.6277832028386943,-0.4560113283767082,-0.5648591113638717,0.6496201006645252,0.06939795385392111,0.2874116145249539,-0.15777981984997402,0.18261392598621806,-0.34906533158567377,0.5983979204015799,-0.31379830021774624,-0.014507436015488873,0.23076074703726013,-0.0711865625096737,-0.8004800063654387,0.7081448059536832,-0.5388839686320457,0.8158110413529507,0.22295689179063327,0.9929723138058482,-0.26147092130895144,-0.7614393104106498,-0.5711074640309874,-0.7032055767635961,0.3398265289243516,0.09662545893588015,0.05882972899530925,0.8319773822465091,-0.6990987953224508],[-0.14365732379980467,0.198322044543354,0.35668912289176347,-0.6533357089151828,0.7206465432278992,0.2895479524704616,0.011074568503260496,0.08170511589913998,-0.7192951746915877,0.3809655209806184,0.001906984306948134,-0.888593149785013,0.9134623594245586,-0.6270188009237432,0.11874264897382814,0.5933765090735472,-0.15337361893755808,0.6998910316881812,0.48238739277165155,0.2711284572176045,-0.2761004961675857,-0.8877122032677838,-0.2957891398464876,0.6357977519818487,-0.6329620332161263,-0.9568801026832758,0.293358470999566,0.6583600166017645,0.2804490889547633,-0.034371612367246174,-0.7863154014209517,0.26509574813289194,0.2689555872893956,-0.07726606159349858,-0.9262109636758393,0.6551271248634656,-0.19033401761720614,-0.05652840920820368,0.6051164007827798,0.14409132112352885,0.7597748669206681,0.044340500671435246,0.7996099819596771,0.9680323265435065,-0.1340285120578586,-0.3862469595482294,-0.6548508220033027,-0.3806410642372795,-0.3718932874240186,-0.40911401178635964,0.015900142544053475,0.31094721758302213,-0.5400888662295664,-0.7460263901115487,-0.22925317015355007,0.5735590919524922,0.7058793552547227,-0.36072627579351013,-0.8598135623814995,0.34365588995918084,0.6477939827346473,0.8313743847158881,-0.8922605393936938,-0.8119065615470387,-0.9015388595444933,-0.9620441127401127,-0.32578242463378193,0.20389489041202435,0.5204392942212548,-0.48981651224175593,-0.8054052792812763,-0.3919057417485594,-0.9241371502478144,0.8362991503933035,-0.9380662234260673,-0.8162717541661813,0.8763826156115775,0.9100647851442765,0.9578948277551773,-0.634781753484077,0.5014118994298751,0.4868182367355798,0.18327144053289035,0.9758474271007791,0.0834080238175734,0.09857843810266664,0.43362931562643614,0.22811630832998264,-0.6907375008236596,0.5079967131072523,0.31288252518895776,-0.6186838124897591,-0.1359933993492699,-0.6491539903021804,0.06613186378509694,0.3248711042720984,-0.5174579892075954,-0.11908213385144006,-0.55151947404007,-0.3451874709586449,-0.11527056792158263,0.4094238387242284,-0.3800288297083365,0.12771348405354566,0.6255512575381332,-0.1154948721497644,0.15971939298399263,0.5649072251942826,-0.20179116706026434,-0.3123983814415987,-0.1199136434140724,0.33784250109636327,0.025022578804408502,-0.5693172350090563,-0.6740182841065487,0.24285480752104127,-0.8624045689159943,-0.08403074459829374,-0.10616843666336018,-0.00651222353570402,-0.3197794283618658,0.19620209450231196,-0.6461602724954862,-0.9797775304903407,-0.6261573385060715,0.9682792598497159,-0.6686788184135888,0.643063803771549],[-0.18555254626514484,-0.46687047246724367,0.3295636846740062,0.3504479297019616,0.14269462190879678,0.16280842142735508,0.26648073332465194,-0.9195444797056964,0.1528073838270596,0.8675415547621401,-0.2105519490433152,0.9010707953665569,0.4807705610180104,-0.7203313087237038,0.020362597894671985,0.7612878034480055,-0.3628770013581879,0.14761047282904372,0.6422335335569389,-0.8369313514525059,0.0563492411217581,-0.963781071832092,-0.2871212921480324,0.7457980160873523,0.12473966340109244,-0.9218530233693791,-0.19230359811018727,-0.39513351966194765,-0.7119665957211514,-0.2886699261476833,-0.12277827116733775,-0.9946111172906735,-0.6622024526938886,-0.12783761662837256,0.9758163057597864,-0.34747900422499844,-0.0015635268906075694,0.6504900206019115,-0.5329691308558342,0.8463040306146685,-0.538667962228188,0.8430304199913419,-0.5327085173377053,0.3467784842904509,0.7907905617792454,-0.8326054334811122,-0.5884092979997018,-0.3287762614806087,0.5428563403689126,0.6793347756805481,0.10017273324977882,-0.12649420251799048,0.03195572037124794,-0.14434298804127987,0.8112300175661409,0.7155548927885031,-0.4812222497036942,0.302434042574939,0.5954200107861796,-0.8382964144640357,0.869740840784339,0.04696728848438525,0.11108316893092529,-0.3109098195940898,-0.6945466299125169,0.1491799436215433,0.5043739077904643,-0.7160952613795533,0.9643189655906379,0.11044171134705194,-0.4480666279455463,-0.6485491927677092,-0.4646364021938987,-0.6634402338519458,-0.09812085355429434,-0.4447449241611654,-0.730160970488267,-0.3507512799715182,-0.458998552795181,-0.10410415689318975,-0.1633346469430803,-0.24984687015636808,0.23281498651137222,-0.3335783606856655,0.8480590052868837,0.004997195427589363,0.700063910597519,-0.9240680813670674,-0.38202499340626006,0.6488268315479928,-0.2934617205231502,-0.5374412641229163,-0.8243341733984069,0.6144244063225568,0.5472304059760398,0.40703187541922725,0.6956300511048303,0.9989641112823444,-0.9441325740354571,-0.20312532271018324,-0.31462221411407376,-0.6311043625093717,0.9938453582824722,-0.4557225904701263,0.6750708626891948,0.682344011407489,0.4890531196988612,0.24247600068800912,-0.33656664393833235,0.5310934092803834,0.9829424680856911,-0.09062928403372972,0.39482283117735273,0.01386297416441895,0.6528607386038812,0.12320328369282607,0.25611758212648894,0.5557851242456324,-0.7024685459833964,0.8672310333000828,0.2550415591058517,0.269079049355585,-0.82958522525001,-0.4496412689785798,-0.323118101482019,0.6506404568256423,0.31643636278977527,0.8942084209197996],[-0.481008618781231,-0.2634430006471782,-0.6170468921717736,0.5878565725812259,0.7198691436808144,-0.7499737205495922,-0.14531982599303772,0.2969113772842531,0.4563330539739934,0.38697167672376254,-0.17736617680050326,0.23941293077533965,-0.647514286301154,-0.8115010214070697,0.08689822785729162,-0.2876309422187593,0.30945816980995966,-0.08619518067892296,-0.6107477764838931,-0.673355501256627,0.00538027902088567,0.0676481804807949,-0.9827524388684539,0.008943867308274678,-0.006630218993081138,-0.6180520784158696,-0.1060032360450307,-0.17916323420925262,0.13470086358999134,0.9426174740295012,-0.7964758825451679,-0.6276249709969406,0.47436026044009316,-0.8042578815182777,-0.5011050690885421,0.7548268470307167,-0.689293848327996,-0.014724637138502805,-0.6894067323777988,0.5906766057053887,0.09606585482714358,0.014110222323610477,0.10236941498885344,-0.812180954527469,0.34764946699504296,0.44015882254961425,0.17405881181146654,0.6447795552591122,0.7551327331535307,0.16363459894114185,-0.10137220438171024,0.11182711348205654,-0.4746181341799114,0.9924899551528739,0.8442074654680911,-0.8704701604327989,-0.4469903438151026,0.9123951369498278,-0.8695137113447069,0.23383327957437672,0.03604393944359008,-0.7725552227428876,0.9956887628997397,-0.5362653700282936,0.702431953686544,-0.45357288129203055,0.11465335920059139,0.28539740658330626,0.5172347695625745,-0.7969521969579936,-0.5381625892658519,0.10006159702513684,-0.37723212997979494,-0.06285101554401096,0.7881800255200402,-0.43833651914039473,0.9315369435659273,-0.22391944421015397,-0.9212479619101186,0.03837572365363395,0.07145018878183729,-0.09947143195987929,0.957565555484269,0.7128408670816058,0.41158368391089417,-0.5108123710049972,-0.5192575460786821,0.2406736363454811,-0.2975807416621912,-0.8070657789642699,0.6822132261399947,0.9401165689230826,-0.43689600140900553,-0.7284930526638995,-0.5203638982957501,0.3000810028276213,0.87386985406175,-0.5709060982536018,-0.4042058821498178,-0.017174462033034965,-0.7406950448857088,-0.05159780664886715,-0.8593064697121189,-0.5700479760509145,0.8709423597382697,-0.5741492880816392,0.8896827035111443,0.14866091116970526,-0.804433254251752,0.14672615398627742,-0.6242622589288738,-0.4671197394531166,0.5344395820657237,0.3744823641637709,-0.07451319291693559,0.23348671778751817,-0.5969194591511029,-0.11214754912437908,-0.9084781469818188,0.2851161793807224,-0.8441366760625579,-0.4731882017335374,-0.9601694008175954,0.7341521075727147,-0.14097337353647132,0.35681320802600114,-0.20426703657684264,0.5655367638370228],[-0.19891713281623158,-0.8520902575296092,0.49830382665852957,0.33934104529170406,0.3549254668982813,0.872885199095758,0.711197410555229,-0.9405472116414393,0.14245417715571307,0.7516756136040215,0.9319149334767143,-0.6391682747807923,0.7484316390680996,-0.43418885713668876,-0.651708322804927,0.522171232554616,-0.1597855520478093,0.5405609655361217,0.3756335928353691,0.9254047446608937,0.4741188647383341,-0.8105181941060888,-0.9680388199371566,0.07676126505737879,0.11594527603177363,0.9007862700215794,0.25075314462584686,0.3334577031582009,-0.774982756461136,-0.8057541191525137,0.9054993280486081,-0.516737988392947,0.4720263472152073,-0.4319218908090523,0.1381417493844337,-0.7531333014313424,-0.23988298257131468,-0.4571468022456866,-0.41378371471526565,0.8437697899578716,-0.12525129028349014,0.7430716111990885,0.3385663623017816,-0.07572078842191488,0.08315619561458587,-0.85330246555813,-0.6342776609149541,0.5850654635020016,0.5586700529686688,0.7932723843960803,-0.6897584424600429,-0.8748215379312083,0.3938284867602555,0.9626416965014732,0.29244213095791527,-0.5122778832187846,0.5189416937451254,0.60693862775608,0.3925424678097551,-0.4999894572867072,-0.7608611526841516,-0.15028022419149534,0.05506530455533731,-0.9029274916306895,0.459497655469308,0.0717149607352372,0.827039182356494,0.18477196849591948,0.8536209901226506,-0.15619243468283073,-0.05922001351054074,0.2514879819595728,0.8278739765708378,-0.1953781487228936,-0.781287767851421,0.5643057414069299,-0.4392658383532706,-0.6600052543677135,0.5500899685651868,0.9874194105503034,0.3226144302620646,0.5621837206408855,-0.7713362443198901,-0.1914094793178851,0.07027671495707422,0.713359662734274,-0.8954413455115862,0.17790824164022023,-0.18883038483814585,-0.8629759429374904,0.5047007067830551,0.508520238420213,0.4279839657950557,0.10012374843459826,0.450302797328862,-0.028796556945284824,0.36357005617623384,0.80446327542286,0.40263166694364716,-0.3462245315489667,-0.08004313173605526,-0.18423213492620283,0.3227623731078868,0.9970425049090148,-0.6209033276488858,-0.643189657254766,-0.380958298813564,-0.07565990782080889,-0.7202238750518861,0.8118088839720055,-0.6186974255726141,0.05690237955970212,-0.4713399722885012,-0.28271724968948164,0.41971266090363946,-0.43613389732735186,-0.7211357783408989,0.637581647767127,0.8883322998513818,-0.2578935961568549,-0.7039455861630064,0.28603171300809294,-0.8692626360951263,-0.07068442569354794,0.2957226396474528,-0.12348838439525278,0.03172926355666594,0.4440525452229156],[0.6374607388039215,-0.04075381594792704,0.07445842217893017,0.8264163811432699,0.2628155465537845,-0.6196296733816571,-0.5066429633140139,-0.7389367232349338,-0.5635598951379426,0.6774143256294618,-0.8111089056999066,-0.3454225937489057,-0.4921250504871555,-0.8861108407720926,-0.5499271239025709,0.34605212704102284,0.9627697032176512,-0.030588998590102223,0.36749266538371117,0.7768626851330354,0.9329845468806139,0.2922306899161127,0.3114440981061952,-0.8139657768180646,0.29394601056861847,-0.9892160424554752,-0.8805038035308863,-0.9531512175916046,0.398693684970747,-0.05302447354855433,-0.441669692974729,0.21874798668590278,-0.38130349492025006,0.7073626061042617,0.6274291234865585,0.5396853144559364,-0.8679914867973448,-0.9472147763686152,-0.341256638554039,0.4814222158427357,0.48301357131088896,-0.7702989279893246,0.25177575597137625,-0.7237128635281165,-0.11966397535027795,-0.35933224436182964,-0.9126962712159528,-0.2950427688854007,0.3676965185436334,-0.45580621388405484,-0.9799046043935158,0.8862494312708562,0.3603006046659245,0.3032923718260323,-0.7214077616928636,0.023363827473793064,0.7895956523031231,-0.43471601180651565,-0.45448104471009376,0.7066334687104623,-0.6221321245081646,-0.10958511933900739,0.103936703718158,0.5235224708264188,-0.6386598127175867,0.12310859333709168,-0.1975859981498107,-0.8545900726843134,0.39973877785865186,-0.8325190670752156,-0.199238320007187,0.2799687101354127,-0.7015344715877807,0.7711538044435162,0.5873357342279022,-0.16639293528731147,-0.8709090549707195,-0.5662171019580484,-0.4782771921163338,-0.2194020400129888,-0.10050448850154248,-0.33676332090602745,-0.7922169756008945,-0.4112203013066542,0.9046769282663589,-0.18336298329470369,-0.681611194953935,0.6897722188741382,-0.6429455928672456,-0.0822953870530636,-0.657619613817269,0.17829261218397652,0.5516258063456339,0.3032658821840015,0.031099505720088017,-0.6571486559996618,0.8731169487482844,0.6574789987588965,-0.017929992658556326,-0.030392254099385285,-0.6045674989870036,-0.79211833755587,-0.8228590170747867,0.9203635059481634,-0.8288438785516172,-0.9282281139439639,-0.5531914169356678,-0.11662546012608765,0.8402906766418643,0.6129650064175565,0.7876698181716886,0.5786178027236439,0.902194551949288,0.8060641669422768,0.9534078547859788,-0.7133448919442575,0.08439099945119666,-0.1718489004132293,-0.27815094219403647,-0.16715252461586272,-0.05518706297482079,0.12711895990538769,-0.5347983312074129,0.45752020342641386,0.5714299756592753,-0.6134922848126216,-0.10287693927736896,-0.2833622210427511],[-0.37275209948949906,-0.2950377916706306,-0.3740706165954304,-0.7472765332365008,0.333847637458895,0.42875365658853837,0.019777083851831412,0.7304055518642003,-0.15353294979967402,0.1482277372523486,-0.8923952599436851,-0.1664279931374637,0.6183873481087312,0.8835932298557456,0.6698931501840681,0.5128811699556919,-0.19154934065367546,-0.24409511024729857,-0.6159460867679964,-0.06329836540447187,-0.6126953106831006,-0.4959437544245422,-0.5294235080176259,0.4092760509253577,0.6714348347653862,0.8101890479729115,-0.5463963245629935,0.6201505786522064,0.5436258178307756,-0.6962658828890023,-0.12191053878163727,0.9302102407099815,0.3896537939939506,-0.3599591760489804,0.8202185499991745,-0.37124415710713454,0.09531562026344553,0.3920772689367773,-0.584924316681646,0.676991814362945,-0.2869965193635964,-0.945775469453725,0.7646639078974995,0.39637836705147,0.37238410068537875,0.21314103022430597,0.09322171585828753,0.022899314899101242,0.29492121181717,-0.20935634224487654,0.9568511757238405,-0.1610003332444523,-0.05152727549022451,-0.569350159190064,0.35734314575762305,-0.2760700450375122,-0.7139740972167004,-0.9567830854043851,-0.33122788448600327,-0.627066554983887,0.3266904029777351,0.5614083160543908,0.09501046433123106,0.7517960779217707,0.19566281101672156,0.9285940038774194,0.15075889559132527,0.16162471548732094,0.7665000741995913,0.27503148252919485,-0.654072851369885,0.8580390461966063,-0.7316428665638641,0.5600411991589851,0.962599576742825,0.4638872899207489,-0.08208895626864354,-0.16888479625582642,-0.23981447198440065,-0.013629011220762433,-0.3641687227533248,-0.8699673442514211,-0.0965258237872233,0.7992301751934499,0.7274475044102822,-0.6018132529226383,-0.5471424721222662,-0.41801786050172285,-0.5916281372443837,0.3798279467360737,-0.923875467545503,-0.5445887191897736,0.48458049184824614,-0.688352329327663,-0.45599276475806816,-0.9118248162581855,0.11721592806805892,-0.7941146383102904,0.6334836980294376,0.2337798196411387,-0.8528409386652633,0.6701389242056504,-0.7516339171587565,0.8194103152155341,0.19514799313133446,0.33210004580746055,-0.3628721062606193,-0.3522861233779959,-0.5250948163202664,0.054400480439199095,0.9090917991558758,-0.5940625144654343,-0.7200514452976745,0.4394946620083686,0.7116077550436164,0.4775358481893943,-0.7246063665567619,0.8597559320040533,0.07885897811558085,0.47178999915549147,0.33285194703715715,0.3437376138177577,0.5055009125597623,0.07468383874424589,-0.43192424304160326,-0.027493457507155483,0.48407959850524396,0.8485607759086882],[-0.6343119857087045,-0.04066087256113038,0.7290415037591236,-0.108377098824614,-0.2775330541378691,0.5684317750654062,-0.14976778478535868,-0.2298648858522423,0.893562515872939,-0.46706341257478123,0.8334917812085201,0.17926973510704602,-0.2101824025144612,-0.12487414356797566,-0.7029952223295197,-0.3168195716887974,0.8528460925767185,-0.6373091824696928,0.42706747286332525,-0.6230559810350107,0.309630737098487,-0.33623821383887376,-0.7812425993578134,-0.2977714930175954,0.7696250571474172,-0.7370006878540825,0.47095996439725685,0.3269272807433439,-0.6650024900653257,-0.8788680725519626,0.5350414198354685,-0.4358267591248697,-0.36772792279661015,0.9776720612263441,0.12620703595279248,-0.3013367663836779,0.8009297795566073,0.10982902616876222,0.6058213868050311,0.004597633189320938,-0.6008919445608385,0.1531203106676866,0.7178460893359331,-0.7336983306572697,0.17643954991973398,0.46106965171709646,-0.9896418630548522,0.9372280875864405,0.8165757527871169,-0.15505369296298532,-0.12133589207125928,-0.35624355166352695,0.4998374926005291,-0.6330552036491992,0.07241283571548118,-0.11286739779494837,-0.2851805646946819,-0.812463265195839,-0.5440079469003334,0.3928855422382356,-0.8842260946461105,0.8802932525352709,0.9291501745549593,-0.1663156437506068,-0.6860619204070786,0.22922923133834727,0.20418949530483,-0.7356490312118464,-0.936272536749762,-0.41236834519079624,-0.7644957307533105,0.29819829387294705,-0.9257409739829565,0.3618873077195721,-0.9300286229574068,0.14733555186116498,-0.9284677991230774,-0.13431219125520188,0.13407955989266251,-0.0604409758688742,-0.31955515975062254,0.42052169004834394,-0.4088016549663229,0.2672257255079462,-0.39605915565464733,0.42620928723186613,0.526206251630803,0.3539361309953195,0.17822149995000514,-0.06515468495338572,-0.5556036075456947,-0.35732229019712713,0.08920499486580824,0.21053308163339124,0.864126554316998,0.4191649644963771,-0.3844315768765314,-0.477046336819948,0.032513933803797856,0.2059004347681872,0.03489037089419389,0.6054983779949383,-0.6316602494423174,0.24523505660345912,0.10154830629189737,-0.3850028495416711,0.8773932125106445,0.24634694032825233,0.9257699069030201,-0.2499990781816681,0.050542322109811355,-0.06216864003875444,-0.7618896249364697,0.1569056411933849,0.8248249748550369,-0.261826536206345,0.815016298262689,0.1965432701813925,0.7864762983997389,-0.8884105466799976,0.6288452804433116,0.8292332635239823,0.46496700734531693,-0.1220772494022122,0.17094579510054597,-0.5667501532169306,-0.46219994209172244,0.24517610697252645],[-0.16938701897629982,0.573092856527122,0.04527139378731393,0.07781346421065582,-0.7627293989156783,-0.5981003145646844,0.143450750158294,-0.9337744257440237,-0.08860147492276838,0.4590075827809055,0.5778231868298318,-0.8556073131839892,-0.3656702765250166,-0.8486172110130634,0.802935935742501,0.3467142928499718,-0.6634047333331246,-0.8034402828802101,-0.4016780293015325,-0.17853321318472593,-0.38235019981847795,-0.3226918747808858,-0.020119634026909194,-0.5811970212460866,-0.28795547798639065,-0.6691840687181989,-0.022819508804773125,0.9830483749820778,-0.06150016477547271,-0.45985396361179665,-0.4481313859702867,0.0392778056774461,0.378496416479434,-0.48415243400608476,0.07441133792748955,0.4118676347836685,-0.9463496636675883,-0.46670082064091556,0.9061886780681767,-0.6856756442549652,0.26475810680996426,0.6506406449574407,-0.5885203881080612,-0.6015262249410303,0.7899812570044573,0.3646089556413423,0.3081035494592461,-0.8089364696324413,0.31724219731948344,-0.22060387361896616,-0.968987605984827,-0.37227646955763904,-0.589273962140946,-0.8319789983689976,0.8968964434755196,-0.7981038774600258,0.6319969088566655,-0.11379898092135865,0.36547788803290104,-0.31630001864298385,0.04986358902931287,0.6753678051076502,0.890556054610081,-0.6282620643719423,-0.12484865716776894,0.8003118723887612,-0.6056709762050796,-0.9047266619011587,0.34360021248401673,0.7291639143017163,0.5358493009473595,0.5502024499023299,0.4378114296269393,-0.04617215570770328,-0.9355351774780012,-0.3410779712323537,-0.0497974989112544,-0.3798114804796855,-0.46780598241751314,0.33375826076695736,-0.17963138097874243,-0.28971831302892137,0.6479656252641457,0.09145637851648125,0.20831789547063662,-0.6630619633388584,-0.8294574500051222,-0.893511412017413,0.2018467960941004,-0.11701771107808079,-0.9191044202329972,0.5346320863187757,0.030185601912060545,0.8816234788927151,-0.31683942534693266,-0.06042170090422361,-0.9950179786651216,0.07858507645302426,0.25148517355700695,0.19333790527292294,-0.634010402935002,0.41307090533863033,-0.1477463137192614,0.9551325610391712,-0.05216880780041655,0.7984358222576948,-0.7359075385670184,-0.9025750324432047,-0.11224577815240666,-0.31958281685019907,0.19782486528387255,0.4358088036557908,-0.5169497188558101,-0.9395209713831734,-0.9878901393958357,-0.8631836242078541,0.8039015477983171,0.9282222200267418,-0.6202910264680612,-0.17571681452311938,-0.7778720050792363,0.8863932055271169,-0.46940774568389476,0.5344486670984647,-0.026160121118766977,0.07507903340339572,0.10114746922129325,0.09717200366720724],[0.22125802469552447,-0.2902829273945009,-0.35775758495202625,0.7591248424786488,0.9548762102263659,-0.062185350349379,0.1470311574753289,0.17332172232938037,0.668176685385256,0.8911908638272505,-0.4845903333848669,-0.2966693631791577,-0.21149608188236413,0.03235929687834216,0.7920648191458664,0.21931947820631859,-0.8317242495691561,0.5683361469789006,0.9637698163372297,-0.3029079733254918,0.4854271753530406,-0.9648915065691359,-0.7145167757152795,0.3861652458814593,0.4946122028693367,-0.7555750560826955,0.7884507757073176,-0.14528037821510487,0.6964126296710658,-0.773382661313869,-0.9087623932566145,0.6872780085779353,0.335569156002528,0.96432108158536,0.3680534801023574,-0.07162314921002255,0.165644067183903,0.6788457501144902,-0.6392094336632268,0.03319302488798259,-0.9893646645614711,-0.06632077429423044,-0.6640215924038049,-0.6115569378542451,-0.050205672561861814,0.8836528748186987,-0.5960511466973903,-0.09693118701774406,0.25503232742610993,-0.41227382304010085,-0.015417619165321916,0.2574839112466105,-0.09330234733388831,0.293560946760127,0.6915512614503783,0.06834352316363357,0.9285256518773539,0.21745807033583375,0.49987131742569435,0.773084255103599,-0.2378296576782506,-0.7392939751844054,0.25148291879710527,0.1515685886981497,0.26250518283042745,-0.4038680138760604,-0.7223081003072278,-0.1721548578518024,-0.9437020544075148,-0.406990359163776,0.8910562140872391,0.7029308583046678,-0.6975689816951449,0.12206709515812975,-0.15237879162943635,-0.9207315767294437,0.743855116917741,0.7487110992033104,-0.6418292713596256,-0.2200051497397839,0.8324394666304025,-0.9898983627491167,-0.9871063287006308,-0.858895886341938,-0.9453638549746153,0.8908975319348278,0.9657751736342843,-0.8273460908073904,0.35457433360840684,0.33944081143902793,0.012856905810066044,0.5090013950391801,-0.048241379595050926,-0.4760323811956757,0.4181132924329072,-0.973710551127698,0.05970648271492407,-0.03410852105587758,0.6859888083381043,0.8549644793386275,-0.8643050998603512,0.4743995725199024,-0.9179967371276323,-0.4736130109558181,0.22841483830939202,0.8941779077772978,0.39075587083793706,-0.9176284154047292,0.904969312815439,-0.11200268847383565,0.6582052624050412,0.3748158626763527,0.6722792765574548,0.6879929224134966,0.40678421460315684,-0.3189580837800756,-0.3034281494944713,0.7390252036432581,0.2328933453704296,0.22706558207089467,0.7398796957469793,-0.413725772356238,-0.6896306151569824,0.2634246900004735,0.9758342841887298,0.14080400510976498,0.8826832303511281,-0.8973361176368544],[-0.49535592708239107,0.33835484523600656,0.03252240861825384,0.41089478207772645,-0.6053382774192677,0.7530100563292628,-0.1409434181917486,-0.6841406216989965,-0.016137736080998222,0.21748820854199624,-0.48301326739365624,-0.016217549852345137,0.5071202220676583,-0.8075005706363119,0.9425880985805823,-0.9863399903537613,-0.992611270701033,-0.5713027929909893,0.20132470183946638,0.42450906883145256,0.13167984775148822,0.8454150016275797,-0.310496629701162,0.9177146494460677,0.517964022217714,0.07748487136246074,0.86332319825835,-0.456595646140566,-0.4012099688183959,0.3102753405963494,0.36107716778740695,0.883327579862,0.4493948572022457,-0.6319040368535969,0.6359273166788733,-0.49381473777326335,0.39742224012699756,-0.38113491146522493,0.5940538920876466,0.14179322792374793,-0.7193003185026412,-0.04614978815375537,0.6213278557816786,-0.06459226630359782,0.13696199610982007,0.3947469838499973,0.7389217744277505,-0.45456131290218416,0.4568896837601457,-0.09369256148845184,-0.6714498797287349,0.1939091618170976,-0.041000410351993644,-0.9220231662869889,0.012604833223252454,-0.6555364150928626,-0.7215619328460829,0.9127782670365259,0.8400689734006845,0.5625543048069184,-0.8495038694504844,-0.41748227866703047,-0.06306560532304939,-0.9184773016483652,0.2919228190252048,-0.46135821821348766,0.935989089740557,-0.8406874685345584,-0.7892388410176598,0.24938143297625626,-0.7166749860379087,-0.13457114747820542,0.09537132105476442,-0.17099201960370514,0.6102822517974014,0.010640574361456823,0.27464781417696393,0.6270968631080225,0.1954859679028127,0.13342274953352184,-0.27160720817428685,-0.07384059168132118,-0.1494316489351435,-0.8668486151439121,0.9853136918673064,-0.5235066269477879,-0.4003241588099786,-0.8185908640116362,0.8963134659251724,0.8383160211790555,-0.7436597573219708,0.6727849907003562,-0.9503326926617206,-0.08662339000483188,0.4271076534225182,-0.19050620208699187,-0.8017886022012384,0.7895300630762792,0.2552930957259312,0.7513534268782236,-0.7085985350076163,0.8412161212858034,0.2075745492190595,0.08892158230919489,-0.22254458887441064,0.6916034159432725,0.27114270499113924,0.5905668912049988,-0.5639239878034987,-0.37553778715926844,-0.39807357181289227,-0.6287567770763955,0.26260239280425335,-0.4688655927213885,-0.5870598522754074,0.1777927055004367,-0.2261526999670973,-0.9666904165306676,0.30213420137207936,-0.7877590095708602,-0.968188145492406,-0.652613815803269,-0.03529215915339434,-0.8507098266328601,0.8756564961374758,0.8220985866671182,0.10268525853628896,-0.444694994986804],[0.4332520991222688,-0.7649709369751387,-0.6984095612763381,0.9760558252538618,0.6412495300090797,0.07430060191380616,-0.502230211883635,0.04624680832924799,-0.8225162623695601,0.7837278015932094,-0.8935327755668483,0.6283866278891865,-0.6650108195181359,0.8683773979776639,0.40121102012796084,-0.8121472701935835,-0.24687103589812742,0.4658309312039066,0.4347166031441365,-0.31437809990844445,0.4245574082147616,0.37292773197733187,0.526971399687794,-0.03619593083121475,0.9461614827636258,0.9708229681755944,-0.7406505103534933,-0.38977657678353195,0.9986207674855605,-0.714248028454799,0.5241299316662855,-0.04628381194882736,-0.0420597793701889,-0.7653271525940928,-0.2599699545501215,0.032111299613974076,-0.8193739758605558,-0.6129025778025134,-0.3432148930954011,-0.26728483510307877,0.8901735565839659,-0.10992573907875203,-0.8029055602484672,-0.06825993416138165,-0.2663390893651547,0.6740940118006653,-0.15825774104419832,0.5907385759172816,-0.8529680039270431,-0.3687113691170667,0.7674202480278758,0.806856077452015,-0.31643829909029186,0.9812298176739525,-0.44585183814814244,0.7857372422922859,0.7378230285717098,0.9105568989550716,-0.8763934001695044,0.35643118457233225,0.8801082289734878,0.7933914261378958,-0.0038268833045362882,0.3788906510975747,-0.39963753041070404,-0.6977083354830655,0.037059319592348317,-0.03448465144703827,0.7040617095960819,0.2330106279897335,0.722689988853328,0.19102344613624966,0.31653813694679256,0.44378706950188374,0.37363094161038624,0.9887586270134987,0.1295858236620424,-0.6376833892864022,0.8138721438651009,-0.5789106561735975,0.9749303444029773,-0.8740058918845093,-0.42006116185050857,0.4073043758815291,0.43287400187454605,-0.8002120672666972,0.4367041441557351,0.8099938714360557,-0.31796879419565505,0.8080308682812292,0.7093884559542722,-0.15330214463544056,-0.3891110662740116,-0.8986026524381237,-0.5756057196103248,0.7250910189318545,-0.7675687099305879,-0.5157472497020101,-0.3593713685395945,-0.2980080691078071,0.3965758884916648,0.3063062060923887,-0.14624555806447925,-0.5238672192325635,-0.02857725462290661,0.18559176928939802,0.0788041103204613,0.965981053418306,0.14351458554594898,-0.6699857255785757,-0.17375169064230045,0.47366751511334004,-0.47642587123004265,-0.017929548306910403,-0.6710554124584951,-0.4816263204474629,0.8981947328558195,0.9799237729456067,-0.4265316019167824,0.8747616630172927,0.6329733518285687,0.6508213641915526,0.33066616353711753,0.3325792427440257,0.8231883627255807,0.15863564964370402,-0.28619671135962865,-0.5212378688427917],[0.3659822575964031,-0.020042298960927907,0.3026871045736508,-0.09659036880524119,0.5212810772231622,-0.5144557805003618,0.32168067679051027,-0.0405739620160237,-0.6809297813704014,0.4320428751245664,-0.8811275420257827,-0.6398683478528628,0.5366976046522498,0.44226383423416116,0.4359740933189886,0.9189834979902018,-0.2922940451946874,-0.841799849687713,0.591650520024545,0.5313063655056192,0.7845238358704532,-0.11377520237999961,0.3229480479766671,-0.33657163696393844,-0.2780896272459976,0.9740856886209401,-0.8683560284667287,-0.3326288122814891,-0.1281645860016638,0.49015671202381883,0.08388622958408343,0.2816490323897458,-0.5515178628162096,-0.7058531638941947,-0.37385629787405406,-0.17207674087022284,-0.4766959387013723,0.06085755709456331,0.6834309790867936,-0.1709926432861435,-0.27040827837966686,0.6406180191525235,-0.3039661566728935,0.3397881287337985,0.7236507560371443,0.9574330229856582,0.4152996168875207,-0.6790675433143818,0.34509944316967167,-0.40818582514340074,0.039091507946585446,-0.9868032046535091,-0.24007203151721868,0.11993640565739705,-0.6848052544664633,-0.2309424060181322,0.11979693955037218,-0.6126637706497025,-0.29339142018589714,-0.8891651124820683,-0.2291274125192344,-0.9389434424914118,0.24412028881042724,0.8082661403246698,0.5812286488777438,0.962421143802566,0.5833190494699858,0.9440521666878998,0.5351175131831489,0.03251313849842008,0.1518209647776414,-0.8539013716497137,-0.7391585073827978,-0.05690246415328115,0.2950101005285757,-0.05851042427870534,-0.4481910869442971,-0.6373104410866355,0.3771708251148107,0.5692772849821206,-0.7299917938594771,0.6341066143555607,-0.3904390244892435,0.5782207809854201,0.020775988993143812,-0.04216628040668957,0.5725518488234229,-0.05480828854407527,-0.6160483456183232,0.04536626677054323,-0.2909116644974865,0.03897198383531042,-0.6855498563976523,-0.45757893614652034,-0.21655482486730482,0.11316161992082985,0.872305654573897,-0.7361257580234741,-0.35091062963775554,0.4974250853389357,-0.45349517149004215,0.003343551784289689,-0.217824812966376,-0.9712447683123275,0.23551607820134324,-0.6189246717716703,0.7224669311813827,-0.25482732036997047,0.14860982649869192,-0.45098140846201384,0.7731611324524257,-0.03046045782412321,0.47176011731444634,-0.7343094857852646,-0.8640325806231774,-0.6490360281890144,0.5689038166967653,-0.5916041672082208,-0.749478353885018,0.8913269134755821,0.4993261714337587,0.5262392924749484,0.5556111962397337,-0.8606660418640983,0.19988467596108483,0.04501766271585739,-0.8316586674279751,-0.364499457179412],[0.7076805329163198,-0.7356446222319877,-0.5411854982804425,-0.12654386646098081,0.4085982903908276,-0.5993755763285602,0.8990870008296004,-0.7535878570662511,-0.06016063330469312,-0.17808561764002473,0.2721666462189247,-0.9866837916095461,0.4279574201681624,-0.12594943986834828,-0.5267499531757422,0.17475293081754995,0.4608008326827402,0.814679357308205,0.9295276536873398,0.8279400242682682,-0.2111051879962329,0.17027768070333482,0.03993073103123246,-0.8581706948853287,0.8486186986993662,-0.8679411458691957,-0.48612408481560143,-0.5386695741307421,0.551543848944285,0.9975308468942248,0.31479323734844233,0.21076651725443019,0.0636980127341229,0.5604331372793094,0.3038923045607187,-0.18352950119874833,-0.41104885083037535,-0.3584841150513922,-0.7080129249342408,0.9496977824107327,-0.4721056566572035,-0.2496393527912264,0.435937901744329,0.1829651801327794,0.09645995328007428,-0.42966007391706706,0.7196214730412092,-0.7487751223121375,-0.4222646119586444,0.406888456483286,-0.36285656730180293,0.23970703368995028,-0.9026499359576685,-0.4201141864742719,-0.09561171402103841,0.5373798282231534,-0.6713860037726669,0.9594395065167611,0.7850650510139194,0.6293526330828316,-0.17878542604620717,-0.03636480123712116,-0.4930318385640491,0.49482054102620787,0.20116383497999069,0.8746252423453378,0.2032548933604359,-0.3312585387837035,0.0850613110012699,-0.5433822375753277,-0.014903779965251163,0.733209458847015,-0.2156785997070887,0.9008042236817431,-0.7799328246264878,0.8286798058269527,0.35842498192739525,0.3528769247467958,0.2061521082548603,0.4624377257601766,-0.08256079699831376,-0.48365492454974923,-0.4383351729990874,0.5947946504059538,-0.05243898796395219,-0.6278085161078979,0.2886020506366238,-0.6230638097368291,0.4800285166192997,0.16664200354820502,-0.01555234968676733,0.2768296063994218,-0.7934951735523768,-0.8571747117311141,0.7234783587610385,-0.5118717198442604,-0.6541272020401214,-0.14001286802416213,0.4521890600258036,-0.2567803730455751,-0.46238861900539296,0.6825987005223577,0.7718863012336974,0.2109380679339914,0.1159276139874521,-0.18744832106306775,-0.868542820169373,-0.1830456893135599,0.07789399305821232,-0.7585107121406596,-0.04237966395635273,0.6984085414586894,-0.8200553859124877,0.5535962512752028,-0.7906175898989312,-0.7287008282924425,-0.34729142929357093,-0.2727168970474423,-0.826111840220692,0.1326680343050124,-0.8575941014346322,-0.131812557055889,0.9989829615615651,0.5342169915619319,-0.7374743414446652,-0.5519920643345329,0.27254480514140544,0.7788352892947019],[-0.9618007102971453,-0.5442251145018686,0.3005645029972661,0.9502557175951147,0.009683884164102485,0.8436971777934312,0.8929885430560613,0.38745497698955167,-0.21331042327671734,-0.19445135510342948,-0.3860408151233181,0.23541707014088953,0.5486538685851767,0.5302411669872007,-0.7247179614796837,0.2549616549674001,0.7804768827563524,0.407360181889477,0.9937374481966934,0.6351382920356567,0.7009260425563861,0.24617981125362154,0.2450155106621208,0.15296415246697825,-0.6187060128738682,0.6656534794460454,-0.4081641960090223,-0.04397800840094357,-0.08355779693198229,0.28122366847830493,-0.02062589526561176,-0.22680340598362458,-0.12100271522104022,0.21626193608927968,0.6341616037386009,0.808502697830406,0.2793974238450285,0.6156125982452594,-0.14362632924915708,-0.6639006593330605,-0.10116420382751157,-0.0040869463048385235,-0.43802599611452786,0.39763023533916964,-0.9854737616580722,-0.5882731511083921,-0.4011873029600703,0.9354280377442548,-0.6708621773426711,-0.059593330336839445,0.10048465652316252,-0.10236541624079276,-0.9529860129790197,0.42349604143699104,0.16096568792195587,0.45388063606195983,-0.3849067827526762,0.43339087974668034,-0.31266518864240855,0.4424025833773675,-0.9169354398995924,0.41493910526592126,-0.15012447957081743,0.9383920917544162,-0.38347468156244324,-0.623699196293027,-0.5228344654439661,-0.8406273004149187,-0.9494577523122518,-0.15083713427547774,0.893013662391642,-0.15927267858547878,-0.2539805415881611,0.9569371573803669,-0.6192060588229054,-0.3672679837992736,-0.224175990626593,-0.5795716984344119,-0.7198232027448896,0.5010199467002612,-0.0810469982840143,-0.4640640223578367,0.97560243361304,-0.22960482285609274,0.7758487030713759,-0.2750378565877063,0.2813618306234442,-0.6960596831467551,-0.001821276631561508,-0.4842171003514355,0.4759220314578878,0.41006063145744287,0.9680053270095035,0.9951686624999634,-0.20145450968234968,-0.00871735164162657,0.2744808978515245,0.33596715940396815,0.8958625558927307,0.10286036962743084,-0.7689794963021939,-0.6990690472544561,0.14558166677128215,0.015395605633661491,0.33419728726384723,0.5112799195560005,-0.784409685796825,-0.6965971576594507,-0.30295677466916926,-0.08017895912654915,-0.4811811974678164,-0.7627553312008029,0.28383722908831865,-0.7594572250356708,-0.7946326175850331,-0.01952549652227442,-0.6953640327533563,-0.3041015728070908,0.44500581189940647,0.6411683685722143,-0.10636950611194895,-0.02643451620263626,0.4417538267937433,-0.875224069987822,-0.3974879417813171,0.1110306408116073,0.2430228386497053,-0.16286116586784005],[0.574072163624308,0.28746694991608157,0.1039557164315561,0.23090531425113126,-0.504273810002813,0.04105159793982249,0.10094454843453704,-0.5389331855150024,-0.887497249724295,-0.7209487343258445,0.6350051352480648,-0.958274644339981,-0.012191303486064342,0.3122591225776328,-0.8031305429676094,0.9951508634027542,-0.49822745944788926,-0.08427170167556342,0.6069973943399143,-0.041423692165988735,0.2977405205531909,0.5394226188052809,-0.6549815377603361,0.23543273008966925,-0.7217639390631254,0.9793568910936636,-0.6908850103334849,0.9484355786682821,-0.56829844622483,0.06891478248884764,0.2461792724907974,-0.4218436961274188,-0.20405488790459092,0.5551080610322978,-0.35279164069187074,-0.6494919566933122,-0.5021658409423126,0.8811871213815154,-0.8594140348555259,0.24907983307904735,-0.1670369423220739,-0.22014352980213658,-0.24026832832930256,0.7214289917302901,-0.5798909364455198,0.7172533439293443,0.5432573084252905,-0.1751511040541831,-0.3312964268224343,-0.1952491648883128,-0.6214049174979566,0.5219588997511255,0.37828463552371416,-0.6800312112343185,0.3532392042631429,-0.3813212091119227,-0.6554116565782735,-0.21302662440668163,0.0425412800956686,0.4681051576237736,-0.4905619210002805,-0.5364086977250664,-0.3197885984681117,-0.6644573905096263,-0.3146274115372176,0.8838243887076704,-0.4719272302144961,-0.7120077731593335,0.24755053834424423,0.07723564361028301,0.6108073573822876,-0.00975002595269503,-0.26005790055510936,0.004772490023253084,-0.5167042022690884,0.06068389567622057,0.5705801328042412,-0.3285808648273614,-0.5852754698805036,0.6645972433704612,0.748618727551972,0.661260935416699,0.12323057565139672,0.46000282968072015,0.3293818543307654,-0.5411114450005428,-0.6044822277686583,-0.618835361888743,0.9572875491970803,-0.18519481156417772,-0.14586559544973365,-0.24153702693794865,-0.796303056142891,0.004107281415429709,-0.3849952387335098,-0.2654703481145182,-0.4813862779550726,-0.9025147941785219,-0.5980264750531585,-0.7359982095494013,0.04819086712956544,0.9224096443422032,0.5314173005259109,0.6810691679368865,0.3590723382346215,-0.7570706753438956,0.42243779936064607,-0.93758778785738,-0.42222600850133074,-0.9129522134488901,-0.9023777671979984,-0.1659116228767188,-0.3244720094797937,0.14496933317769334,0.9490904653196968,-0.2621045019631514,0.686112476081369,0.2519552893847259,-0.7132962032903758,0.23878692023320647,0.4066919553082444,-0.6026290396169214,0.6776578484199907,-0.8720816965646321,-0.48326276217180153,0.1512153176181561,-0.5001438246858396,0.3862949965859701],[-0.3217305921336049,-0.4056925090816861,0.48019704771715666,0.34853386821554744,0.12194696872862143,0.7961399400945506,0.7437249688395211,0.5626600506919197,0.5006493684244091,-0.13394408859154994,-0.26287727600975797,0.39606217961217505,0.09074138475839266,-0.7855729518480963,0.7354927760574212,-0.03533493027536827,0.8732871084370084,0.7789428390294779,-0.3055681634748548,-0.2236430174798174,-0.15764616569286716,0.46298042448602006,-0.920427060966335,0.3096003760486725,0.9967134368697448,-0.5411528375059387,-0.8644861199933564,0.6211712225611465,-0.09025372563433498,0.7486096463470429,-0.6032279785441956,-0.8419493922676842,-0.16379089584147977,0.2099683326882229,-0.29885169091929864,0.46592166863778783,0.07049857353273214,0.8615598896003736,-0.8582259703850605,-0.7872360418354933,0.3331078072150313,0.553173339089744,0.17207321151273547,0.9286482768198803,0.3457314262112854,0.5654493857861767,-0.14526831572448407,-0.34437866616915724,-0.2718859144122716,0.22276070443096252,0.19448970296727808,0.5697786634790489,0.604954339496331,0.6955244996121395,0.27615399737139423,0.29633710741587027,0.15777144799616227,-0.4760995533816652,-0.4606833240011059,-0.2919659409783104,-0.14794602235607424,-0.7697289968448753,0.838166467898187,-0.7105517743032879,-0.4880406400251296,-0.08735339454649105,0.015989867812089775,-0.30844165077088825,0.922901879306121,0.07832775152033555,0.914726863462334,-0.20466502485122495,0.06480246947903034,-0.1280380373151686,-0.8947964855965078,0.40407554521262123,-0.6719116169362414,-0.7055773397144802,-0.8266075615830182,0.5611167554449827,0.6392325590361887,0.7428420386220558,0.4266204746153215,-0.8204937452667769,-0.32954798758982395,-0.8859568615632241,0.9868229784245823,0.055175379770140864,-0.49721389274501493,-0.5131496623405423,-0.4629914416185321,-0.26120096896930955,-0.33921312251351,-0.12374266989538962,-0.8670581248197118,-0.4918881691512471,-0.3565130714390137,0.9406400837883262,0.14266646310296394,-0.8697877389891009,-0.6541825264165044,-0.6936408400499514,0.3005162004461206,-0.8514660286442421,-0.9940231083528506,-0.38521827676860565,-0.6438942644492214,-0.5422480810602881,0.22979927856437588,0.18272071702079518,0.38669940310342077,0.7376858813570075,0.9468421011593242,0.8931597551155206,-0.8795451885646088,0.29094609637237756,0.46878996192806954,-0.18172728811593508,-0.6838895536988006,-0.3827052053927371,0.33438139622193797,-0.7553459504688489,0.3502541732181519,-0.41960166540949007,0.7106647864801405,0.2562304589942177,0.3844451157387576,-0.8672370002723042],[0.6291414107834594,-0.3434114026464459,-0.11226657380955696,0.8016221152065564,0.604999445270705,0.07581745979060206,-0.48164180736855666,-0.6188787691058191,-0.7462563406632035,0.4667788933760364,0.37039894727484346,-0.9175592706663889,-0.8921204611944975,0.9430385333112956,0.9305174184715561,0.45485935131480626,-0.7302047457895091,-0.9938211436935316,0.08280069488555641,0.6142391239877452,-0.9120897375356329,0.40733799702033147,-0.47974996815926496,-0.6022332872803089,0.4806099674105173,-0.014412241456406294,0.056767374960935646,0.45363301317478566,0.6550195490044026,0.8658036920516017,-0.9996701546635061,-0.6334488147876625,-0.42498520391506034,-0.2630783532123766,0.2433394814197507,0.8350199802454084,-0.8097727656842864,0.474464434154134,0.9485909724497046,0.31808321620947555,-0.12408371615079616,-0.5398507022793815,0.4395607044541774,-0.06931177011686174,0.03622707840434458,0.9246669422764275,0.635242756047391,0.42126174158092455,0.8701444584789693,0.8208093846624596,0.37517669764708805,-0.473424949057746,-0.5886501982934014,-0.8113206674897733,-0.9798587837419219,-0.24780088983488247,0.42404173284104996,-0.8530889240043653,0.1452438110195009,0.5716577933288634,0.8159152220437786,0.3698463334828639,-0.9484005536439266,0.03127269947655331,0.46659970772962356,0.20009437053511592,0.6475611967248585,0.16565683090799266,0.04441378243975902,0.2043515612371689,-0.753327550504792,-0.5996996739289933,-0.7514031425101251,-0.7695547207917701,-0.18830117247938682,-0.9740990521725204,0.8215765061965254,0.6998292688642223,-0.376026799890661,-0.3983535070471462,-0.4313474351647306,-0.48420176986903063,0.6658980606873044,0.8054507140582794,-0.06301494580251354,-0.05638683044728143,-0.65072993967495,0.1005538766787959,-0.8719515972283705,-0.27950535897095863,-0.40721547619002885,-0.32986426125762125,0.9609527823564157,0.20765586869179797,0.05330589431837507,-0.5858478357111445,-0.8500775552459836,-0.2836776409055579,0.9934951433701185,0.8610129137230491,-0.3279276276578016,-0.2753419465559219,0.8338972132624647,-0.9998499823521807,-0.43923918742604573,-0.00018519606984157555,0.8130845497284682,-0.7533523143708707,-0.03498875654125877,0.12694092737125007,0.12783932683665955,0.9322533438693934,-0.20157292055295994,0.24094651489371577,0.8775108291280196,-0.2607934951386852,0.6204872271956174,0.02207197887778345,0.2713388701216246,0.20739822609545144,0.27394367596145397,0.642008743482789,-0.004998781803193575,0.04242817236883645,-0.7705461075124906,-0.37167882475316727,0.500901152552901,-0.9826650079952157],[0.25724442627577204,0.7816749011246145,0.31486200596263725,-0.9187756444857114,-0.17752747198998686,0.7409974156597723,0.5371187017956045,0.9148568771209917,0.7287909408728579,0.08858613191364384,0.8816065478655672,-0.11266708329851394,-0.6708626059989278,0.44898954812956093,0.8885406703546888,-0.9985380408067643,-0.9265071189366911,-0.30805785506821515,0.5916009256872841,0.37965057568798377,-0.16831026963424667,0.31677785096517086,0.7287568988850466,0.4880052107366202,0.5615757458352482,0.25019616543655143,0.24672481066320873,0.4389740851910291,0.4699283103526879,-0.1924837859984403,0.9852087039019106,-0.5143925434453722,0.872017057744052,0.040434945093883456,-0.30057963332303084,0.645490855282417,-0.782945794055451,-0.4174243153939441,0.6942740929913767,0.9576593992357381,-0.20214583519776763,0.4722388972320115,0.6545403764719333,-0.002034498124725337,0.9808823039897501,0.7310315861041043,-0.750533405771084,-0.7394844678335184,0.8006521911683582,0.8641693770361598,0.6991345556825339,-0.1709573438281109,-0.19524380036944167,0.5374761387457221,0.585465535840759,-0.4414195138267867,0.2994487631110714,0.9245281941116019,-0.7177541177602735,0.9639699693089769,-0.9391964966678619,-0.4025805833433169,-0.7250858995045169,-0.45016302851317613,0.476682317597966,-0.7657265126976953,0.16584064094715267,0.072425840891023,-0.3223106495721022,0.588510722467315,0.1991070617160522,0.861704190736637,-0.7218658598597585,-0.5464513052823463,0.7910480020647437,0.770061819502383,0.01724153063085221,0.42374804000622746,-0.9871855946757555,-0.6075969525547418,-0.6591364659684231,-0.3920269264918954,-0.5679802983337814,-0.574387866008679,0.7879797672861801,0.07365873679187263,0.9176089201542799,-0.40018897412011634,0.16259931915908044,-0.9689010834514029,-0.02435587721185062,0.7091017947478531,-0.37269422599566804,-0.8326012570223735,0.9311165665534262,-0.6708790448961053,-0.24519855202352692,-0.012847935383326625,0.7667222626730346,0.023813609183363393,-0.5079406485409605,-0.4934808963091648,0.004368185008977621,0.43449295030422674,0.4231657988018358,0.023012491946508007,0.5895790233588141,-0.4440647325183438,0.779801796555641,-0.7566479175104024,0.31717334216636983,-0.8950879317982747,0.5768230640410841,0.6297501565477543,-0.3731484772672713,0.6893903674832005,0.7601946672212712,0.8900548772546355,-0.7987796902113276,0.36840157423216113,-0.28129281515751314,-0.3147714290080139,-0.6504241341559245,-0.9511277180681299,-0.6796625140155259,-0.10814066854428872,-0.10123278121165047,-0.6771470813220248],[0.2879162126152688,0.5176408745356693,-0.015148276218992729,0.5068066949555281,-0.13679540116462707,-0.6310839357914062,-0.4900149571192183,0.38026246337001246,0.7342325792700384,0.6070416338528923,-0.7946985492964072,-0.2937643372052712,0.5252829225995241,-0.8104766226232905,0.15409603363021707,-0.33916743212948064,-0.7096294122534781,-0.7302204463575812,0.27373916230247586,-0.8657300173535085,-0.6205183277252051,0.31918482175182894,0.8754681317972408,-0.04466790722573499,0.8756588941085852,-0.38256514672126984,-0.7821770091486544,-0.38254789030419856,0.9271306508032067,0.7597518156209457,0.24571292108913867,0.16152295435255137,0.7966327855318613,0.9413805142836407,0.9910682902818788,-0.9838502652147201,-0.348152031191147,0.5907321181951304,-0.8151282317099309,-0.11431635418275055,0.9030970962380072,-0.6876580032970865,0.8876036406097418,0.2567534694839366,-0.4285228563901977,-0.39612941985987016,-0.22271835998418532,0.8356730315792424,0.10031801581621846,-0.26718737734662,0.15633451819977906,0.6609220719450306,0.49652358133994556,-0.9680199935259979,-0.7681117911817719,0.9960841967584677,0.5052070250104221,0.36437511653566523,-0.0919730798092937,0.5280066970396557,-0.2628742076916639,-0.5168062933251958,0.05650801262135996,0.1648365917572543,0.5296632549206408,0.044037898656897,-0.3980651010227476,-0.6386720425511103,0.3561433157776597,0.1731845039489055,0.6082297304286366,0.9750015400649803,0.040295273209359994,-0.5781845753574233,-0.3757591875441475,-0.5446342220503999,0.43409037458367217,0.9789833191250912,-0.40678912654541444,0.7418302110483266,0.7037616756439906,-0.13823371887061175,0.956425467057435,0.6254325977530171,0.9303624000018242,0.6194396317675328,-0.02499693407446646,-0.5671388576422078,-0.777967485880366,-0.7740633054010984,0.7163249439899837,-0.39153675257426146,0.1361625145535006,-0.7371221291140755,0.07127903868557905,0.42022621611896405,0.7093056630011845,-0.9537935106432116,0.5227571944796086,-0.31320563526021794,-0.12032830324461719,0.7384489763810795,0.8857376320312098,0.20345917361006127,0.9028649263200672,-0.5567067128013634,0.8827462263300805,0.4248278078412058,-0.876260695619886,-0.8450665243926576,0.1160675958507913,0.2885487910532609,-0.389540554865631,-0.2980272073031478,0.06824555949816369,0.9608745750386258,-0.8576367167934944,-0.7000501573384166,-0.6152397822814135,-0.7850225322529254,-0.04090176146061397,0.02344366405633691,0.2853550612694473,0.9531192176252006,-0.5882830023374099,0.4587820555926221,-0.04222618542374912,-0.4030653378064013],[0.21585813043087643,0.73627158217981,-0.9817094079220554,-0.7654009067185759,0.06895804817104167,-0.21683447567279002,0.682610110194926,-0.762612350745441,0.1276015984858747,-0.027920683186420714,-0.3803411049585126,0.18081346283292543,-0.744333515815935,-0.17256675141879008,-0.4826369032892526,-0.0037574101152288986,-0.30960841403650674,-0.45464445281106425,-0.5088304064276634,0.9808281252346243,-0.7032078122459349,-0.33786466678120264,-0.5535268557905333,0.5227647572405429,-0.6140729618704241,-0.7651052433430177,-0.2995488798749657,0.9186424321674609,-0.9300504306662816,-0.09724600121285087,0.575196180586437,-0.7384718206367817,0.42239558836213975,-0.39111139437774733,-0.5676689125931065,-0.6221692538391461,-0.17708666704527665,-0.6457840079446149,0.14845451528533582,0.974655744448025,0.9371014123591765,0.5767920109702984,0.7102677182131403,-0.7924277980938861,-0.258985801532293,-0.16971775432117675,0.416444113759322,-0.19453786407787188,-0.295144353319007,-0.0987982875623894,-0.48495506258244925,0.7592513739237536,-0.6557140692063381,-0.8286733164444866,0.6775433460637807,0.017325879507972708,-0.9847852750423991,-0.012716966778788752,-0.46725021711096426,-0.9031895456489702,-0.770162601894262,-0.7007811860992783,-0.7637712390273206,0.15524396802688556,-0.46595853144217547,0.8421933502868852,-0.4697148765476191,-0.29698051041927576,0.6973447058378448,0.6591304167466132,0.5845799023854896,-0.7546883636858164,0.8296205761008624,0.7809184236351252,0.4220222577742141,0.9286799198389446,0.030940235891308454,0.07703688377520468,-0.4443353967983872,-0.7273883827871845,-0.5461957581027845,-0.7945782050265033,0.6158632055483515,-0.43071010454497616,0.026827346548597975,-0.6312554190104855,-0.7706552483010365,0.1961078108377583,-0.321632909373045,0.915152112724257,-0.13232135889939634,0.5217607811433826,-0.25714805879647784,-0.438357550114707,-0.5421175481527465,0.6180629565122033,0.8376739312313921,-0.9995124527761579,0.9185321756430402,0.9073333969498165,-0.8349999108290438,-0.9388020561672139,-0.6488603123034924,0.9894143807522564,-0.6065468213016711,0.16755275629781563,0.006738530041394464,-0.7722129772402844,-0.6417211916979171,-0.14914490651436685,-0.9742602220525678,0.2644057613317701,0.8351559949714251,0.1592994516474051,0.750520382844881,0.7358106975483159,0.968577566014128,-0.5825668383550289,-0.2706394804865171,-0.8287645040768596,-0.028802053547925643,-0.9350131689761354,0.04498968756894217,0.28267004899115533,0.6436988500975658,-0.5419964802924495,0.30290834427254487,-0.10135378059189692],[-0.47528408704840786,-0.1981133435008895,-0.8629584434637632,0.30128323505407884,0.11647387708584067,-0.17896857450889803,-0.5856733307425213,-0.7509378737443497,0.8078484092498803,-0.5287868857794993,-0.7083451645252963,0.7670131391351864,0.4245326087766925,-0.8035286414980187,-0.3515442437591827,0.42687621426506395,0.7512114270789869,-0.387475644739937,0.05011470076470115,0.7685822819915993,0.38151263221020226,-0.6504875049068051,-0.17291667534859223,0.25347578027245343,-0.29289094771621604,0.5976566627195765,-0.4380877156530798,-0.5561478358195548,0.8640222008186984,0.36395047979218087,-0.8274384188810544,-0.21783020305672318,0.1490181868069571,-0.1169254656904759,-0.05093763697354614,-0.8030609772636359,-0.14733401616832964,-0.11543102456385723,-0.6556818175275125,0.5853376792668801,-0.37787749076879806,-0.5775218398542148,-0.5512570079086481,-0.17427570706362805,-0.09964124190314694,-0.7773572950338448,0.94270449068435,0.9267915772993931,-0.699084922630888,0.38701461910306856,0.48378112623094505,0.044275729336573644,-0.8999807417087764,0.28813792291342755,0.5395528942504226,-0.5713746211152735,0.44599284182746923,0.24688595120130197,-0.5828780392464756,0.7849748465403983,-0.5218746969511792,-0.5654494720776588,0.20729469652326338,0.43645815836066193,-0.8030045895025129,-0.6162494770177678,0.6761248759074696,0.235861195981643,0.2221321214025085,0.13458775611394103,-0.32186713731601024,0.6329192254967926,-0.7462023026992679,-0.15672661990153625,0.6420299597855834,0.16800068103806787,0.06734901839493546,0.7911165493527736,0.4372026463841254,-0.052012612181190354,-0.16625450460232893,-0.5438619256138126,0.7511935997184309,0.7931907104807743,0.6804665871942215,0.8258856181384531,0.7534319208559213,0.05979818089294997,-0.23608486520182148,-0.7953306867635757,0.9601138501294277,-0.6369381361965059,-0.8805094500967106,0.15586001273657057,-0.33537467007272914,0.6973081624286488,-0.5966717597576048,0.555505113676297,-0.6203206218331381,-0.7812533657974168,-0.6222406262745073,0.13381620489492052,-0.8072180702714169,0.4186971503464918,0.4655346945544192,0.7156933249402495,-0.8207044167278454,0.9700180226205948,-0.8144529297433147,-0.6516889576939309,0.3126065980740651,-0.2257250817889327,-0.12977112929837098,-0.13647474931350145,-0.139087393409546,-0.17001146962056635,0.32617490274456173,0.07662624966240084,-0.8534294108465204,0.6024978240012693,-0.39723053823010823,0.07180236912246274,0.5249917004818427,0.24507840021976857,-0.8827942458733213,0.02407631553185019,-0.254336961535401,-0.5719681920160955],[-0.3898652843140402,0.9679194293178508,-0.619986707402632,0.06809022156965105,0.9665782832875929,0.2497543636261872,-0.021217717361036614,-0.7095200055859525,0.9457760506877897,0.8450894317147588,0.5929847458371296,-0.7684036328160679,-0.7566978806246265,0.5743496820754983,0.7262527290822494,-0.021338470719387326,0.58750758303733,0.21842344796818813,0.8707360502028072,0.5926590191445484,-0.98776772434898,-0.3852810439419887,-0.08036332867847551,-0.40859682601178626,0.9660682561432523,-0.27970808927522195,-0.3964381004143307,-0.341919280746223,-0.7028395742959248,-0.5473045038433484,0.3381528261734399,0.8656476225726197,0.6271078184452312,0.1986323373232053,0.8953796114388684,0.1934352206617742,-0.15103676055007842,-0.6149832359566754,0.8444812323107262,-0.9653014391468757,-0.8100347032128481,0.25583527256379845,-0.6643301483576556,-0.5368731953485433,0.43971687047482355,-0.24332720956545506,0.8572659572421282,-0.4724323113137354,-0.3957067320628467,0.5383636795730211,0.34594761891657844,0.9383597641169241,0.43337799453822234,0.019280266090153875,0.450698315488403,0.07795223695475051,-0.4433119028916548,-0.7501207178491931,-0.3353557461251939,-0.3025202056779257,-0.7464273176054776,0.1252634984028369,-0.5504936663741964,-0.19116665619584428,-0.08020357388924149,0.6301182517791151,-0.8817756701077939,0.5312936495219778,-0.022658029585007622,0.3151540567132314,0.5381471077045816,-0.9338386331839477,-0.05289123594086398,-0.45316413208812034,0.4469782004134766,-0.3597633632707773,-0.9342052091876947,-0.1694390154150207,0.6323324924034839,-0.747853998027249,-0.0912071610481493,-0.38368194531674926,0.257240305231627,0.9607956732005616,-0.33598320330700515,-0.0823355644821595,-0.3425376504127875,0.5114039793324103,-0.2535471826554372,0.7462700355153145,-0.09234660260840566,0.8239735331228228,-0.6877709555359612,0.5885480221843522,-0.7827079343357912,-0.7756790492184813,-0.6697452637396282,-0.2955971956146535,-0.7771868951277798,-0.4876936124772726,-0.880420796795718,0.47702937084149033,-0.879217568035515,-0.2246591372986939,0.15980620173515625,-0.23326751083396613,-0.24484546315466327,-0.7026782159858675,-0.849461552745923,-0.43689351187781367,-0.5964156172537933,-0.7329803396527399,0.27823599700814894,-0.7306373943074598,-0.24920144057215254,-0.8287270953573618,-0.7557104731831414,0.7709309677934038,-0.4120933307853132,-0.6191814075548903,-0.3443101525502974,-0.6620035075191402,-0.060478294450019066,-0.3432030348501409,-0.7810354930663514,-0.9302587996681535,-0.7188898639967762,0.721836835139138],[-0.1828785605237666,-0.6550959547225332,0.003874184507508538,0.8266335552593627,-0.7103797717495144,0.21827708959776126,0.9944319052444899,-0.8313581581964737,-0.25766767749810393,-0.13748204784643248,0.22382293956552934,0.35785995701197715,0.5545463910969508,0.5141253497143758,-0.26237752105194123,0.5169648993941067,-0.2545301682713603,0.30990175481914384,-0.37023744765045796,-0.3842726268403387,0.018672456467533127,0.7859341281832304,0.8249070878636524,0.10801277328286196,0.5861396920297113,0.40902644061146076,-0.5653372872946325,0.41816070803412364,0.10914419887509808,0.4259409514997621,-0.6591527632079255,-0.17698008341804838,-0.8650403071392108,-0.22444272983928526,-0.3392563626869849,0.7133031318426166,0.7067511547606053,0.5921347623315145,0.5791278092658101,0.5853995104710188,0.5609765186479316,-0.7405915441346687,-0.4918137731415453,-0.6686059136295615,-0.22903601840735854,0.5389684204579519,-0.929615834897527,-0.9208950701837066,0.15326676714660237,-0.006530802050794593,0.47894676665756886,-0.22668620464372036,-0.21682587423594324,0.06582870730677226,0.90918411031203,0.9927231388899069,-0.6934489894612887,0.9469637824584975,0.38221556468450535,0.39989721349822926,0.5053872895260088,0.0473119029558835,-0.5468948949203678,-0.40488454672248286,-0.8269595890507897,-0.657963113071317,-0.9714412690231895,-0.6363692818762074,-0.6697961511299866,-0.5773020650137668,0.9156460925533698,0.7765813858305184,0.8372315768527703,0.23480388782038886,-0.01661425859903609,-0.8797877123277438,-0.48124924464319174,0.6394747809708634,0.35218266490013783,-0.037707456829472186,-0.8090183126610344,0.528522490193047,0.46073445608151586,0.9075722577485064,0.49220407656003995,-0.7045927894593302,-0.06209132724359834,0.2650824882748153,-0.20502717362453904,0.6410908729821831,0.8770734292643225,-0.6529563237490412,0.16249774003611894,-0.9707073710953893,0.04498899523204036,0.8590263340681257,0.6220429619270336,-0.04291350274025385,-0.9050303893838956,-0.3775088820990631,0.443907167702956,-0.15197209347254392,0.35968220066586865,0.9169669957980973,0.5204303847307934,-0.3695389191270495,0.6032502084674567,0.5674393792480479,-0.5282317397418301,0.348222258821723,0.11056462236352127,0.4758542574264315,-0.8581590857253094,0.6132961500634224,0.24830022860575918,0.2101765506695379,0.24631615318459854,-0.9506982479163879,0.7857192981285297,0.18317603988753617,-0.214354145830028,-0.025597329324940965,-0.7189825815767914,-0.6655547076432959,0.029292663575789746,-0.7640304201385362,0.8348891100765947,0.1693093042134428],[0.6884834621583109,-0.33915966266884645,0.6497802968965445,0.49343589391915965,-0.44440756531580416,0.24019590879742014,-0.8436300319173795,0.22536535981820438,-0.7710652401707367,0.8445532883993274,0.26364906013959577,0.8873079597805134,0.5223820473073988,0.564070041638888,-0.4392073692894385,-0.40074043149751293,-0.5488921697724296,-0.9264602316655242,-0.6052655074699749,-0.009926397180167967,0.6479094099254508,-0.9887990719690345,0.19171846657448977,0.49873356850638406,0.24550317479642358,-0.6488630074903354,0.3233424055191607,-0.6108896267704464,-0.7490985835526733,-0.7040942137989978,-0.11922170690118628,0.24704927486170747,-0.9261462549019688,0.31330338620550124,-0.502273872950439,-0.536256923301099,0.1110031780060119,0.5210916358252109,-0.4839034299058458,-0.545395166652983,-0.622075878392579,-0.8063755845429619,-0.10675496136549167,-0.8791209668788857,0.707193296256734,0.2232195281849898,0.14591546056220728,0.7943080025580795,0.7543876258725837,-0.7755513583961988,0.31112050808878466,0.5379264121495984,0.9162095396468517,-0.4453689756341739,0.4425982062412115,-0.21691843525626386,-0.8275868520601439,-0.4098277732532185,0.12804631448429826,0.07595740308537913,-0.01570149847002633,-0.22073820595277427,0.9585845660377872,-0.45313667437106897,0.904101546345343,-0.5848976115110038,0.9822415055602252,0.015189071268018717,-0.9808487989378085,0.09083967618271882,0.7342952772112725,-0.4998582870227004,0.8802518256690952,-0.3883283573647309,-0.34853978907244576,0.7664718761476881,0.8980571748297546,0.5111225195766886,0.09708612970943076,0.805925978003629,0.5625176466690094,-0.08287231553160979,-0.7921518913466763,-0.8433851887406718,-0.7409270887414832,0.8377114933363017,-0.009758271540192265,-0.49336257791662574,0.34951157779549824,0.1821594970024254,0.46585939030684576,0.2967848556125865,0.10214170658892985,0.7526732562219232,0.767000162516204,-0.6249410702212881,-0.6491544977303398,-0.7958622215419691,0.6175152682324816,0.4706906310486394,-0.5622391554694794,-0.8300251038314024,0.862743961020066,0.49149403419088866,-0.2850553536587306,-0.9987463589635948,-0.08898259767786998,-0.17025602352645652,0.5450053231854262,0.7397978151648286,-0.36356824270728305,-0.8375620952196743,0.32647499733689256,0.07071195887732373,-0.04221516357389876,-0.008248946445347016,-0.4127811977238234,-0.431206704665126,-0.6646746190120654,0.9849328338583874,-0.5417648899992911,-0.2084457658338119,0.6130426024659703,0.2245914624244174,0.9753576471626204,-0.15793836484108037,0.888800017310218,-0.9181167984323553],[0.0077303618358239845,-0.19541077422680808,0.0340651273234871,-0.3823759176049626,-0.6224851034185848,0.45668833674424536,0.44447546998806575,0.31944997755820426,0.5291105377964354,-0.6096547629924398,-0.8180170061068996,-0.2618053881573654,0.15701685957277456,-0.47664391844539566,-0.5051561420564286,0.5779962877443852,0.9396776191261433,-0.48482777626277596,0.38862732849337145,-0.5127383423717433,0.7364794345714398,-0.8259791473931979,0.05310320640921762,0.6041454467405474,0.39352373924630046,0.9318929989521769,-0.1364128019944948,-0.7646914726130425,0.8465354650520116,-0.37887641765173363,-0.03723334827140268,0.8538132335195661,-0.01955761940169598,-0.33261714983384283,-0.4996075016948618,0.5837018264505334,0.05046561190787702,0.15012168147347782,-0.6796438662637247,0.22138869642321168,0.6976596970969493,0.4647525151235674,-0.8186309046963378,-0.8007003753097286,-0.7570412495087706,0.6693727414280073,-0.2944716956704956,0.9294623174250012,-0.1002598052274839,-0.9927108799352464,-0.09220182747219452,-0.27533799203032605,-0.4661251925078891,-0.60424458260945,0.6697763629386599,-0.6660521066750897,-0.6233927168129567,-0.6623936312378118,-0.19904526455875793,0.0007989584495524671,0.8287377649239911,-0.05059481829035217,-0.12809468312257644,-0.9120325860261433,0.4404585327345558,-0.644183762847246,-0.6554843082210915,0.047635715295325065,0.9157904672405008,-0.4019056435061279,0.9187002421896175,0.6123711872415925,-0.4937328047956324,-0.34534902893307295,0.10952888510920444,0.22020922877261162,-0.004468781781149511,0.3985945279165086,-0.8312876456392966,-0.4003681802493091,-0.30405895007360817,0.9944586722106175,0.5361472621870642,0.5285864927544428,0.8739187169975222,0.732208959730946,0.3920135885291871,0.46892203520004605,0.2130016903999452,-0.15314546915085958,-0.16890154565584492,-0.6938231592010924,0.6623882500185692,0.22011746687383482,0.930951301709434,0.8473998159093867,0.4405556035451601,0.20931071683497326,0.25593786936048923,-0.5161837279302954,0.361830691651744,-0.8057242258940671,-0.8475046270474176,-0.1838075789020015,0.07171891753080684,0.4297509666251025,-0.35334076262637115,0.5677228577722646,-0.79721857578565,0.5310128877258853,0.19544082579605182,-0.42064125448079226,-0.8879830082256908,-0.12543555838546827,0.8714906341061361,0.2831859470374507,-0.38939813465779904,0.23269730903064856,-0.19390331731707988,-0.21242716807021078,-0.17732580206166348,0.6292348179790397,0.12560307375078006,0.7164641275962176,-0.09478064712075773,-0.5912733542145563,0.500210898368934,0.7893733391266895],[0.06544656670502413,-0.11623625656103309,0.7533640377519835,-0.19081420764436463,0.1385760214392857,-0.2578596870929457,0.4867530080689797,0.3691015356920526,0.24061406638320615,0.38171197044954464,0.4230152807198724,-0.8690452404073363,-0.9280026358890638,-0.2175258434864964,-0.24870975713498078,-0.06804403783651347,0.5361233241086476,0.8443996488692334,0.007774395676874102,0.49689370840031977,-0.24212943377485585,-0.290906579170773,-0.18513791498293264,0.10560016307521658,-0.2840193126961139,-0.43310000230693246,-0.8337246246860233,0.12483223220651385,0.8892346471160566,0.8697043672192799,-0.1475319803741617,-0.9990239321670562,0.14213014511798905,-0.1714154296472048,0.8570885962221566,-0.7752699151599565,-0.3793247658542247,-0.1694941661350613,0.3190566846943321,-0.4762204816226743,0.678016915233165,-0.9287932986441279,0.6996925104901615,-0.09501058141947749,0.003579443498850532,0.5714461517115261,0.9890261206020403,-0.7706025643143195,-0.7032399442025028,0.29489709013990173,0.3555778280905111,0.9903853619070269,0.6634515066589295,0.23339086192973135,-0.5580373329733084,-0.16301288581883244,-0.9061047776690196,-0.7564158260833229,-0.5624616917984606,0.28778070131793676,-0.4841218987601241,-0.28603846595355975,0.1008559782511651,0.7787753942284097,0.025031533661620475,-0.6591212042540018,-0.4375057671619855,0.8586795717319511,-0.24722317402072402,0.21764122292943688,-0.20241345505750075,-0.4513139917348796,-0.38263015080429996,-0.7824314387023579,-0.9956009569323006,-0.5923633988999997,0.8578709021479451,-0.7053839098667787,-0.2767258872322853,0.07498679227965521,0.3702426609593237,-0.8806127168796187,-0.6528127348763557,0.8693426212387245,0.31371977523157746,0.8944233946889204,-0.6289711148816335,-0.7829072799218604,0.3698525741547234,0.7104029802959553,0.074524120422087,-0.36716196550265257,-0.8037894780830188,0.2587844752333144,-0.7844292786957312,0.557480423573699,0.49454775473220836,0.6736271580170619,-0.06991501539886813,0.32803410024125657,0.35820575377151287,0.845689571153134,0.8169959341619881,0.6847153571896976,0.5591416950661219,-0.34620713074454423,-0.40829803459093306,0.16606676846017154,-0.6932459080387634,0.07203223425833527,0.03062248997905548,0.23540761409494837,0.061043236320756256,0.2954196065937933,-0.6551310519984077,-0.33127477826228446,-0.4044684829325811,-0.8755331940874058,0.09252080368999627,-0.7565607142041872,-0.10956144620637032,-0.47998038374702734,0.5251496067525607,0.6430974263393141,0.2832829473075946,0.8423602082319106,0.2662221873388817,-0.8618682009407146],[0.5971558358681481,-0.9416474770096506,-0.5255840863779273,0.7287383318866587,0.8902146341400863,0.7801222271363824,0.14373507654570128,-0.9408756158861113,0.8202956861321435,0.451835369493075,0.7860848194644972,-0.4950764187476919,0.6027693376228946,-0.7891160187442785,-0.4612631950738142,-0.32675812238298163,0.7692296270714418,-0.743269178649564,-0.8151884267388572,-0.8393771468716853,-0.793507133453748,-0.5358409823037948,0.36380482229459954,-0.07818256039280946,-0.6345491616978172,-0.7471539738435462,-0.7809656392496171,-0.2639269634199004,-0.06469829621913115,-0.6470831093564884,-0.42405010206848237,-0.27546990977843766,0.7143299769103739,0.5184675443401696,0.5394532525967191,-0.45732114100190135,-0.3642759163880891,0.8764540644317738,-0.12474145166176687,0.34764159415729545,0.6503816611995556,-0.20422379447592087,-0.09928943133631307,0.5813347915452773,-0.9747270049328516,0.3286927918527207,-0.36062865480989337,0.7501694519235997,0.8861155831303302,-0.2476983791467835,-0.9028420980224743,-0.23747951010060997,0.3734025277625792,0.09773378897071705,0.46100508144835217,-0.9316696295538733,0.4388666056954851,-0.45780845238604106,-0.797117691217939,0.05805250456298294,-0.3172939719351269,0.639973852854987,0.2631899270607565,-0.08727605653560522,0.48942161903084336,-0.49098436760906194,0.18548292525368426,0.03158500171038425,-0.43263802400305673,0.21184429346946043,-0.9975300241984082,-0.334023429624577,0.6131107408698044,0.2597872955264753,-0.9411734788735993,-0.1009315852605066,-0.5369304526150882,0.2734573663877329,0.7898388266070477,-0.2564257806421715,0.7225517761115237,-0.5675200384633192,0.3430220264746078,0.03196488077624804,-0.11913158061978901,-0.046342817690508076,-0.8856860842238956,-0.2399614527308349,-0.40475690827949995,0.2656648682178986,-0.06557118993147792,-0.07023796065535048,0.6995069396611913,0.4189627080543896,-0.8435889124132685,0.3804427887129307,-0.3420827277303329,0.8714841700512963,0.05239177568565623,-0.03969556673449537,0.7093041239962758,-0.6265588737789296,-0.09100101435817609,0.8152194135286133,-0.31233378407221046,-0.28216927405198144,-0.08372066502397635,-0.19166196503713762,0.6833530984497298,-0.7180645374857098,-0.3715922019687541,-0.74600061871208,0.947878870132288,-0.17446166683228825,0.10569623493200941,0.24640482540589348,-0.6530379960166279,-0.3991392131600371,0.9916275652842002,0.7757663843333029,0.5123491213056564,-0.1435253407306143,0.6534923116337381,0.5174070915426205,-0.7528848928344751,-0.075012783657608,0.24240033179477138,0.37012716628578834],[-0.1322586685344882,-0.3532088713009025,0.15044393474949636,0.09795627814071706,0.23453547064869196,-0.829816240880211,0.05363446784673043,-0.8519278756751316,0.28953535131166785,-0.8569483812452454,-0.8147703064232337,-0.9614404855139909,0.14283331198463634,-0.00002695687125431334,0.19106394086983802,0.0445051520717894,-0.6462296620515453,0.031151564178693913,0.36312445105163516,-0.4320684409036819,-0.5963226796022547,0.1964323102967913,0.49397553792970816,0.24931049114314918,-0.5878789734780323,0.31215152598574236,-0.6048960242215453,0.8600179860124308,-0.15284408022280216,-0.27808255523903247,0.06279391422589442,0.918500495552911,-0.6740966282791088,-0.8875757724475799,-0.5945463064861731,-0.6489786865062688,0.4702248741489059,-0.2306501054079464,0.39693962433869223,0.9499815078591023,0.5067164580868586,0.03817824298644923,-0.7460720770344842,0.40265456469319183,0.4787199098013022,-0.6094470938294201,-0.2596956859606352,0.29188692161182783,0.883580685656435,0.5584087608855999,0.6998442219594774,0.6927770961801729,0.37856419793650176,0.1892166127512407,0.6841792361585699,-0.5078636442263258,0.22406110532889656,-0.11875319696399944,-0.7954994069479371,-0.9541969506487578,-0.8166382729568489,-0.7716246024248217,-0.09774638018645065,-0.6328408082369017,0.5425116949927393,-0.34373979240518815,0.050322372097244106,-0.22418068910347966,-0.9332332949403803,0.3807528072614079,0.34866227986527987,0.9305633109301732,0.7862743481029675,0.20832551112333175,-0.42283860165026765,-0.7089858341032327,0.7094186440754879,-0.8180313655795934,0.4352155804220055,0.5888652031842658,0.06928784823840606,-0.05470209110555291,-0.7562386466104838,-0.809521726551675,-0.5345418247580409,-0.3872763530727368,0.17311669133647434,-0.955993078063573,-0.05942407332806243,0.9405191892854399,-0.7561414608510395,-0.0310603288529816,0.033718438455170086,0.14469588722055726,-0.16627669026073577,-0.4923940206305484,0.6478249789949053,-0.2568887024559747,-0.2085399017350027,0.6659511166730789,-0.9052583726303169,0.4071820624400344,-0.08444637403127775,0.7978062160172223,-0.11094602791393027,-0.5606386670645298,-0.9496594387921138,0.5147384483889903,-0.3151033203475795,0.3674021765855773,-0.5818335600846833,0.371175979828011,-0.38731516635315044,-0.8778460818054332,0.5288531647111459,0.9488980621505307,-0.5477990883829689,-0.48054056294934044,0.4049758973974664,0.8651072616862951,-0.8533013447886335,-0.9059282285798469,0.5376779139571413,0.7381476452775408,-0.5799637787817145,0.9326075721132603,0.5944180959286383,0.4772680996543668],[-0.6053416551604791,0.9119017560156406,0.10980082206274733,0.57412270848941,-0.47371134512998725,-0.38812682244532004,-0.39534468958248015,-0.7337850451176662,0.5426857729057186,0.34870562096175584,-0.7948621105918372,-0.9128804231709329,0.4528541293270252,0.3900888240009952,-0.7781929116391448,0.6295594126980926,-0.9461742145628476,0.30507062712001987,-0.585395922916591,0.11478141500432493,0.5612950780997144,-0.8750976729040663,0.20088043337605543,0.3498133841539155,0.41868924020473,-0.5808203593275629,-0.2120234329019648,-0.825232172747677,0.8507519915179653,-0.2361786925255942,-0.2565106811452025,0.3707585126026891,0.18274414324508825,0.9980106214334163,0.8301612196727179,-0.09282740162453762,0.4956762867455067,-0.09754922100184094,-0.006223167309805211,-0.7631082297302707,-0.07264187136011624,-0.9372405553407464,-0.8416885407715482,-0.5264635919800862,0.27006488068231005,-0.8855085268163205,-0.749184561454616,-0.93154474187447,0.42994255480962673,0.491674197533879,-0.36063555938844427,-0.018055470341555413,0.9948540525813743,-0.2664459191479105,0.39619211660653386,0.028064681686224224,0.9969694556404223,-0.41828202085902144,0.2620633712109999,-0.9736313611273637,0.8691377130532196,-0.8427955402497935,0.09995323256881594,-0.3977151973460413,0.01266367846477845,0.5266490939585238,-0.09084304008811728,-0.9153905983789294,-0.7953670004470055,-0.23099252674519377,-0.05897705589254554,0.963898320687476,-0.6959824110414772,0.5396727737820111,0.8854078513366359,0.45896172959271464,0.685288432393993,0.9383433250562181,-0.7551952870265433,0.48447916290718473,0.6478101523178597,-0.2481947081949476,0.6703830710241643,-0.2051521918832142,-0.2993109123730613,0.5668062399773273,-0.1908672799863893,-0.5948022525347525,-0.6891298255259668,-0.8932659712441613,0.5744612927135775,0.40902845312346914,-0.5085370216470875,0.35934286010382976,0.10601463730095295,-0.6832544328225558,-0.51176507423969,0.5981163911452891,-0.6320239545058826,-0.03052787932174028,0.3406103522740447,-0.29555955934765477,0.5864569869006322,0.09734880225852849,-0.4789504731053018,-0.5864025828458017,-0.19632304983305793,0.6526074134102133,0.8795266048032049,-0.9992535811568426,0.8255011418944094,0.25138299511019047,-0.23282576500024077,-0.5286439705995751,-0.772842439197883,0.5429651996858715,-0.8617238797785969,0.15155581950038566,0.17628637168147376,-0.8600471955242297,-0.40556917632314127,0.7407391905941492,-0.4778219761115965,-0.05692368275510695,0.17609692765841523,0.6861638478388681,-0.626424080385978,0.1602371951436783],[0.7014189839028562,0.4383348758929968,-0.41138886658295704,-0.4766994912305931,-0.6326512028925904,-0.10890906050543014,0.33584249060346427,0.9882958646211057,0.6508690332172318,0.9167246979289843,0.08950975610808842,-0.5304728778881966,-0.960087496801167,-0.4405249386718064,-0.7069215979791978,-0.616073401380933,0.21524748909713853,0.7268204340427373,0.19104849377586008,-0.8702585564660852,-0.982962470805369,-0.25984920447622817,0.42277229026147833,-0.7183592098526155,-0.16345744948407237,0.9894576464780287,-0.3076636621866946,0.6573449848098871,-0.8531751522809106,0.39876953188749154,0.9805529011937433,-0.35016436982410615,-0.18184914415388453,-0.6694864457125971,-0.2995835888003089,0.5666895287279903,0.535354101447425,-0.7079919462701638,-0.05169869986014741,0.40191638028058674,-0.6220645600122334,-0.9857137291845481,0.3417998898315222,0.2799669998272982,0.895180842704113,-0.5888693300487664,-0.07052907314485823,0.2941763576590706,-0.7320156505273756,0.6438455925306141,0.7930001042999326,0.8571005921686115,-0.3703516669223206,0.9177215799541076,-0.747004919043053,0.4075630625041684,-0.9492067522022687,0.599755161038126,-0.3997329921319248,0.2827419298832081,0.8032188924744439,0.8531857533393048,-0.3012034608807106,-0.475565327213578,0.7932050669341697,-0.1686716189264874,-0.07197506020694866,-0.8057790411477699,-0.17111789611901607,-0.9623873419306088,0.6175675846030073,0.9353113267122088,0.9433722125379671,0.9325413818139361,0.9391129271911611,0.4110966709870585,0.6881089434849008,0.3716034770730874,0.6287437175651003,-0.9384802907258025,0.7363232694634163,0.39511010521673184,0.532028176179099,0.7812278484098036,-0.43270788385585757,0.819934948479585,-0.2915875540792099,0.6798420457376553,0.271174977313267,0.20611109944567807,0.524049084650082,0.14345538490782705,0.8279538421390364,-0.12026174335645368,0.8786341125272092,0.24308555162597645,0.9710591725499325,-0.9220785969495933,0.3585076876762676,0.09724375355778903,0.3967683152821295,-0.28611009724643566,0.4227895648357145,-0.5072595335949717,0.22499837535852318,-0.727961907486391,-0.6441448426266934,0.3580563317830696,0.7167566765969102,0.3536837211837107,0.31382210182872017,-0.8100881499885535,0.34959091818516397,0.8877948267431519,0.19821569040878706,-0.7411206131901742,0.317003445353935,0.35185578129057404,-0.6723140641042875,0.8178139666182078,0.244716737358061,0.6383996484766428,-0.825738929304098,0.1481552060256761,-0.21085726042032604,0.143162151435418,0.7103394043303373,0.10608979601414559],[-0.6662099327527469,0.7754003545664427,0.5390087930112244,0.8632581640330712,-0.3281809315810831,0.8977181455409822,-0.8413052753023627,-0.10683882919605492,0.8098767873560633,-0.6493329346352597,0.70311916240912,-0.03607601336766875,-0.34463059504883553,0.14300230364730293,-0.2793504295104692,-0.9182344654755696,-0.4127447442629699,0.4943745031764457,0.7485942888929891,-0.33512598809512695,0.47176403690735946,-0.9193986187493286,-0.963750511531029,-0.11405683742125605,0.1754712322133707,-0.8481380164906349,0.5985282121703328,0.9435769155395564,-0.006628321746737997,0.9307158786709637,-0.48356659655541656,0.9353030726679021,0.8109732108208283,0.15356359969943512,0.4692462966690696,-0.6022039918320614,0.46602832020797336,-0.22117916880933852,-0.5961544083183601,0.8062988680724144,0.3950125992568332,-0.5478571337733948,0.0069750129722303544,-0.9731223879812623,0.6262006573971419,-0.34185990937038624,-0.11118476218391171,0.7039981678643477,-0.28633513576397296,-0.8195341304829744,-0.12550023159204393,0.25564137568146483,-0.998575264900653,-0.976753331320209,-0.35400692541232326,0.7018631187651823,0.8705808363436378,-0.5218817762234715,-0.49487905168603974,-0.6102674294717114,-0.9830007939350611,0.37395249383947116,-0.46347022254027714,0.040617791143746196,-0.446886490013795,0.8344741818234405,-0.7145060214651286,0.8201498753418814,-0.5246880427275065,0.8273016337490986,-0.9618456160093751,0.16573028533044498,-0.68479012598283,0.29892702199993115,-0.07491281827766305,0.024043298325581386,-0.6382078914449811,0.9349861054693407,0.5337250139096124,-0.6335198752349898,0.551621738563379,0.32637642030714376,-0.1377471299377664,-0.7691396073342727,-0.9459796360294979,0.03371783732450728,-0.1824760221239201,-0.16795246141228004,-0.35061169229223244,-0.20974159848782237,-0.0650267520556953,-0.6591849702603854,-0.4156338369005279,0.5396575661281815,0.17877784789024864,0.48510429463821714,-0.5690272600242703,0.18016741323191576,0.5798520282466546,0.4896889586328259,0.23488975205508522,-0.27534180308330547,0.31850353186630875,0.7067111001257156,0.6149529316118216,-0.7271113678447334,0.510092347421575,-0.2661717113865507,-0.5259780331574586,0.5418645528037931,-0.6512466248268725,0.5785826212798184,-0.981118714676865,-0.3492120516406627,-0.7673373066829319,-0.2335907580707388,-0.8392321484806893,-0.43281675070685455,-0.8602728427778772,0.3898488583826274,-0.38696698711307276,0.6950292625907393,-0.28353274553714525,0.04027296978804551,-0.042562833271486245,-0.744331694514784,-0.5219699403884961,0.0378481512468416],[-0.26808270474473916,0.011889769035245967,0.0478144645540004,0.397515355978336,-0.7355683199982987,-0.170102742996044,-0.7345035358833134,-0.7911284110290415,0.6859063588012662,0.09853324190254131,-0.14122791698393078,0.5609808568688601,-0.7409923726115244,0.7491530753220428,0.9346045779941015,-0.34165637524667325,-0.2049999603268302,0.7350885439271178,0.19839042069787083,0.8557798596964641,0.18018876925676652,0.05305003801236152,-0.1342995394545483,0.9701802453262809,-0.15011191691773962,-0.3552235226343614,0.7508330963260761,0.7322054162999276,0.5312666973833315,0.9426058270754687,0.9235089548819009,0.07262243080408637,-0.7352014838799186,-0.8415538874315796,-0.09078591854156493,-0.0988155945054916,-0.7655519799288835,-0.8971631712076775,-0.013111314338540847,-0.2849766967838776,-0.8399208932231916,-0.10903926851681311,0.8471414075329426,0.6589575397005349,-0.8781262973917086,0.9441681974002964,0.10224629331779744,-0.9503947311150178,0.6504302901456889,-0.055110679684239994,-0.5206522713058581,-0.6528284132096551,-0.962774529491123,0.3898787544289324,0.23303185300547558,0.8210542839608233,0.9636327737052157,0.88097466493346,0.1248327280125372,-0.6346525304068806,-0.8086591153422658,-0.5429826579884847,-0.1295976479862071,0.476083145122816,-0.26007877683915215,-0.840172503723992,-0.7344750771792348,-0.1728324885630954,-0.945277252180394,-0.7580187669189855,-0.6414436468456666,0.6054226116799597,0.8064326824621062,-0.12523712394159792,-0.28352636122002806,-0.23864118398730816,0.5522995188404993,-0.016189054560985072,0.2569221632767509,0.7423807698315705,0.9042616905537104,-0.179235692347945,-0.4529925628262028,0.8419778547719869,0.7259978032095358,-0.8155892900878245,0.43522845204517346,-0.5284077689057389,-0.9352992357704561,0.9647803048825077,0.3064661174147789,0.32515153218072723,-0.8482894747043239,-0.918327054486044,0.7991680316368825,-0.9478293201278207,-0.6735847995913338,-0.6826548932305887,-0.16359342397296595,0.6368318969458278,0.12065491623942703,0.4060274112217088,-0.999647826446582,0.8161405975224398,-0.9090175363610449,-0.17993676512253254,0.008877554209594019,0.1731830876529774,0.28187363003000243,0.08515162166255608,0.410524065091753,-0.3357701275881071,0.778482983115512,0.47559734674874754,-0.8910248656920225,0.9008463443934025,0.34680875707644154,0.5374016978258005,-0.7326559654889642,0.03696076973738971,-0.4270475509269227,-0.672573099744737,0.26062049351374417,-0.7616270532130369,0.4028310461242539,0.5489575528579258,0.10725258289392636,-0.667719742526768],[0.851294582501567,-0.6621861899580606,-0.9452014917045819,-0.91195231315867,0.6800414286152596,-0.257653572679323,0.10391601287952401,0.4176055013931226,0.05609464749495108,-0.6441911617800753,0.061296074782602794,-0.902431128169815,-0.6967685495622116,-0.28982612514119976,-0.34194541177392623,0.19560784685536348,-0.9623060090340227,0.3924859753709715,0.2217055627941762,-0.40958768228247533,0.5916318890257526,-0.07644118794297605,0.3361199623395079,0.7543401730487169,0.03940846383788266,0.5080937541161257,0.8943186210599823,0.9334960899355902,-0.48579400572031517,-0.5700409335307244,0.6935347101976534,0.9499422491738232,0.07998989748185426,0.9773015874751476,0.6908243128613152,0.5547280407252473,0.6579327345302584,0.005201341019125616,0.11245887821670242,-0.8854067104433205,-0.5968278502245783,0.5922750312861071,0.05495778062934664,-0.6318896092900996,-0.9051287097413381,0.4227275134091659,0.24465072108741492,-0.5633022241201677,-0.183370384777366,0.9572703363897701,-0.13014717959757016,-0.6864394459921355,-0.347095480365873,-0.438625431764996,-0.8102027363003015,-0.05452837414728218,0.8436615616635654,-0.9413365200526653,0.23331417703859003,-0.5877408479301003,-0.5291828486064387,0.2712826615367334,0.4278508906703724,-0.06248876352047361,-0.9805235254963867,-0.5874171936715922,0.6987329445951784,0.3212544837030753,0.9384684332892157,-0.5231303840136428,-0.44688367807800566,0.7904764913029889,0.14295723230079282,-0.026259389629204932,0.6427223111665206,-0.6552470829078765,0.22062978881509765,0.8318254252327659,-0.37524346492503846,-0.6054394546014836,-0.9441648934867575,-0.9938903137913486,-0.23152326946831892,-0.005172750295863393,-0.72263378040447,-0.3965520967503742,0.8074592789393407,-0.2093096869545965,0.3255886002231525,0.5773755649305055,-0.44835033056437235,0.25808161736034196,0.0649839311225282,0.27148876858049853,0.07459110252289824,-0.192869727747927,0.20996766332733285,-0.3856436438449755,-0.2794338064371662,-0.3573283212835736,-0.4207530583804826,-0.6395975134809115,0.22261381075188846,0.6645593694737291,0.6610126423378528,0.29085864404516903,-0.8581704651278734,0.12619891807750694,-0.1280895994068434,-0.009269466201799137,0.9785679774056748,0.38926259736390967,0.8545356651152911,-0.8774293410579472,-0.004828748639805758,0.03193181767745901,-0.5500298224934341,-0.07043412725453635,0.03957854152999052,0.8850360216571738,0.6254352382900483,0.9936859692784685,0.31407140064132344,-0.08950416075096279,0.4706395495906288,-0.8563384842187254,0.030798207477679806,-0.7970632531657242],[-0.9675319977600894,-0.8209020036619514,-0.699120436711328,0.47509634588002214,-0.5709008416155146,0.012680173684505691,0.15041134776385356,-0.9382201891791886,0.9270743163438724,0.2527948320061404,-0.6492937485991053,-0.1520372860384538,-0.1882252543059384,0.2829864588855875,-0.6619589631140526,0.5281664793218366,-0.5517802081148568,-0.41815225926548183,0.10972376153095276,0.13994766204462983,0.6573818186984031,0.6268897339739024,0.3524092025438199,0.16657961334047133,-0.9705283306155881,-0.6864865065298882,-0.37185739693586917,0.43485244793329625,-0.2546216699806143,-0.4629840903825251,0.09127518841527427,-0.8913291045300287,0.8909527431139428,0.367844463845878,-0.8414690358587182,0.8116927123275441,-0.7313762689202532,-0.55873819560165,-0.7296618601155482,0.2790724752277376,-0.6817429230751464,0.6218081892802803,0.8449592172803488,0.3673189915934376,-0.8882720027756019,0.7124516486702048,0.2118030441131067,0.39032602233113445,-0.30972696330427674,0.30185381769790043,-0.9758441746790001,-0.9288719643161369,0.7976096604633767,-0.47203394514147456,0.6978688321717679,0.8399300445611497,0.826237751417273,0.8780628657186071,-0.08736380041923053,-0.6409565500210177,0.4446177720339288,0.6313976077878125,0.6264708178905247,-0.5642054245511279,-0.5315828357866721,0.8893116653989084,-0.1895311098165653,0.5099708433238237,-0.4948574568548234,0.8381286614450874,0.10868583401850684,-0.5077198039375799,-0.4515187360445163,-0.6241496838345573,0.0056128509466910614,0.15281293352687086,-0.8622287299634313,-0.00876238502563087,-0.2807391571503528,0.18370499378477967,0.4716898878171596,-0.8727327619285714,-0.8584857060451905,-0.014601727661591513,0.8903030953143407,0.990483413872107,0.11618805396446685,0.7872113908156899,0.1454341173121605,-0.5480752453884945,-0.39486595401756164,0.2232533851061982,-0.11736516536230446,-0.10362410311171466,0.3833704186161462,-0.8040048106813835,-0.9784268323791006,0.01654659574768802,0.5041589928427945,0.9104338760762891,-0.6931902329606177,-0.2594721752286444,-0.9291612153719175,0.6943497716184133,-0.679224475453923,0.3176276257838222,0.7578730614557903,-0.19668568371157558,-0.9797057670140161,0.06327804853523045,0.17114716637164418,-0.645868628807597,-0.3353757843634917,-0.9343181079291623,-0.43169298949696566,0.8584330737893058,-0.9719175442443602,-0.24135574998478915,-0.9815407816813821,-0.5164648059127088,0.2901237138455899,-0.32491485280191923,-0.5284618863949693,-0.031887318949028964,0.9005717556130901,0.20079056257987382,-0.5267760477001848,0.9576481558994823],[-0.02450009159386002,0.7591450751035278,-0.13136993855838863,0.0939376112588517,0.0962249122526182,0.7937048211926605,-0.9420579490143368,0.7795267712985992,-0.4834805906523183,-0.7878125933732658,0.9809823518508765,-0.3215405804049347,0.13814809454413468,-0.36465067122252237,-0.40805462816936733,-0.228112937561336,-0.1366450039230469,-0.4170138227711768,0.3916137825072774,-0.44786728012325616,0.41155148170097533,0.8578456144372679,0.5347237465260091,-0.9332065044865823,-0.6422606598679097,-0.13984960736563412,-0.7082220323142767,-0.007471277704482304,0.6514850194475832,0.11415752757829623,-0.01400954183017089,-0.48414496047307876,0.8408463698059594,-0.28431483997103557,0.7570527377739023,-0.904429398046664,-0.3147045272491298,-0.710718591831198,-0.008581818387580542,0.059484487694231314,-0.43962043581966603,-0.7204129677093485,0.3827411274579897,0.07722601922363825,0.701339728211815,-0.9027254492500196,-0.8179746705655393,0.391594898579104,-0.038784707028995946,0.24901336401797924,0.483774330615254,0.46256352373729226,0.2657822940450292,-0.046878202768677824,-0.12320903252913662,0.3243765580424367,-0.5399105135835296,0.8638466398447502,0.8800052164938315,-0.9858922837521897,-0.02930257019967053,0.8025127484171077,0.6785553563769084,0.011556020331168426,-0.7476428742896413,-0.8167560773441653,-0.06701550561907821,-0.45200341274725986,-0.5661301119618956,0.9441522465307062,0.9312835522501794,-0.04356789333770972,0.9564705590705016,0.02747604609262,-0.48270801088164283,-0.4585741686813589,-0.13196441694041505,-0.14065849547166764,-0.7723835307534486,-0.6079663490434721,-0.5708569624546698,0.12092014414598884,0.4861073668739806,0.05181852128655984,0.4303594595375031,0.63440931784645,0.7618246056025171,0.31926167708893627,-0.4696058146256106,-0.32581250180029,0.11492068741047623,-0.9281707428992056,0.8008036757440253,-0.965010497353741,-0.5946965549001244,0.39407155044018083,0.23174055239769342,-0.8852744645567723,-0.7682309678623838,-0.7051373560843504,-0.637825765360392,0.18855251943575935,-0.8380122048526824,-0.8425063459433333,-0.8801688976883375,-0.7601122498411681,-0.7463350956345931,-0.2246483492587923,-0.04709436741610573,0.3677557405414067,-0.5229083637166747,0.8643490335518687,-0.7163496046597262,-0.05397150685483232,0.929433951057048,-0.08349040135949748,-0.9352264185702712,-0.7418394003305411,-0.6217546175853412,0.9490214041002352,0.8183379519602318,-0.6752583195734694,0.3206960020298584,0.5474870589320155,-0.7023369777490835,-0.05639952073299237,-0.6354407522287149,-0.11222579632978724],[0.15482199809340225,0.9484341612128528,0.698348844418883,0.737320545391893,-0.7596672914353302,0.029607317770009134,0.13471909024910178,-0.8335120695022242,-0.45969614122939406,0.5973818301445242,0.8560499666917203,-0.732091041148065,-0.7786917838684955,-0.3035058258002532,-0.35022431287904743,0.49071948747719496,-0.6379815356566365,-0.26038136124015554,0.3868338805271483,0.9812779217220295,-0.6240500408653973,-0.5199417110260116,0.003333072374784418,0.8283992621462739,0.5019929469466033,-0.6398360237806462,0.2839323294253746,-0.0686174132516344,-0.36146830413379405,0.3752006497049256,-0.3681651409573159,-0.6937157482639915,0.6046149962676928,-0.2130690752205462,0.3194652265535267,0.4819143981304286,0.33739242252914736,-0.04988232993544761,0.4202198356292808,-0.2970437340188101,-0.16996190850737802,-0.32033704083460957,-0.5530166918775399,-0.5041476949723784,-0.7083429042032323,-0.34141796239017586,-0.9732925175284988,0.9477328577378052,-0.6036557651480063,0.9736535939208466,0.2781108066193172,-0.3214413698499614,0.30850071003364166,-0.28455909762227427,