{"config":{"softmax":true},"layers":[{"inputCount":784,"outputCount":128,"weights":[[-0.3154117804800074,0.8255122304651492,0.23954239552694134,0.9245212998443191,0.9461612091235436,-0.9170999407242688,-0.38002779910823614,0.24554499595164447,-0.3377288698865508,-0.5999701504004527,-0.401681872056846,-0.5170941350741463,0.029957975558835948,0.7171881375363001,0.40550677939707946,-0.7041541172946659,-0.5272935961297742,-0.015325183068581438,-0.25620673668358096,-0.18686778977654406,-0.5681742501442115,0.978252090323017,-0.5105681734911258,0.8195051602347032,0.5676938597596277,-0.821134737582166,0.3628725161172206,0.6449468582846154,-0.9244630209578799,0.44773127850739325,0.1526676425293878,-0.6038641099494506,-0.7782122764473551,0.91615582231216,-0.8321108090222356,-0.9453585458565263,0.6342863148581286,-0.5523095339626662,-0.8908438573526414,-0.16278953565798004,-0.4323633213183995,0.7509759624417738,0.9002582769787426,0.19537361232352657,0.13956928718744366,0.613512735193706,-0.49541887527889084,-0.27614573451383384,-0.5185191042010948,-0.8797576143338806,-0.4200944396008177,-0.8488529868148509,-0.8155420445664554,0.4519943131918289,-0.30348460213728123,-0.44340933083209344,0.49944281517977207,0.9793586160765526,-0.36626461197237004,-0.8025880917149499,-0.5879025065008638,-0.1574279945211765,-0.200301210384078,-0.7459489650739219,-0.372760486333636,0.5941093745461885,0.8783528665707874,-0.05381793216764086,0.13991629267245953,-0.4665873215702625,0.44586549824024213,-0.9754764047728888,-0.43498573976416166,-0.6277823196591548,0.21323406540537237,-0.4535890797793558,0.9458236793808525,0.17679020032629844,0.5730501107664547,0.9421337304760582,0.6118323545795232,0.11551182306637564,0.7133898868722242,0.747356618942439,-0.3445102812022265,0.3654109893485902,-0.4146604589854439,-0.6556012225415582,0.9596562878034878,-0.48946134139711917,0.5179510063987045,-0.30377424988220736,0.19162181508229503,0.5686015859802787,-0.34433880091363855,0.3942332938922428,-0.41755294877261817,0.34060999334207676,-0.2542243216758002,0.19182375707727628,0.24018022266831585,-0.3817237575353336,-0.7527918738027775,0.5364187831721179,0.717666052770958,0.03202568458764543,0.4555364924015892,0.8356559852627818,-0.10386677573853631,0.5877769343365205,-0.9091869546316067,0.545577368727953,-0.7518671822288132,-0.13992941662468672,-0.708336780328062,-0.5351466371177083,0.7526167249170335,-0.09347514218331865,0.7858714257233115,-0.6954524944627529,0.23662034621129102,-0.967933021576288,0.9877547797258721,0.27554280401848996,0.34414694553925984,0.882952913616085,-0.6916130261280693,-0.4324652348990776],[-0.17932977836440323,-0.2078526338368123,-0.3259518528180272,0.6159206793354519,-0.22742107915816612,-0.968365302259732,0.6753898192318528,-0.007486549213976401,0.7374604791831423,0.6714020125303757,-0.18594176710641186,0.010955757004537103,-0.05839988876740243,-0.16242789321288464,-0.334369166249296,0.22257079762027177,-0.48583666044279195,-0.6376605522203942,-0.622025536306845,-0.8190791261593047,0.4361449825587269,-0.9380478261296579,0.4284098940155865,0.9652673532702489,0.3996754843651287,0.8490577383398032,0.40814727724291555,0.741497745962022,0.7947096634997279,-0.9648154547117318,-0.6711734015211808,0.39161954467468085,0.5106581907876169,-0.18952861915266683,0.16968042492392166,0.46559697294890445,-0.14863526831020302,-0.08635406342445151,0.07232060285173714,-0.08888228448662883,0.2003111603400889,-0.4899018957673251,0.7209198846833176,-0.7683276636235319,-0.2973815904480659,-0.47205792483523745,0.3117982676144475,0.6147105653786078,-0.6096156414266616,0.8904067515732905,-0.35599592391377066,-0.44253841536310934,0.3001222412088138,0.4956394215469899,0.0358184046747787,-0.6381838329177316,0.8069846731723418,-0.8633913078066004,-0.8759612885079944,0.258972326513093,0.18103985180243543,-0.7421764529209427,0.34609306025851994,0.672247779642285,0.33883810606029474,-0.4294363545036026,-0.11416683234859715,0.05348462540853882,0.5492037493420845,-0.9471786572946559,0.4759909842661214,-0.42977947547247286,0.8731707518032197,0.16017574047835126,-0.8682656915090274,0.490599888153209,-0.08183513703306167,0.33178553998625526,0.30973879398247894,0.07288666647537712,0.4376233509287233,-0.16919380045765853,-0.9629109036770549,-0.06533081738203861,-0.0660935450994109,-0.4631434455168797,-0.05215351609750041,0.7368299377621381,-0.4495367643990338,-0.9585359498894543,0.8221924486935628,0.564113274243909,0.49711824671587856,0.054660826841112176,-0.08893908929243377,-0.899316861294333,-0.7194879638030729,-0.006743070518834493,-0.7704524534363719,-0.7374183597267054,0.3818822835143756,-0.9774595140912201,0.5532839791148634,-0.06586191402033892,-0.10566159837358646,0.3676642172483342,-0.055218232620417584,-0.8745329358245351,0.23357379954459967,0.7902188267271868,0.5060561826138763,0.7344188869481965,0.2754601412759219,0.7439681320458893,-0.3028374114794481,0.9686141986322558,-0.10979280422704596,0.9807875687283958,-0.5137267286436655,0.07112920224878283,0.24412916270684493,0.3710693349194656,0.6678351416442148,-0.9731995432593892,0.6403231852327278,0.27288020016371206,0.9391957045828885,0.9244058098495902],[-0.652491200536857,-0.9058241008937853,0.8268983583111265,0.19084870423148614,0.054332625996557304,-0.17489585256137197,0.06237220319326786,-0.00944245917893749,0.9565416732686243,-0.9858783116074017,0.1879451167721884,-0.870361010127743,-0.5072566877896152,-0.9753490009895185,-0.09592108658143172,-0.4277544437762304,-0.9268364532115236,-0.9193306734633497,0.7380349016481551,-0.7081385900379591,-0.9618532816715857,-0.28690416930930907,0.8475141815306839,-0.28224282954217084,-0.21571737156734305,-0.17433851906348452,-0.22732561351849867,0.7075668751510975,0.6359988383933664,-0.9053885626562261,0.7590830651994731,0.9404461081095445,0.8954958240458171,0.9682402182844105,-0.7518174763277632,-0.9125001612179071,0.7671340450744661,0.6824082909372728,0.1026139486504054,0.5785732046017904,-0.9347344738854739,0.47644865796861824,-0.4409671932973034,0.07953487844105189,-0.5016745027001743,-0.39246071773581215,-0.15511246653175204,0.26914829855326583,-0.871391953446172,0.39980731682495385,-0.5674237297501878,0.4205834001995432,0.4460127717218936,-0.708619582985841,-0.4207271997443467,-0.7429579155338635,-0.4491735096114762,-0.48384705594206223,0.9664000107014055,-0.38560664390579036,0.7097659769086069,-0.8677607332637256,-0.31077716511663334,0.16701744191586565,-0.4624489522697812,0.7337850617305319,0.8955550239298229,-0.26698287339859594,-0.04435681805001779,0.07245934289101474,0.9098274672440538,0.8750895096018192,0.7425732415625752,0.0013573437175800063,0.09267932286536129,-0.693204870350036,0.7237871220001115,0.022167398295697582,0.7677763551245635,0.887009345770355,-0.4815900350461608,-0.05938582441967499,-0.8000115441606437,0.12961694729719042,-0.8329592673371666,0.20062128643269128,0.25153199567007234,0.9079271262525481,-0.3698971548867034,0.9810504102759174,0.6087841002195185,0.06320602907879258,0.295335136012985,0.3206338759352718,-0.4759194052574627,0.06022221414316964,-0.5280916594122231,-0.1040599903913988,-0.7754693380722983,0.9272353859142852,0.4422171747144674,0.48594465985202473,-0.6534061597398104,0.6258263989721986,-0.9098698251622102,-0.9918753590534981,0.24133938175753156,0.3805239873332844,-0.3920797900870352,-0.33571077075067923,0.978053850632951,0.39018050618186306,-0.7423197478524719,0.042083349166207595,0.9384450552416084,0.7336788243110814,0.6666984595399219,0.9978348225582514,-0.7067817564756824,0.6015434414231013,-0.5389556360083472,0.9628329261549557,-0.09232667827867957,0.019805175520234863,-0.5769547126010954,0.7645284428067483,-0.5876538451536422,0.0033870072231121373],[-0.6693877021317822,-0.5526159988082497,0.20664037113100586,0.7691089466355283,0.5029607884865743,-0.7056826079734244,0.16759611239449135,0.2141106768291503,0.9444833683200682,0.27021733278133375,-0.833541360245772,-0.9529639543347734,0.27477210380051753,-0.2016555721090867,0.9856059755581903,-0.3399982468903153,-0.46517639860593185,0.919478050231654,0.8157073041878546,-0.6377353450318091,0.8664180640325361,-0.42964676255243206,-0.8024637818434834,0.8499533729998612,0.4906860229470691,0.30112149326514026,0.4621595898969566,-0.9633256826832934,-0.7887629096725297,0.4297657019930081,0.8858885210891059,0.6410695083253319,0.34266765128700993,-0.401396932658759,0.8400462257994263,-0.9976650728583634,-0.3808027308702773,0.8918949184368088,-0.5329570861678794,-0.07650429941724446,-0.7485031087061664,-0.09420554205693277,-0.2152663935155188,0.5195082648114759,-0.0724902883334706,0.11334762643358465,-0.8810757404988532,-0.9209504645278159,-0.03273955919463045,-0.6862639492094746,-0.40053236303275064,0.40051056856218237,0.1068416961770462,0.8648326572956695,-0.47685454330901234,0.8426451221508324,0.532338955715524,0.11873189714929833,0.5503815065183275,0.8852130191785412,0.27698723734622166,-0.1959591093631705,-0.26161625814900025,-0.7269910531360941,0.18802492363899415,0.9118811974724061,-0.9386268008277159,-0.7568500683589536,0.9823850665205958,-0.6748140705382479,0.5028589897248457,0.6333492304256703,-0.5846291259185414,-0.9764681576563958,0.050565521917961265,-0.2750666263076653,0.39699907176436144,-0.48825287084474067,0.9840904338220839,0.903844273948816,-0.21119690974426142,0.14064362650677276,-0.7388129328187572,-0.9311696549523667,0.05634998149605974,0.08922868752646607,0.7389708368962082,-0.4089562586392874,0.989158744231057,0.14412554582064563,-0.5916463879993232,0.25030107533120094,0.0020538006618426863,0.3650656636114835,0.2226345938613321,-0.3962334853895546,-0.8440183759145659,-0.5717067744547346,0.685027607190374,0.5196318961375339,0.9063485555062616,0.48801817905280487,-0.004869152402168009,-0.6279227246853543,0.854779862473011,-0.1922609219488136,0.5179426472711013,-0.8397625981527987,-0.8290349638966732,-0.22800949541165383,0.4006911947184022,-0.8823695381824586,-0.9556551161549398,-0.4646743718837032,-0.7316611129115103,-0.3592833418739685,-0.4344038886244346,-0.5581623492077168,0.5629235719163161,0.9564941042252557,0.6569692018532358,0.60790019247447,-0.16813871361410793,0.8164500699489146,-0.2829051634870636,-0.9868001677283191,-0.42773007348926595,-0.9579875129754032],[-0.9211571869277337,0.8328616093239849,-0.7953784427252306,0.6363941453642292,-0.3391261408903019,0.28211069013554635,-0.15459136628698134,-0.026721890750334154,-0.48674427475853754,-0.998880437519194,-0.5843748008691896,0.9909868195963238,-0.31130734928903014,-0.08609856218514045,-0.14286311887008507,0.0901666202354463,0.3979405298301051,0.9987632850362778,0.7068426374585708,0.6375608199958935,0.6625794013337383,0.9552942574339043,-0.030510515482797373,0.9426744645701302,0.7177596462525311,0.6107240068011084,0.6658028993446334,0.6437889462434063,-0.1728509635965234,-0.9266766951353083,-0.945460137322164,0.44176018999245925,-0.7822592371196493,0.6368735344807925,-0.3510022265631012,-0.20104797087228454,0.8661335254939835,-0.3027820309621283,0.9396113965224187,-0.3774925854005464,0.48490755060351853,0.039324130177280425,-0.9382177444778179,0.8613395229286342,-0.3309731612928821,0.7444903985878617,0.18830161328886996,-0.1789981374455878,0.2998256262835912,0.5458397668281652,-0.7850538453262881,0.9392928875936795,-0.4415176858861525,0.31305956044194705,0.24888030734256383,-0.9851932920656985,-0.042045060888193486,-0.2335766231172023,-0.3025604650595184,0.6960929536385156,0.5484952693742526,-0.10652731871786059,0.5201642846329539,-0.3880041547915909,0.7972738249308204,-0.5912513404355282,0.056336731168273646,-0.721875078419387,0.9601187224088605,-0.3704571119991522,-0.008284674516016777,-0.12982212210959232,-0.6215583367487714,-0.011370397781740094,0.47360810400583886,0.6985631223631172,0.8134034387685694,0.41244001388664375,-0.7171069044272962,-0.4304962205558711,-0.3786046496070439,0.8627701290460699,-0.7151175466646531,0.029776110560008506,0.9616758851355616,-0.8991419723160836,-0.8955331239238824,-0.33422050822504223,-0.6048001999057808,-0.3304873701197468,0.699143406696823,-0.6057360221068622,-0.2696417730661995,-0.2101306498311879,-0.5584088783333665,0.3881572837457046,-0.745268398184169,-0.5134583297149369,0.7184647748842916,-0.6710817582311204,-0.5305645143247912,-0.9987779822117644,0.26275130156176774,-0.7754640873338299,-0.2472613067221292,-0.34182585899523166,0.7687742655666978,-0.5336959246292441,-0.19301874256299945,-0.009705716608830572,0.7537962317469118,-0.4167858269403728,0.8168947945616991,-0.7202799112568941,-0.5643691333468213,-0.9009987483954001,-0.6636165798874474,-0.4203450323391784,-0.5834685188375353,-0.8126258874587553,-0.9013669318148878,-0.269153983155872,0.2941656331669975,-0.0006528378960624082,0.513146957399262,-0.1273985426402764,-0.8195986929983554,-0.4625981317910304],[0.2668447800373257,-0.6381101028560572,0.8227996329571063,0.8129990071272313,0.17367923830421916,-0.8580362801335639,-0.7152341961493758,-0.8536357095534366,0.10686433380280014,0.5431212651713351,0.542498520937299,0.24067582863789538,-0.4943391264599768,0.8005962949113905,-0.6154654066208303,0.13561809417173198,-0.22829789258708022,0.6514908444382719,-0.5899793385350538,-0.8480976569645804,-0.7838292523875057,0.3472583858780236,-0.10810186904757191,0.0824950096212862,-0.6955277691579074,-0.022886910051841847,0.10235882053802903,-0.18494519378472685,-0.8066866111696696,-0.27122000716523176,-0.7071408431124715,0.24800071908984633,0.280670940129232,-0.28560576205370314,-0.04770831084858784,0.5351879214888056,-0.10289905315562287,-0.659023693086227,0.9005436317665312,0.950614237892379,0.536199527658902,-0.79197974833915,0.012641017407460708,-0.3121492687816514,-0.7711075729671863,0.37633379891533836,0.9944931344849126,0.3219380594471011,-0.7343834878318343,-0.7589380460435198,-0.651694697299622,-0.8201875802246232,-0.45420097146885374,-0.6633851995605122,-0.5351408474551513,-0.2683760584302042,0.8844224145250512,0.2972512660474793,0.23566321814738878,0.5900606441571767,-0.1888117700857388,0.6362580503419133,0.03369943106394713,0.9731230765492858,-0.6200954075057878,-0.8253604389881715,-0.5511882310021774,-0.9837830020925749,0.5756102778991978,0.5823618176805996,0.6349113161175131,0.05472549204397614,0.9196611947153155,-0.3207975835507435,0.7826301320195788,-0.9502612653057783,-0.23265598798525744,-0.5111125825371639,0.8003718528028922,-0.8473901905724897,0.6499627151210272,0.6108662475049589,0.9846659418165593,0.464943884253453,0.13457377602614962,-0.9588790378379279,-0.6847564943907014,0.6294600871841107,-0.5546973265848645,-0.12319853565072392,0.14555853462309942,-0.4418327967204281,0.8218394452433484,0.2922123650150601,-0.47909448561894497,-0.8101251785791619,0.5468014748614138,-0.7299113392369798,0.10584273557132029,-0.2452515142374232,-0.12978071515737044,0.06526505966058127,0.5013086592072427,0.4323097475198405,0.23243873040735208,-0.2086293887731332,0.636694195582528,0.45184917637348354,-0.011928414673272991,0.9115507613409826,0.6386424562688096,0.9362142213730078,-0.875837620024392,-0.951143332232218,-0.34249858268863376,0.19875853343077932,-0.34987721138724437,-0.8374902684359278,-0.2702057002092684,-0.8127101393506826,0.20907402219696403,-0.7668085028329905,0.14690905642033636,-0.1349444348454112,0.7038176165340599,0.03496218908535664,0.38591635161530347,-0.31222702337957653],[-0.704854596686987,0.6340990987594974,0.01759007688276637,0.14368147583867885,0.6157691871920072,-0.3338110568702948,0.9816545686775793,0.404249368893278,-0.9589337662083119,0.24719316001013092,0.4557173313904843,-0.8848168791429798,-0.2836150710670011,-0.5871855362610459,-0.6564539655028834,0.6562499726111715,-0.7027804943051998,0.7347332224603627,-0.4923168579251245,0.9010153130036431,0.6372543969752777,-0.9875652229269978,0.8387411155206987,0.34028856832648624,0.8075504459655096,0.7386923494731132,0.9149069030414838,-0.6290074116644155,0.05901556857979373,-0.6840746326567835,-0.5637917689835796,0.5305680841479037,-0.5363780452202791,-0.6721894689778614,-0.7986115560720293,0.6523354326386215,0.758274355404609,0.1557960286340232,-0.5781126427429615,-0.2497203109560322,-0.06230097490352082,0.3504284557230357,0.9070309947148338,0.7329445457917152,0.36956224267982596,0.9014649214767696,0.753575353744161,-0.6373547362078535,0.3565613365440279,-0.4284146039712493,0.875535665470921,-0.7544410001802957,0.8810739920829591,0.47124086884366934,-0.0007781618490774189,0.004058930359267965,-0.14080108820511783,-0.5344679849487501,-0.24810396978195337,0.7009871218533597,0.6607290600318738,0.7865546816450901,0.11860223084451516,-0.8616272075698921,0.05727721395961427,0.7958174372082552,-0.16345590116695607,0.6930550855744229,0.37849068611304126,0.8736232273643696,0.6366433014576158,0.5752878461363939,0.04645540281288274,0.6312233215702574,0.6778495886726505,0.12413378497430605,-0.07226182836853412,0.6059090302599992,0.11275176822861677,-0.5423957645061621,0.2211847610607327,-0.24471307533045095,0.8791132396464436,0.13604349707174546,0.042149642416497324,0.3420191972268696,-0.13305364986259227,-0.5041464127433375,-0.4129512612100088,0.39028087395325173,0.04991578592532453,-0.7228829773923953,0.21072884664563762,-0.006623739511264715,-0.9049196295063635,0.05593649395419953,-0.11365529237010485,-0.4836096642079819,0.3646874271420675,-0.05319463474219166,0.720102456068344,-0.8007109865554567,-0.20793678023346307,0.9593894022997109,0.7225564672274223,0.4439146664420295,0.624958548402581,-0.8230488519728187,-0.21630386457271844,0.2730150197375327,-0.9752933046066303,-0.2117560008033672,0.769186041770654,0.033095632209448445,0.4366972964113336,-0.9212712181829328,0.20987798096746224,-0.7095754892438588,-0.8864247125669686,-0.8125693150834632,-0.47291358528919636,0.854630491940056,-0.3616317990008904,-0.40087256467713295,0.2900699990084301,-0.964155080510189,0.833124218350064,-0.24672789662095673],[-0.5916512292086602,-0.3790920605321426,-0.5449424034983303,0.647796199326099,-0.1298064811642854,-0.4048902612564951,-0.0032186157628288914,-0.27226999617500036,0.465465929612785,0.31779991372621574,-0.38249921484123717,0.6468604986366195,0.06061044886409461,-0.513595692873758,0.6220489768451676,-0.7999160741678202,0.7228430378235446,0.8907594276561763,0.5055182897074706,-0.041306481741566925,-0.2877184311281602,-0.868607708124693,-0.7047596837718337,-0.60596349528747,-0.6189040741717478,0.31345970032396164,0.7211046384908513,-0.022539935103072395,-0.32275783823530424,-0.7160768394030028,-0.3629797039250824,0.6984018180773865,0.9021858609812339,0.08606813921799139,-0.35435882415581776,0.6085007937573212,0.9922616992113886,0.29911855974528057,-0.4407562859868277,-0.14759832005752194,0.8771605384941692,0.5373957181701399,0.677368880862161,-0.7562709358309438,-0.47590107172072993,0.6089681264089675,0.6251413946125859,-0.37095682820593057,-0.3461984529045443,0.16144746585135739,0.19387508625767302,0.35036223487621654,-0.1784414807778636,0.013524535854007702,0.8276514872528158,-0.2108026657289459,-0.488145474183616,-0.01762653197172348,-0.41945472660355354,0.4271058495700242,-0.30162245088905215,0.692438314346105,-0.7246677834771362,0.5818795875199996,0.11245592165291507,-0.9305755593449001,0.7179571025138827,0.06523503615122617,-0.5490734423215369,-0.7590530015763655,0.9133330315089947,0.7415113967341842,0.10449800196982828,0.6776474653910505,0.9634626107352826,0.48720780062811353,-0.032471422980821396,-0.23282434784636008,0.76934558655759,-0.2971503545127405,-0.6179915677492851,0.5027216242491483,-0.8832592483955608,-0.9992924488816426,0.6094903910941365,-0.018336718332653934,0.4096952070064732,-0.15585456801205333,-0.3766592799714201,0.07962725903277024,0.33740997647906124,-0.9004257537019191,0.1539395385439506,-0.3630335048298854,0.15906199905844898,-0.1724272353553451,-0.08118341055903189,0.5492452227040419,-0.5097400580708236,0.6512994249767026,0.6319759576703978,0.7631401749445297,0.41692161921385806,0.06492314749874195,0.4865355666508173,-0.9984537023695224,-0.32659979093594904,0.03114309921312275,0.15802544697798826,-0.11846388643063821,0.25138608663165396,0.2586943009268403,0.28786694023971227,-0.5012659613010719,-0.8724198980381197,0.47858012003125805,0.3786406327158558,-0.9168607594141098,-0.3188737434449662,-0.9079949631064304,0.6601815019762225,0.5058126660031674,-0.027788757042334966,0.009295152116045813,0.03308398692109238,-0.048876005613704976,0.32997590394319554,-0.19180435754256675],[-0.49406570329976174,-0.8720824272091041,0.115948677774796,-0.8788188955570275,0.003434157309644137,0.6542492933195934,-0.6359860932146126,0.6082702401057498,0.08125846220993393,0.6100887571357643,0.14722217557758466,-0.02027815034031244,-0.04019930850671494,-0.4287694055138085,-0.7644218659101936,-0.23578817201313718,-0.8423125397271818,-0.040749071275191895,0.12260403429672961,-0.852272006842737,0.8869444514143401,-0.9703645970992048,0.4542540431277864,0.6499656205687165,-0.3858917784643554,0.7916564449511063,-0.014522488523068144,0.7928841382345162,0.3440622597039338,-0.9291314585802639,-0.6063423221661908,-0.5002351797635944,-0.6463042123227185,-0.6589043565838513,-0.3148382604641551,-0.29656231671217426,0.7600009121462146,-0.9029533636234657,-0.45540627699353586,0.3917351328775005,0.7911236113042901,-0.2509221658289107,0.7085353379061703,-0.8019476746761931,-0.9531140811214383,0.021050564173450192,0.1782375941676726,0.6524555289011229,0.3553084158776738,0.7975852935203629,-0.9428655110447512,0.8845893427131315,-0.13614741193914104,-0.7136175804689007,-0.27391984325294905,0.8715560065998904,-0.9582087930924919,0.21918104077193434,0.1597696359638323,0.3467034637936961,0.5328885882773367,-0.8184402903134789,-0.7694426177212248,0.2961590855366585,0.9662545417820796,0.17321096636262046,0.29960000529075326,-0.5802932636795974,-0.8861333280205135,-0.587816167605766,0.17940391007524292,-0.1381139857935758,-0.01747351826238641,-0.1917883009097956,0.4734490544708345,-0.6405950313366049,0.349171032066373,0.810302681453323,-0.8674151222977731,-0.2365727388556842,0.1889853652672282,-0.664215680373444,0.7884725019774204,-0.5867168789802333,-0.07850177394249358,-0.6529844210551909,-0.0785771610414534,0.8987098636138824,0.12123656052342247,0.973691641538317,0.935469869403454,0.5996986821084813,-0.5011248380685578,0.8099260060380791,0.3867855257981838,-0.8399975430966604,-0.13272072273489455,0.6208819501234843,-0.8510480837664516,0.2634567465057054,0.6231313044921947,0.21809064055107164,0.8418511435049978,0.23230405030357026,0.3316644964633628,-0.33453872655431427,-0.25160194523978774,-0.00950499202409727,0.015386918798163673,0.6724637128188471,0.6105736042358596,-0.5793932765913139,0.4273633802250567,-0.7846736921073232,-0.5722406195509011,-0.007151029388417163,-0.4916171116223589,0.7153978991971734,-0.7387893913148236,0.2234010957633199,0.012853807841967768,0.8218514632783709,0.25837189397649074,0.6809560250421909,0.8304265540848572,0.4249219063183933,-0.4826978189548954,0.42513669789203834],[-0.9211710743875479,0.6270819374800694,-0.5067458478844111,-0.5699925420350369,-0.33130633349887084,0.5270640221672052,0.883406566963076,0.6279835112599477,-0.3661584511015261,0.9824621512370386,0.42267796439238303,0.9395633676632977,-0.7375077319435144,-0.036433941116865265,0.9432457574650301,-0.1389241587304888,0.9858573588126225,-0.19143968020735813,0.290837531104021,0.14915259214782584,0.8971815379636947,0.1257371479649454,-0.042989120608140086,0.4317122926231829,-0.06924843466876363,0.15678438725142074,-0.2157319618823732,-0.7986562511085984,0.23078832645082792,0.8025794941986328,0.6441083292881029,-0.25152554841744457,-0.20102173563082149,0.29078241398350224,0.1950530350057571,0.5818762946319962,0.0285227657643774,0.38038918005680866,0.29675327490590453,0.3367596426221251,-0.05719578397737868,-0.5189531294050809,-0.7488419192788041,-0.8466584109817896,0.4738122687517934,-0.4714600175776016,0.507366301076666,0.7627631327621771,0.9536308215143872,0.11880015387431064,0.4982746097045805,-0.5763008015269293,0.258916373149348,0.32392144120379185,0.49518221459251,-0.8316376129279293,-0.8280238447548516,0.059433899248831246,-0.5706952670779699,0.18920948361345835,-0.46316943142128353,0.2822026710095853,0.673946768678928,0.7412784935309487,-0.18727476479965421,0.44277631153110253,-0.013969471404743583,-0.5075285081304264,0.03630066595745407,0.7378021689324321,-0.31481918140321863,-0.6178489584201812,-0.5303558894448637,-0.21349358271766272,-0.04689159333288906,-0.7789085273563428,0.5576992889051247,-0.3321683056503488,-0.03115656096835595,0.6283954566618417,-0.028998403005005224,0.8188038852028667,0.624580158498355,-0.7778422298578613,0.7856805970842626,-0.3825581501683457,0.737619563701853,-0.7624253254312163,-0.10134545993972366,0.720198855674733,-0.936580276974452,0.3821976998953991,0.03548378739566527,-0.5380226286406129,0.29557488023623346,0.8936777060200154,0.9602479760158869,-0.6608098444576775,-0.794817281011374,0.11166116312780439,0.5261875789024553,0.6932697338959506,-0.15718767523792887,-0.7686707715299363,0.5108310183425007,-0.49530373421266627,0.9349064973178902,-0.7045937872074353,0.4850282247882123,-0.1002476018761127,0.2539208149490364,0.9860258678007898,0.2083716987858577,0.7346928386433598,-0.9748526786542802,-0.9083574981403584,0.035278986352780706,0.9759823170618882,0.8460385235750238,-0.23527114664170834,-0.5556664851066186,-0.5257203808621709,0.9152007468829333,0.5563144152633259,-0.022566235726693584,0.15324100176144695,-0.6509719442857564,0.08594017994315206],[0.729129813744416,0.07177459066948111,0.6071258597612001,0.451511024029819,0.7436424435735585,0.6424808744536106,0.4573250744871926,-0.9747911821470654,-0.21263113858232563,0.31318794717924026,-0.7411792853109214,0.8579254998124115,0.8496579908390438,0.19050599728109718,0.4151355417321352,-0.9491243830453275,0.706795945306536,-0.5552310853061375,-0.405493463562141,0.7933979204036063,-0.07665770755433932,-0.04685777530161905,-0.8102663588297512,-0.0031885249592396026,0.6611503360414581,-0.5509182639707733,0.04475439906646317,-0.6923439391559731,-0.04648076550107172,0.8173234974589361,-0.9698307428331909,0.17946258442663288,-0.7083003469525406,-0.6302442681306182,-0.9691274536112822,0.5115540790556428,0.1570602067800979,-0.1662662943278006,-0.31156651643014466,0.10779695863391248,-0.9454963978722273,-0.613158507943129,0.6883878914939221,-0.14652464829729062,0.3615842676899972,0.36654944170635906,-0.621118948948904,0.7252937702617432,0.6711487573404102,-0.17695664580250114,0.5767958079352893,-0.0665972767777343,0.3979616673211437,-0.5072980100174209,0.9329312179463465,-0.011211828312151395,-0.06719209021101213,0.5924299261406274,-0.487018005697859,0.6722932001691406,-0.9718590475911502,-0.5302661577247012,0.05173856827016676,-0.7713954633930946,0.8486104293025551,0.3320467338817472,0.32447024680161296,0.4347285107922425,-0.7356190140928884,-0.0990760131082511,-0.9422962585832424,0.8279144342676632,-0.1153429470854841,0.16116918807025815,0.6579487723475734,-0.2166219392784372,-0.5859296348423317,0.0466134448451192,-0.9618321228187796,0.030346691537174175,-0.7139830367486857,0.178687146786489,0.1993487316699365,-0.3970947184150826,-0.5625612839616954,0.8972799593847016,0.3616503320741786,0.3679795918204818,-0.1133589231308838,-0.05404862098959895,-0.47324751140270527,-0.21543597033808126,-0.2963366855774443,-0.670679798257185,0.7071290514744921,-0.8330724558378455,-0.5835536506947361,0.01696744031305908,-0.5821378734570668,0.5554155317084741,0.6106361474186657,0.6611661038693268,0.27847994458715863,-0.34927634137610797,-0.7163567390985599,0.338088316011554,-0.7804945968865029,-0.24823252897656944,-0.1854833823786728,-0.8113863300137891,-0.5403716897406508,0.7936658550088787,0.6888193106788998,-0.3559990627866645,-0.6195753669051172,0.5715736768233293,0.18097968932036967,-0.8772144080233966,-0.3100576206308947,-0.5129942004891346,0.9904823141570014,-0.7506381169228802,-0.869743487191176,-0.29600973874411696,0.5073644497220136,-0.8951173774277001,-0.5297386162449143,-0.7767637693858715],[-0.0736728975674823,-0.7745046974086391,-0.497714441790293,-0.42954260763197905,0.21980579007988643,0.16804139483800462,0.5453928771652066,0.9971099332410631,-0.8538942365445847,-0.2270562576441828,-0.8422426275089425,-0.9393000279670756,0.44208601680588955,-0.9015442488894505,-0.6420631691951326,0.8265661557524646,0.6446007701123282,-0.8564395299381655,-0.7086044940814973,-0.9145088103117558,-0.5498735554635699,0.16773882526118777,-0.49290973491009993,-0.9117564815397459,0.1214121579039491,0.25095427854969055,0.13342876082168154,0.4174846266937462,0.622319777345945,0.04289343336494933,-0.1743842247109324,0.9452434515074828,0.9356945642047194,0.09907554407525088,-0.6164803858579735,0.05339503663884382,-0.12085767161576966,-0.9518825078045487,-0.2082479011980023,0.4614606391371312,-0.2546660569548722,-0.1755548660111661,0.798481115587417,0.9824399279731566,0.24869627864199928,-0.2892629354316161,0.9235245493525714,0.5946516701192108,0.29209207914881463,-0.4481596839039723,-0.7416926192068434,-0.8988985596766579,0.7194986205737601,-0.24205399545208572,0.16218960083848,-0.5593716387090373,-0.6797791455425795,0.7862640372900285,0.16622262597230675,-0.7692284597442893,0.6317179868717373,0.6354394306949005,0.5712188635036768,0.11236477615995866,-0.3375344521726804,0.5494302379231135,-0.2647448516729145,-0.45217580538648217,-0.17933481886075797,-0.435093426581042,-0.758230351724198,0.11099160137226205,-0.8564459734204348,0.9960319192223979,0.10342299282286849,-0.010449568644455232,-0.6161127743534489,0.9737624954453872,-0.7253528673324046,-0.8315721252209924,-0.18935755293143397,-0.8226941451240164,0.799748516812264,0.792448987431893,0.2888607295427814,0.4754248239324568,-0.1993244141209609,-0.47838442508920687,0.5859891224629235,-0.45274766409446565,0.9279565686424267,-0.5663266447935147,-0.5063473747419884,0.2829534741553903,-0.022818886090467005,0.9678888368356164,0.5085765279748935,-0.7490637096369546,0.6122331509804091,0.1130903196386821,-0.9832870661644342,-0.49000263660436816,0.40886360262473875,-0.010995234985869073,0.982298091987919,-0.7858628055355308,-0.13046429560974993,0.6323526474524948,0.8725821486360668,0.17525787564783069,0.2552699074180407,-0.8390762069829658,-0.6388558628381069,-0.822639861067147,0.9203436000157383,-0.6987849582212735,0.4161734637207106,0.8809613201648152,-0.5579522885501775,0.5364425258669367,-0.9343611421684404,-0.5604225547837793,0.08688644868536599,0.7724675679877608,-0.47035141001248815,0.8395736947615451,-0.04500637498471116,0.7327680526470948],[-0.1096980063528456,0.1973675114551895,0.940472511920077,-0.6015205199049463,0.8794587910116578,0.6236959296543587,0.9459050018909486,0.9726697585830274,-0.6079993197621671,-0.5581993603068349,-0.9958419934850592,0.5689676599696941,0.3891542527950445,-0.22346079610778524,0.5901339415903454,0.482367963325244,-0.8849788035428003,0.35542102572638706,0.3776431418138045,0.42823816829256506,-0.14321957517424241,0.19281576461075672,-0.6102010815038891,0.11275394970060634,0.3540041442515786,-0.6581150591312577,-0.5416236764107926,-0.3513075534743321,0.8040523494334746,0.5548122345560869,-0.029421904628429106,-0.8341601150010386,-0.6718549461317639,-0.9985452102689019,0.4714820711456612,-0.3610376860391645,-0.7856819940121695,0.21758577039394061,-0.4493061358756233,0.6629751587488726,0.21549263391387086,-0.6964351061576277,-0.9171861152400308,-0.1507436410945208,0.5744713874518559,-0.8333851110683133,-0.6440477679884785,-0.694512084984339,-0.3475072365102305,-0.9477806057075504,0.9721707788491679,0.6185063667343133,-0.9047663785784033,0.9020074038242388,0.06877694209656178,-0.4622702528681834,0.6295378117369326,0.6185891573051908,0.37174000179553407,0.9871199002706308,0.05136653660331124,0.09386841463577646,0.355344863994108,0.5035465527213879,0.6955040929390879,0.3151348218637145,-0.12897230954757824,-0.9402002174518896,-0.6095596933967247,0.684815292054805,0.6778792582365452,0.2738241159302126,0.33359240118182437,-0.08955963571200441,-0.3379580419266432,0.9844865713870803,0.9337254321630486,0.1324110016049889,0.2938775067911032,-0.07190763862305062,-0.32327837056751957,-0.9842763348328919,-0.05360040703806566,-0.4836430421939084,-0.5289410009005259,0.7031707010103211,-0.7670502274733697,-0.42303655358809644,-0.23483670489385408,-0.20425890079843959,-0.36337466633217175,-0.64678408411383,-0.6794468684996513,0.5073469398996882,-0.515264836785083,-0.777140653657422,0.5230876004705054,-0.4993313636856982,0.2242054466361621,-0.20931742102681664,0.9656846955530015,0.6495288768009068,-0.24506636737714946,0.0021850995721686764,-0.6731936780363214,-0.954392161045466,-0.024557343070442873,-0.9108147431104975,0.89360811867359,-0.8722929918928324,0.7157528645430805,-0.6783286067858776,0.2485690445125777,0.2630533620746608,-0.6625889430805171,0.14518291068969505,-0.07168947747878872,-0.46205344458221864,0.13996139932952176,-0.4467447753712426,-0.42756316179086035,0.995457025115522,0.3145121587310679,-0.3798734209159159,0.5893053731243798,0.29787592873108154,-0.8432168286531553,0.4526003568506792],[0.8245155603688379,0.6575170968203203,-0.9104875338607975,-0.9808497381692751,0.9935213334746377,0.158589829196683,0.24841969387730617,0.7080580658645214,0.9498013846047617,-0.751911841921788,-0.048971706763048954,0.20272851934633357,-0.6474849755749155,-0.021454217924893472,-0.9297442628779957,0.12002060246428443,0.21875686098194322,-0.46076148025182867,-0.513491092615631,-0.32025964867040063,0.8912919500057357,0.8100385902746255,0.40976705020451804,0.10246933057595978,-0.8292035972452573,-0.23700303689834357,0.11273219581669619,0.9971995310879559,0.8925059696697133,-0.08968787008511543,-0.2999116252409514,0.30407365088218846,-0.8596216912142093,-0.8775052043563072,0.9401449891267735,-0.1851349671146225,-0.35111360137800823,-0.5555135050567881,-0.8778224307560671,0.35872665321585717,0.55210928487285,0.34018379185650194,-0.670253278057139,-0.910880788928664,0.25178995674569626,0.8589517243147777,-0.39212113130614795,-0.42762028421211545,0.38153370324461205,-0.47284469917715244,0.09621860774959712,-0.12838622042997924,0.10757610322775231,0.45224121463971056,0.48193533560598384,0.4484271962473553,0.3598909979048225,-0.4662787827107791,-0.23308706690596884,-0.2919137290623383,0.1061739676579198,0.776552129350005,0.6649010402595588,-0.8794340759300698,-0.8422674974889638,-0.5337666740625364,-0.28586750009041106,0.27749917106672445,-0.11706460888241983,0.2916934013312079,-0.9546749702749462,0.23552728929321884,-0.18107530095944596,0.268196450454021,0.23374189252444555,0.5145712221059507,0.668858747964082,0.12363032860435282,0.7944892404307204,0.7761862284178295,-0.7190895904493178,0.8908449002145918,-0.16371574682583317,0.4223201154198077,-0.45617154693353495,0.5675140800398679,0.9100136592798234,-0.422193670219982,0.40800136778835944,-0.9427074096053024,-0.5718751000228848,0.9639521181749392,0.6652667641386152,-0.8439365483171094,-0.20607767657127699,0.8396002483361239,0.10049049251222313,0.2282720018917746,0.2139450161661907,-0.7799833292643358,0.471897227523718,0.476329552358226,-0.6702707714963451,0.5538257277970422,-0.2465213409029165,-0.7676718955642244,0.3598898269253264,0.7267193218082558,-0.5147460260942764,-0.014672616967856825,0.7472806046930168,-0.49344171638868656,-0.5442193334260274,0.4067491130655344,0.29498860896585544,0.6669677766881336,0.6515660397914461,0.14417862112102967,0.8688969125836431,-0.5575696036213093,0.8040842291106979,-0.9465424914982677,0.9767759968697267,-0.38655313531096425,-0.3560138278058838,-0.24342652284763877,0.3048091655417759,0.024156488151584297],[0.8522367998574929,0.8157462801834071,-0.14874642692274556,-0.4240085574883915,-0.3505382899312359,-0.10568586586343638,-0.43592190712586515,-0.9762337209227552,-0.2208879821977997,0.4296155255609276,-0.1618637451245264,0.5784285125227139,0.9388262137895392,0.3032250834983499,0.9053195918150043,0.9020725736494161,0.15562279069512083,0.5497414311691946,-0.3285268369777878,-0.9040297929036246,-0.039530837523607795,0.8327025220292338,0.1499942421898034,-0.24996830823311664,0.8635346330374929,0.8267988845896137,-0.9927093346036727,-0.5274832660136625,-0.29591302985634843,-0.3378320376134835,-0.31255848777550393,-0.697777284081825,0.41818063224010693,0.3574131959700608,0.07476950227301045,-0.5526671808866538,0.06837507765879973,0.40629712929523226,0.8488199224436792,-0.05632273762996869,0.6321431996105061,-0.6755726994376425,-0.6648619331575253,-0.40711446352286434,-0.6289011600755482,0.8402813961246292,0.41934505779669384,0.7335355312407942,-0.5046442248841624,0.5993599692001308,-0.5720145270528423,0.005889598993491006,-0.8029798903466863,0.2977580155225603,-0.6516323140222289,0.6811273898189367,-0.010030025726655066,-0.2408222709573544,0.6544832199354186,-0.6638813980470898,0.09160745640165732,0.8329729694629028,-0.09842000593010067,0.5291091391976446,-0.8707529759913685,-0.07857155374065287,0.3494227303065863,-0.9222439491158,-0.04606402831563861,-0.9806640794734502,-0.5899989737256214,-0.9498791984512357,0.004954506543415142,0.7567495387735331,0.8463923515663158,0.22801532103899788,-0.6304193530171649,0.06390753832426826,-0.8686292063892672,-0.8281518760294885,0.4288193397729885,-0.1752612981621366,-0.09442374136553533,0.6793325212513066,-0.20813264124461583,-0.4263696498280285,0.627921945902059,0.510228934873466,0.12794011741458222,-0.3359010351495769,-0.9598932241271952,-0.15008117234518437,0.6470330927253996,0.0034710107255503902,-0.0905914684072557,0.4387325857424155,-0.5049178936237999,-0.7034013888764933,-0.7453085706485632,-0.7727448886392426,0.6804419595038814,0.43052428739830356,-0.22688973433055695,0.4597538313818237,-0.7246299076858432,-0.3512950977677822,-0.6357623870364918,-0.4783303766390126,-0.9222564185778052,0.5827613589495494,0.8593811207439441,-0.6909428854729697,-0.8242611102298779,-0.8072304851194548,-0.4471840650735056,0.6831711586425926,0.406538249833617,0.49685463460654505,-0.25591607724404836,0.4915832455254906,0.3053974894173183,0.8014629224068376,-0.07482512229392219,0.6147083425013313,-0.8428628864278737,0.03990424798970204,0.795521953955695,-0.7381184937468309],[0.4403525621865451,-0.8753601909123612,0.009413956842004748,0.5444175321964155,0.7321072289349264,0.9058216183303162,-0.010301602315647522,-0.9372243881243011,0.8092579154503913,0.2162306762540182,0.9958743552892806,-0.2880926490727046,-0.7159983738475753,-0.7679141639236504,-0.1753611414682545,0.21630159649907268,-0.9732400138609462,-0.3750235190635725,-0.9644604599588887,-0.9683502937598426,-0.9482228370256911,0.5845021002159908,-0.03909699861861644,0.49034763812385135,0.3030133007716195,0.660153917925702,0.5837570512290889,0.03781751559264672,-0.9256632202051553,0.02154265195536498,0.4233140804703052,-0.6004939415196343,-0.08623362633329194,0.8095348167440705,-0.2532021916174805,-0.2954107641519795,-0.08254371508898448,-0.8701149516535024,-0.633669303750728,-0.9579912175414236,0.7926971000848698,-0.3642379150068959,0.86483565303769,-0.14370618315344627,-0.9970025238364948,-0.5753882564092304,-0.4365168616507227,-0.8621219680672327,-0.3278835767497613,0.29845794622098143,0.634243017438268,0.36976325190166215,-0.34865351926002347,0.24495172835216783,0.31248128900661487,0.31664791932282554,-0.5066155330390615,-0.3759823727857337,-0.17300746534628741,0.8980240661829808,0.3366946476199609,0.2520979811277321,0.2570624632479127,0.44481809585127835,-0.6052447110247973,0.03189520492217371,0.9828780476844385,-0.8128450567987532,0.43610756542533824,0.10424676507208036,0.8482553997253148,0.15388087584862872,0.49793811310934194,0.702119634270849,-0.49549196544236734,-0.7695687187030757,-0.9752375622596032,-0.4288603243545468,-0.33214069705865445,0.43562868060730486,-0.7519358985520783,0.020569565347478412,-0.4195068033248666,-0.7439243841543597,-0.02562857032180484,0.4478200089198629,0.7791036326915489,0.9833219466522801,-0.22185132601684138,-0.6707704721888642,-0.21126266841526115,0.4108339294167855,-0.40690438850421007,-0.9476530040613144,-0.19566278568212653,-0.6608257754761101,0.7584494343152192,-0.14288209944328997,0.4841167936023978,0.9127731340596832,-0.5460397430103566,0.10533027385926336,-0.9219186263147464,-0.9362660647378471,-0.3500234740737276,-0.1614367055458635,-0.6919616592967416,0.8859162836739988,-0.7404933870010438,0.22672599100961616,0.00573583618036811,-0.6201766368518925,-0.6056814939305604,-0.9364391300095974,0.1932277230243921,-0.9935930666170251,-0.7268227380464652,-0.8428343191811148,-0.3270818189676849,0.3414266486787053,-0.2568871665294587,0.35189888677255715,-0.2092269178703735,0.39581716205825995,-0.2456468372278044,-0.6614907861144009,-0.015445653258239584,0.7817649841202924],[0.3593536982628185,-0.13488891046565565,0.0861924805136669,-0.6158741017187652,-0.909304669807661,-0.6887656227450301,-0.10624304371860949,0.3456771083329371,0.9987136954329752,-0.09324771008563304,-0.8188313357901427,-0.8523096736656397,-0.2936168090171052,-0.18092063349147747,0.25957604750089414,0.21440222155804833,-0.31819967751643596,-0.8919120618833911,0.6544303590751943,0.46506008621963946,-0.4786245707302186,-0.6894364103051394,0.9559117679915621,-0.6480342805773649,0.4697765328124863,0.6612893488273879,0.17892946702816714,0.1345440077711395,0.8508833057140435,0.5189307595851183,0.16191938013573437,-0.013375644367771944,0.9882851210044115,0.9247097537355637,0.05831488512481142,-0.17682817928035832,-0.894057414539287,0.5176506538077146,-0.6592978408143364,0.5774569143502781,-0.6065081702081345,-0.3626964096710852,-0.6195473440502146,0.7485029827712164,0.5626055952479208,0.6945386386245564,0.5673532585829757,0.9775205658010926,-0.5037001787800361,0.5813947117745586,-0.44205280097664135,-0.6887589109207395,0.6024056490986738,0.7938442605794476,0.46831052971340004,0.78421841544561,0.2984132652634801,0.0548267463574279,0.5912842163229313,-0.42427842301581054,0.4174413741054046,0.4826112532543605,-0.05986952966524872,-0.16785911183951052,0.87723640600604,-0.1640421304628381,0.5712325003855889,-0.4460686146130486,0.17660057678536778,-0.12395783583864084,-0.302796560871349,0.1672591592326751,0.1543711320353489,0.5017115228552071,0.2712198935707597,-0.43203693601523874,-0.5838354070530412,-0.8292460717864771,-0.790987579829038,-0.7287855234260092,-0.837978110667754,0.7077139398602705,0.12003569009952941,-0.520367490157329,0.05505953572126199,0.2144870019105356,-0.15537744244653373,0.24470076014606756,0.4382088564846136,0.057843085191219945,0.18828954624086913,0.1713800584167997,-0.08211064274189361,0.6316692552739287,-0.28079813421719435,-0.10784998402351675,0.21296433570648854,-0.02428885528738145,0.9146722944726309,0.6127920317160584,-0.7336237597482873,0.2687702628659936,0.8862447561830227,-0.017283297198052328,-0.9540814041485608,-0.7449260885173352,-0.8992333808594841,-0.19540429395236325,-0.621249348511721,-0.6368861458592416,0.5413499611585979,-0.15196906352293138,-0.27795396815495965,0.8331301663440491,0.17498835652180822,-0.28564266141320216,-0.6901405272225949,0.8969749816904402,0.9876308134043994,-0.4683902118962231,-0.20631629638561355,-0.8624955187263557,-0.18220475373230505,0.6165169015174976,0.032501511886125156,-0.18802776631792084,-0.7799252850296379,-0.5032740089862513],[0.553094521669834,0.191111406595321,-0.38013543297408825,-0.23940633677245549,0.00023049988809686894,-0.22640977743822166,-0.2895308858012864,-0.58155044324261,0.052989027479871886,-0.19015979750995715,0.8301777496179894,0.02075306280021949,-0.21776496788908384,0.07769664592067227,-0.003962546078167373,-0.0009483625153445807,-0.8789175409995329,-0.7933079763807769,-0.8380429337434399,-0.1880489255547464,-0.7488753410646223,0.22598371635219405,0.9070758714477387,0.9991205012457993,-0.806871870360736,-0.5384669843048753,-0.5489333067126412,-0.42958474470944785,-0.9213137774157814,0.6699510678709379,0.4704210774981994,-0.833287985397074,-0.5531446552329995,-0.9433823634421101,0.23848411471459063,0.9116573778298753,-0.08797193757160193,0.2386604156326042,-0.5712323235131791,-0.36524527996096,-0.22298776365368767,-0.13181201464930403,0.27049382344646844,-0.6870277976519061,-0.09279093018737239,-0.13415972222833683,0.9118776391893866,-0.7171472348252814,-0.6934102732483285,0.6344452030536754,-0.6416754317036955,0.565716692268267,0.8026821654283416,0.772466951113195,-0.09903615984288172,-0.7885795309081078,-0.2577463016864052,-0.5078086692234287,0.426182322431943,-0.9566798071228917,0.043598088832778936,0.12378925712194211,0.03026231455018502,-0.7728780475995864,-0.22616806639031983,0.24735814913812515,0.5124348562501007,0.5057198992827798,-0.11294926609372768,0.3776647146557406,0.597547746438549,-0.035572240885265005,0.2558715182075868,-0.18152777896409478,-0.35345625321570484,0.17808742198402716,0.17952864321672402,-0.3246547230527317,0.014300262710470246,0.8594169181795672,-0.5773456586960579,0.3695278086325089,-0.6442320593890194,0.712185835740748,0.6594659748951144,-0.38571652379446864,0.5346498391807013,0.10258026504915141,-0.7483449601031793,-0.752211506846111,-0.47878775209359414,-0.3218658981105489,0.3897737938754531,-0.11797268436619879,-0.06414647569805698,0.31343489022919746,0.9746055239740552,-0.15723746075896106,0.21546544513134003,-0.10085251013289209,-0.4597737592393598,0.7503497026187069,0.04105003408815011,-0.27567785148764123,-0.8675465302887662,-0.46783779552474436,0.06460716514567699,-0.9802314970452048,0.1395785163953409,-0.15418670978087,0.8622421163818246,-0.3526968652168605,-0.3088105198485318,0.795340728149897,0.5226331953885066,0.9344915834673437,0.4084786618991332,-0.4747898438286795,0.49312914443840206,-0.905948928832534,0.5506296859524185,0.023734514030983478,-0.9323475310644393,-0.5573168368610322,-0.7161897724523278,-0.686669632745665,0.04444263638393853,-0.46403310811891196],[-0.7956871032494182,0.600443018979447,-0.36659043986351314,0.8892400145304116,0.34745989703711433,-0.7860280642501982,0.7427669491766646,0.9502701683126127,0.6993417069073593,-0.6633647386014874,-0.6865585858937808,0.8756976026039036,-0.8476357889466992,-0.5711271884072231,0.14764307006591193,-0.23563174632239536,0.2518266147529078,0.8438515105546094,0.8549289917475755,-0.4468275589823332,0.5055333355552121,0.7977442035843765,0.17619946068029946,-0.5363772580070298,-0.9618671920514841,-0.1618280446792255,0.036338683168967156,-0.8264542783775053,-0.8950534541304935,-0.15578049263475746,0.476330475312569,-0.7144233857282924,-0.830391901458974,-0.9048812620230251,0.7883089149995928,0.5860447282459922,-0.7324156151011232,0.7698484474488976,0.5893741775527008,0.922571148487932,-0.8822459884860732,-0.26783921459086635,-0.3851329514467883,-0.8162952142603883,-0.6739091884906103,0.6983741908770509,-0.6364098265861333,0.3430893782512092,0.5549348133602214,0.4086425029100622,0.45850417826687684,-0.8819807690367119,-0.4838771580124195,0.44835464179040696,-0.06067374011679938,-0.6333257021202046,0.2037260885555685,-0.5677081165000692,-0.19899122001886882,0.09039159023415633,-0.05734959376621207,-0.47098277848460146,-0.6127337552785814,0.7008664087791208,-0.11124193046070041,-0.12425572786466987,0.18524129388331856,-0.21970741851784537,-0.3516572489537344,-0.0735569376412113,0.6652800553603668,0.06236758010642163,-0.016806312574938254,0.10578388313390441,-0.18900302208878883,-0.8954032918323953,0.060184328773037254,-0.8718206227935839,-0.6779420344535783,0.2216134704190067,0.345778785405489,0.8368013816513487,-0.6215652964264653,0.03726074192604889,-0.7111189380734704,0.07296827238897663,-0.2000928657105494,0.5737414459251895,0.39271832847815613,0.4940082999357098,0.8159034530885463,-0.6622833920947089,0.6047771037817335,0.9994420287227621,-0.6461992278531457,0.7945193097289915,0.4307422318638392,0.7757271322245445,-0.8290955307579815,0.4490385102086787,0.7932604531122458,-0.5787539147976719,0.6121392996614963,-0.22628374655574457,-0.9164064186204866,-0.29672781451483554,0.8849975543428701,0.872250122537811,0.31541420164162215,0.505149310304521,-0.13974059591482413,0.07564668351929082,-0.8801118653800792,0.1932072433906995,-0.36481638213683665,0.3568207037912776,-0.8845476160853774,0.49903804809081764,-0.4020243139066011,-0.9505561951803443,0.08020701274075903,-0.9515918245645942,-0.5733536476908967,-0.3167531981935616,0.09114048337813818,0.08825825426256939,-0.777270272609341,-0.02196720899048188],[0.46819226635410827,-0.3536402643020422,-0.34576999204438574,-0.4739527240857109,0.6861238427358449,0.6507947286783111,0.978950450982149,-0.1344102779447005,-0.8536300894063789,0.23231604193549837,-0.83494831396857,-0.5569175343482946,-0.0379973616065874,0.3913184424210081,0.403822485746379,-0.06209620119110082,0.9306214536343518,-0.3639396380579525,0.3347680270433948,0.6632615123955699,0.5875047163458287,-0.8999752941051313,0.7836671626606133,0.7474978274349708,-0.2658592289629358,-0.34728673357586914,-0.4824387092305078,0.08128678811745749,0.5658755800187163,0.47914292048167995,0.6341273299325136,0.7641797725455652,0.03416643387095353,-0.7723934645555193,0.44482041395905747,-0.827798543432597,-0.6790721510489479,0.6323881610434376,-0.811524908203689,0.8388798915255227,0.5969451407048161,-0.2775133337512372,-0.7264928681289515,0.009883513045375159,-0.9800979661537941,0.9063304839326769,0.8232975822108075,0.05454156407817812,-0.19622529856067317,0.30257038398662983,0.6336651862672413,0.5053453539316777,-0.4400482138303461,-0.4832758378817801,0.5090291685937383,-0.45951712049919946,-0.20004231792001548,-0.21983712454938087,-0.6226682961974146,0.18115666537109387,-0.9252636288519327,0.8708888714931731,0.05481960628679139,0.7041411073959696,0.07023985986955061,-0.46970762776977004,0.12056000954561585,-0.8706067656124117,-0.3815994866171035,0.39891200283972905,-0.724610375997667,-0.2695721881658213,-0.14190747834168893,0.5541914398037533,-0.12454342554199971,-0.6440152854925545,0.5127423598008036,0.293306603013767,0.9726985475236287,-0.4383672921297257,0.013506890881398892,-0.32349493083321734,0.6485624143462965,-0.18787368715555486,0.2951851051200438,0.7554164018044722,-0.6607943975799535,-0.054926307880917014,0.009693044098074033,-0.629138784579172,0.2760595717648682,-0.2632722471869635,-0.08305775762931944,0.3893792472373194,-0.54660705592166,0.18817401310090798,-0.3222484751382373,0.38620345734552974,-0.3668547829261515,-0.3741871509756345,0.2899591690871146,0.029265093362380146,0.5026012896833898,0.8867844897389769,0.3459778476796078,0.7483056841982341,0.44041564922199194,-0.13755644149842228,-0.9991665222112238,-0.7954933330577441,-0.8430046661473147,-0.29837913433146546,0.8607280632693048,0.9918341537930433,-0.021590842172914737,0.02392524752496672,-0.4084043137672999,0.59067414444903,0.1940226498826354,-0.7581025261243559,-0.3916633896195827,-0.6844218490121414,0.10699987930403099,0.010352323612578873,-0.0515011522162474,-0.4401963187231319,-0.3734472596755376,0.4357439408105255],[-0.3504375085627176,-0.7022030251580182,-0.29847957570588957,-0.9864134260788082,0.17005477759348842,0.8447159273700511,0.37788890421721066,-0.5203861148870421,0.1833600159880615,0.6452306345397874,0.2550488204091146,-0.5001473180351808,0.818056137617917,0.42840370238185965,-0.6257551024679417,0.724902956946001,0.5885867600773531,0.115484088376681,-0.8259934977503396,-0.18801982870709044,0.8976464493065923,0.6493042933155404,-0.6288823245352306,-0.9730260841439136,-0.20615108691694783,0.3674976485567185,-0.39374312137141554,0.5232238346352889,-0.43996092410501086,-0.3583753821043072,-0.5797726921092106,0.9386232287807361,0.36108514712969497,-0.38175051181824116,0.5187290965658404,-0.5327880424255524,0.8862805088299157,-0.5905935703769776,0.4984650764947465,0.1338353327766013,0.028042045292760553,0.4506874851708025,0.06954081229685505,-0.21666441999535757,-0.4736763565309272,0.42942905026047784,-0.5364988071192323,0.06526924831003811,0.5306748824227434,-0.6883043323222722,-0.215356417123294,-0.22835411971954955,-0.5618845467024118,0.9676416152406504,-0.2748296521152789,-0.5409900574585489,0.450523520909202,-0.5000041511256836,0.709029354615401,0.536377757661973,-0.6766098814409613,0.037045179370950976,0.6422429555752722,0.12659707975640022,0.12723489996818182,-0.24437904760373996,-0.19029255484447605,-0.8507946440958776,0.8634847393148757,0.3455667007390768,-0.435402966419433,0.5190348911173781,-0.936132546263128,-0.48748180883309455,-0.6833897854527489,0.8828436999764642,-0.1954432884340711,0.5696452493945403,0.7597296097675634,0.9890541628340932,-0.5153267669293791,-0.9611910563434505,-0.8804027881654493,0.12996835231043646,-0.4103271565374784,-0.21884015980562377,0.9162715312027294,-0.055907220613045316,0.7202113262701262,-0.891740471711324,-0.7314055376629565,-0.9675704606714934,-0.8365242870062566,0.7076950196469487,-0.006596767836488215,-0.024035455946627815,-0.6979243063689975,0.5164193015379956,0.6570788817817317,0.05673616597185527,-0.603853218627008,0.8654333542537982,0.27734676820543247,-0.5038428761538574,0.8586465956750744,0.3009055447201274,0.7334420341947323,0.08126053242015274,0.08133198290714194,-0.05516931911421796,-0.7616299976283178,0.7835069383891786,-0.26277938921975164,-0.4952240634942193,0.42982749912075646,0.4915364443754635,-0.00638681745685199,-0.04825373204307648,0.9062591902142139,0.9457882101680577,0.30275260809462146,0.13919733018348945,0.2638071572257046,-0.5484468678391703,-0.5335441981629991,0.8000988452686262,0.436949851555267,0.18532339447246549],[0.9309044925045027,0.9254586530296283,-0.3821111795614567,-0.18752108588016436,0.03893808269752119,0.9590215555179153,-0.5119428820001044,-0.5656361815442406,-0.33083593321755456,-0.5617614457121316,-0.31607650976912827,0.5656579002297797,-0.17797491982955593,0.38028335821150083,-0.5498193105322704,0.061603626427674474,-0.671849582742192,0.9294099065370502,-0.486851149104246,-0.797527386639582,-0.8105751798174166,0.7895178633051765,0.025089688663725962,-0.24556094083615054,0.16790938025126412,0.7631375435711005,-0.6749123955372451,-0.4494780586326901,0.8176479528965934,-0.49133876762218365,0.8369547629368295,0.005001059531842822,0.26588598032434607,0.3454650877037442,-0.6844809313825937,0.5465994924728461,-0.3243303944625029,-0.9968341221515085,-0.60632155974109,-0.16857549637590474,-0.6701368543631614,-0.7503194144961471,0.3017682978780116,-0.517135015657886,0.9491916653888046,-0.9041978091476073,-0.19179303106068746,-0.6421180057508658,-0.9714277687843118,0.9001449740894614,0.13458618402638378,0.9156706931677527,-0.9921603094836273,-0.4025362419122742,-0.2691394066615864,0.40189077739437207,-0.12729721411767936,0.7570216889306278,0.03369700973998779,0.48184995951698606,0.8004212333277962,-0.522470522663252,-0.2814288661620785,0.9404284239486442,0.5159424627130356,0.00028801741045869633,-0.5975865719145141,0.46705735696151374,-0.4277449635038011,-0.09515143476694132,0.17870709766868975,0.37477781147764677,-0.03521611865127827,0.47718565947764247,0.9957308036101007,-0.3133758707989134,-0.4756466919578475,-0.6736251164475744,-0.9868766454099767,-0.2286294188354845,0.5637058361303755,-0.7725207614241021,0.9580441828344148,-0.709435537304941,0.850833414311936,0.8069517561053372,0.9798519228713076,-0.7476878303183638,-0.5395877362046408,-0.8425702995646505,-0.12437271794183058,-0.33800214556529373,-0.6703765650143767,0.18163010795053247,0.08093939565498132,-0.3682755487675027,-0.7576947762483022,0.21872909306314936,-0.47808270824763466,0.21972443024241817,-0.36718019868061047,0.9445512820594288,-0.13979774809642675,0.32935269450769655,0.9794384832067584,0.2683561338403111,-0.3724677447829605,0.7056047318798433,0.16522521296276294,-0.22007689575689948,-0.3246581606093395,-0.1762396878488961,0.9552964680149842,-0.6642067092672617,-0.9551345807836487,0.8482969568110019,0.8222288708143024,0.8090122333711574,0.6515503544923913,0.011889998602505392,0.8432419494852557,0.6864908372746514,0.21850139638970667,-0.23529586906847544,0.10590657929328495,-0.269669969156626,-0.1569187795794844,0.7087302999866547],[-0.278668150200434,0.9242678130214972,0.08620288286445255,-0.7052403741806696,0.014098369577673964,0.7758349478622577,-0.7973350154768415,0.4524655530140427,0.5031993250801527,0.8911890522517347,-0.27861779065101877,-0.7992286495838739,-0.058059800451519816,0.783047428800046,-0.16817447618141634,0.2241530867505539,-0.9075711067123733,0.7067622856935125,0.3442613107078014,0.3948908984232926,0.9664256853408508,0.6357288585674334,0.23173552011026044,-0.6086397615227568,0.11071113321849735,0.31695644938240153,-0.36753602711454825,0.14525205840308608,0.24990178698624677,0.029177707241574646,-0.6922534510258931,-0.00845598569718109,0.5089544133005266,-0.5254044181184718,0.3624880959187353,-0.2680526659708977,-0.16893740654823164,-0.19431761408704373,-0.6960563253553933,-0.2830451749770122,-0.682957311006815,-0.4070462242730528,0.92561851016569,-0.8823285545901922,-0.5761408270584409,-0.24982495737752042,0.5895090277346469,0.20092619543182533,-0.15606025073892837,-0.24191374886888228,-0.2880662832950551,-0.6634137983907631,0.9188103104672043,0.38569696174709667,-0.9909313632010266,0.15197770606359629,0.9782440702574247,-0.7723097891378436,-0.7435456145252095,0.8403358666640188,-0.11102215229977341,0.2909877445658735,-0.28222844895027466,0.7775896207384687,0.6845495398456054,-0.5938833204072411,0.4327903864092233,0.40783490912921616,-0.19229102772255047,0.03042885527610628,-0.8618908386917452,0.36936786615550066,-0.0663477110990851,0.8986763325954636,0.9250138919920357,0.12060622040757418,-0.288010405889189,0.42308204832957497,-0.6577224686626064,0.4355800072742595,0.7082569297979744,-0.4812397823539245,0.5815400291892134,-0.04660242732464792,-0.7106030659781484,0.8439141815314792,0.8595287426971168,-0.35138470424125035,-0.7646641225061497,-0.3335745740052929,0.9288683039115992,-0.4974430908204033,-0.49469968475686943,-0.863946495575797,0.36365656861261964,0.7432352824916126,-0.9821278337520738,-0.16489930590659907,-0.17731434701144444,-0.623599898377061,-0.49952127064689766,0.25850036297216805,0.42369195731078,-0.8526663767442868,-0.48296781121562016,0.1137919324341683,-0.30987793708701483,0.03925378435093041,-0.47123356816310924,-0.4153154495521463,0.6842362714671597,0.5967582208044337,0.237777450139679,-0.21750873604138565,0.48504815303633686,0.1848577659226025,-0.48381854122368373,-0.8186216165369065,0.817545254316794,0.3043060711652381,0.5483513588514479,-0.9941795052086775,0.972330817616913,-0.2916719012737934,-0.6864772571691671,0.3500808209488062,-0.5255015435016674,-0.0357229123220022],[-0.9907940091164396,0.5321495555156743,0.9580860456773839,-0.37412366407167785,0.16295953712340672,0.12900038046236895,0.9871583505448989,-0.13254583557147637,0.3258207858788553,0.38977096300701053,-0.18606022567754987,-0.35062480769286064,-0.07409054260461012,-0.7972114107996287,0.19374784423368796,0.39975328770669716,0.49143110473939755,-0.27812684960953793,-0.43202940816203816,0.4705749014279823,-0.4627923648620407,0.9576492407551118,-0.5816972819729256,-0.23351971422288686,-0.2684252634992841,-0.19385719847847982,-0.4077161339579145,0.03289159311113776,0.9777728435048456,-0.040486020013471125,-0.9317789784732924,-0.5056661269578484,-0.9718655909728684,-0.5832668296541441,0.8094471494850801,-0.9094553602375572,0.9441490895596336,-0.6390618920885942,0.02472779100059541,0.4969986909209976,-0.7731089927223811,0.8845839446605333,0.04485212070784517,0.08260668170169061,0.16940464162311142,-0.9690438878344774,-0.25207573013784823,0.8965033366045125,-0.35254027844435165,-0.08717305401063968,-0.3281364763960426,0.4615284303380678,0.5563759417959979,0.24713329233529358,0.8702067253903196,-0.26982978015756,-0.9254246166898488,0.09944354736654137,-0.029032429768413692,0.2892270308605194,-0.879683769593615,-0.2450623657091111,-0.5611709410429389,-0.9407245731352287,-0.6872319558300006,-0.31548623352814564,0.8791817007098082,0.4255354242972149,-0.9721854029468655,-0.2709061062865985,-0.2234883745846612,-0.5908457471291826,0.2966242069599214,0.3272931605317393,0.3963813095379456,-0.8975880845271373,-0.1136260877723696,-0.3855400045828681,0.005812379512167176,-0.5772720826550302,-0.876937838297515,-0.9997869192805318,-0.10745971675270027,0.5976318559269276,0.27865796187245984,0.5956926530757156,0.20474444983062434,0.9664182036672764,-0.13697259642815718,-0.2090426652152162,0.2214633827080872,-0.3222506836829171,0.13166148688016732,0.3714728750755478,0.9331749753938836,0.14553373188302743,0.8970485753973787,0.35498226773966435,-0.28607198786403165,0.37533618664726376,-0.07944747053620449,0.7997260632951741,-0.3044942044247043,0.6800364513783201,0.5372070126403894,-0.41406722902091175,-0.7990627583175571,-0.25422322026386635,-0.7067395815881199,-0.6404949036027365,0.19549513177785705,-0.7115420519052169,0.05292800161461497,-0.049038296587663455,0.6475959915265752,0.8713953539627695,-0.08501608228687774,0.015412984919734862,-0.32895363047149195,-0.8391752970482325,-0.33583957135236076,-0.8631835958198328,0.13550848535218418,-0.7498832925853027,-0.4450465322185828,0.3139702488079412,0.9007370551140876,-0.9576764450472717],[0.9169069938312917,0.494117489589432,0.34268412328898235,0.6639507326291034,-0.13970739104099494,-0.9282300525415697,0.6581399478984622,0.4159178397810197,-0.7567934713992379,0.03229737128830967,-0.6488981923447548,-0.9991210788255147,0.6435683557436183,-0.5559851006231642,0.05786152886060636,0.18066328212264238,0.6781047797420516,0.8095056780301555,0.5162534608064164,0.6646624063646795,0.05566242701029189,0.20685862287488543,0.574378049363927,0.2536945421308261,0.30921164558965764,-0.8721203437226301,0.5359060417339576,-0.32402423481562104,0.3657948056783584,0.40810445563609,0.5128021882767193,0.7826568282666753,0.6554427794262179,0.7820177457679975,-0.34989282883812334,0.32035977424264894,-0.049325554221867574,-0.23304768820666344,0.9788678432683051,-0.5386476310838613,0.4226895369447343,-0.5916716571861134,0.8424529822487323,-0.7061186881125632,-0.5871173566295957,0.0021934778994929793,0.23305983673652908,0.9516393593877115,-0.6330906602777464,-0.2135411054275227,0.061964679288319946,0.4013863651448999,-0.1492674054397356,-0.6634117261836618,0.7722712738314947,-0.9973035315954568,0.1871122811510202,-0.4601597232824488,-0.37491606387685006,-0.3771551717396666,-0.8574579768474202,-0.011529995465651366,-0.5822876963487544,-0.17038036530476552,0.5046974967159954,0.05433553029520288,0.14334408160836443,0.5604573237645365,-0.2797185512322067,-0.3698284861683332,-0.305735462194058,0.7651037829849843,-0.8519339728671051,-0.4397784066910988,0.5204464595832607,0.7909675943459336,-0.10168085010802419,0.22095751426846766,0.3027779672200672,-0.9107067075124475,-0.3194121865035231,0.6629305513336958,-0.9003625691597066,0.4137949138240802,0.6112452027713537,-0.6170605953041342,0.1733454824371945,-0.9472008366358016,-0.6245534976786244,-0.20060893959048753,0.5766232610775144,0.21886583709068197,-0.45011061626642146,0.6386953245201588,0.57284976086372,0.6968751778972191,0.024847397999576692,-0.7193391610454776,-0.7826164980206061,-0.7904993271531779,-0.3296784105049,-0.7479285302596548,-0.8511221083808744,0.6357009250661954,0.7245145957794255,0.723992053328854,-0.3089230951911166,-0.9313770733597591,-0.3783429313138915,0.46995040718937897,0.9304942834203398,-0.68243349238801,0.3124031937374907,-0.3201474580293422,0.34715945774044354,-0.16165987719729413,-0.9141066320190498,-0.22731713395962116,0.08498492964388782,-0.9829959150710534,-0.7000127886958365,-0.7500367912767996,0.328728999389827,0.37447166638216056,0.2583947645956297,-0.26732805786401936,-0.24724042280697178,-0.76581623855609],[-0.4642472804894522,0.01741313135783873,-0.995015214910894,-0.693207173955851,0.8974699075001953,-0.6348385805761225,-0.39088414696357754,-0.7585288673855819,0.857835613053052,0.28494611080745225,-0.2852233912731077,0.7155215760994253,-0.7501951506427695,0.011607401113471028,0.7967436872310532,-0.6552633202451057,0.5114854520689298,0.6527635357075736,0.16216810439011442,0.7859271453799461,0.5239288214604241,0.36953440307177576,0.9501369570250571,0.33093357491402164,0.2534760698388163,0.5039683569491691,-0.304638654674819,0.6389903743076186,-0.7459129035049772,-0.12181607845376341,0.6653213382550918,-0.8845304622172134,-0.40125885484873103,0.7946151550410394,0.5487568300926944,-0.6929908916696172,-0.17436017718422336,0.33799761906212167,-0.5240525604240507,-0.44945819915750174,-0.8975672664320447,-0.6579653119210693,-0.7797756628602044,-0.29388331618508623,-0.4876708296991057,0.2778405883690278,-0.2431737994017258,-0.34559806813980787,0.24661080808529312,0.2276814130068634,-0.5263888214439243,0.12053024529839362,-0.4442702161319705,-0.5868300265375506,0.8747491334228652,-0.1854362925220805,-0.6038070550024519,0.9585699563771475,-0.7271260153828747,-0.7936542088315204,0.08554915704959187,-0.1600177595519474,-0.9594355935516159,0.4546432836095404,0.17689169100229352,0.33271872430876637,-0.22564470113563484,0.2107837025666628,0.49313492495377576,-0.5859139754749179,-0.8291255211103292,0.26332536584362476,-0.20673035587435473,-0.749016541567973,0.5402869289935734,0.38436344630994856,-0.016559320350689744,0.2024401726855678,0.7612388265398782,0.812876025160842,0.9307913959246523,0.9669185086501588,-0.9932103767139411,-0.7573697817829674,0.7488174639074707,0.16013118655273662,-0.6239693265750805,0.9281604327940045,-0.061485374904517,-0.5021637193863462,-0.6932094945162408,-0.6674139447158418,0.12759599961096169,-0.9595829783482572,0.3714505512419044,-0.10761277409059145,-0.4075954431218103,0.32117817600716725,0.48686601584689715,-0.642090746504915,0.9874331414845341,-0.7837648836439275,0.6691898138445185,0.10785788276740749,-0.5853422151447991,0.9895380421459208,0.9230904146066179,-0.5109826458866555,-0.7899584383291798,-0.3891602921241264,-0.9287490660205384,0.32798615041346135,0.7120832831081694,0.6609739376432784,0.48025930108782977,-0.05660471524381183,0.09340251560453905,-0.07414675865491649,0.05723955884711418,-0.29487315924099367,-0.08507977745791262,0.5390538849653617,0.8921074107505611,0.47607338825501055,-0.16667395793064488,-0.5602741294577811,-0.890069186209048,0.592575559186824],[0.005696316468338791,0.4889616941210806,-0.6754546571045732,-0.2701207025129331,-0.5174855772631943,0.11187114471567194,-0.033312458445653226,-0.3234599497575319,-0.03324044114612423,0.9890479130424226,0.5123674200418356,-0.2408577552010982,-0.7011310649126941,0.2556073959952905,-0.37150878487445493,-0.8787414062507175,0.8544164699155574,-0.9954393020672823,0.3113433466907327,-0.990979769757149,0.9737200989343595,0.29138755451925635,-0.8673311375302406,-0.11518068895650013,0.40425211705018294,0.17135957941426883,0.3042901886357028,0.7979112597468327,0.9277573803541943,0.22231670873024245,-0.7017045688820189,0.4336415320109426,0.15885683946723517,0.14270104587855403,0.737140841958025,-0.08595485973241512,0.6898958724970534,-0.45236657147382964,-0.10542412394321077,-0.49417580356103663,-0.8425468599965915,-0.752323456266405,-0.3457104534795341,-0.01863336941912519,0.34217334547501177,-0.8474036147349211,-0.04227481452986659,0.5673011639949597,0.8374328652436753,0.7070577554504098,0.020458839751730018,-0.7254268348488417,0.3639089531793338,0.7553486896575514,-0.17569735847133328,-0.5693141258722709,0.9447709598413241,-0.9415701901180507,-0.31777052525201377,0.20209070443695842,0.4005881474458397,0.27354737371828985,-0.5710474336495028,0.9604703765583684,-0.6293407170032517,-0.5576233772346373,-0.9989287697675486,-0.152103036542929,-0.5102364319925907,0.8925976469572214,0.9325195573647878,0.5585912212687554,-0.2470792120540215,0.33635884064688604,0.006856831879805014,-0.6221117875524578,0.5165372417721179,-0.19213328768360016,-0.09928966312773557,0.00035411499190507456,-0.8436255246159412,-0.43386073726045726,-0.8457916961146583,0.4901420941441825,0.1082743317929784,0.2710770864499046,-0.45281750402626963,-0.3766108728459798,-0.45223526547022996,-0.719163068330076,0.7373677119448725,0.6893529328945538,-0.5974890235398036,-0.65639776116148,-0.8546485216636943,-0.6948486463243135,-0.3840483252283746,-0.402643183858739,0.12328071268961294,-0.5502494607027677,0.9968311071955545,0.3750534723521277,0.7399940451608691,0.706657944221059,-0.6700486147006328,-0.2895159143223853,0.47795772603530007,-0.9212234359979377,-0.8209922482246481,-0.9990423203175347,0.9681344657087476,0.08095037759082535,0.046989369009456494,-0.49090023813478667,0.8740034052990291,-0.8385116159196992,0.8594977976066802,-0.5450996486634732,0.5887661414341787,-0.6561269134152741,-0.29457632718336324,0.828995430115933,0.9537675009210582,0.6633218136720698,0.7743588327485156,-0.09939737169592022,0.6406099223038881,-0.9314331558558404],[0.7853632338425018,-0.8723737089262791,0.8963313261851678,-0.32325875653834646,-0.8445055968987194,0.9733896354647975,-0.5927556551284965,-0.34366192656110073,-0.0867262675097853,-0.47480844471652306,0.8810687172058269,0.6846645013003625,0.507839735059793,-0.7750768131109023,0.008874951410190235,0.33268880957657343,-0.9187484404293544,-0.35805376512431586,0.04869427386994474,0.671013832190666,-0.1902082840767676,0.224825576765318,0.13936044138376302,-0.6607306051468946,0.6701873697374057,0.31622024831601925,-0.22778282990129295,0.1265119379768025,0.7437360866258178,0.5456450766843508,-0.7273971839012616,0.6308183782804175,0.7861047301920399,-0.8763844247199752,-0.24430299342317197,-0.21076962691374956,0.05719814286911662,-0.9655998169265658,0.35068022733789306,0.356257998513974,-0.19817992805392293,0.43770565168948505,-0.2194028839315083,-0.7792554117378274,0.1376931182587986,0.6164108286446928,-0.5086047960909603,0.6760338984997627,0.4119777591873355,-0.8854374421703812,-0.3756295760707302,-0.8540296543864916,-0.7250602715429844,-0.7854133075848369,-0.21085810320738063,-0.011124059008019493,0.5009266274062825,-0.8928046297892356,0.23188361184996298,0.18469544789369396,0.1208900047368422,0.735292254643602,0.7805910392317847,0.9883947537796269,0.9709860004553881,0.5757604485401786,-0.20265128162363788,0.9112057109338954,-0.32067344039301027,-0.715823351664781,0.8230866955117304,0.4573788960315752,0.2633174472769755,0.528460160629401,0.893220560482898,0.3462971113994575,-0.4655004623229242,-0.2966927372802859,0.1383296229083455,-0.5017523469136564,-0.4871555020379972,0.25138420041770204,0.20662041700449874,0.9537185406564992,0.05174254823049518,0.9909494720453336,-0.23092048063834736,-0.8653148622524511,-0.7059545287252302,-0.1410113067898684,-0.1518773692065949,-0.008845709345689734,-0.9631664347612663,-0.5579335826755367,0.19030933587038046,-0.3966454249876967,0.961535128804982,-0.7184223010617676,0.36101494713136106,-0.591940826356016,0.9228618907942252,0.8248593353516596,0.3075262959892926,0.6097394797935392,-0.04961667929832059,-0.6391871869616883,0.0400429347132345,0.6618521720240447,-0.3564596017217574,0.2754990041035683,-0.3010654344188568,-0.620793890067505,0.788424522774585,-0.7480558774501853,-0.926823459587786,-0.46288594848744724,-0.2185239987146006,-0.6823062209734221,0.4496645424713208,0.5314491288824301,0.018204293385353898,0.9555287411576507,0.773511822495162,-0.19587075814215793,-0.15428906298893197,-0.7357041408201228,-0.6501798641874017,0.7040083250288012],[0.3437923126791578,0.2682987902280103,-0.5677380651691548,-0.2047723804944228,-0.2863730757429528,-0.34324059541199015,-0.5742650028686014,-0.0463659732419639,-0.07799775115604679,-0.5728088151299808,-0.046121100285655636,-0.42138784760263337,-0.057682668057920994,-0.1185281243313494,-0.661708659110579,0.42244732547544195,-0.673503692057309,-0.03366554905449126,-0.809239649451208,0.083396858426521,-0.30779490800145926,0.4472410359619605,-0.5459339102696816,0.32306282409429077,0.6187610524422091,-0.4901914579060729,-0.21258696620908268,0.4305590145397655,-0.5138911849344254,0.5905206204473852,0.07184610403417024,0.4809161990923778,0.4739269042680414,-0.6251295366123337,0.8823354218671873,-0.12114461188198367,-0.07181820252452686,0.2474782571527303,0.04872288581017892,0.6432885751665236,0.6334348421307481,0.93538043653758,-0.24639308505223134,-0.014453140348489546,0.2417722187529039,0.5198353099956978,-0.04031950621854974,0.4178726236342931,0.11981651292883178,0.5773531599824904,0.033377695293350884,-0.7729890015946326,-0.22928267348236409,0.09319224867420695,0.7891466703206809,-0.15863965824359227,0.15630217977452077,0.5164636135899747,-0.9227856841005209,0.7439085922040263,0.7928191133804638,0.48792864448183493,-0.5643328834260737,-0.9331446449990408,0.03966505691587652,-0.37856666430871355,0.7091468531437188,-0.842392727944141,0.4693081725836865,-0.15240634874582604,0.7891565235920974,0.5963329620508278,-0.6998133082010287,-0.07951959306948542,0.08446057206498514,-0.8268316311565043,-0.7205047946867242,0.6247255535384719,0.8185371845246043,-0.5451313749921014,-0.9270558469517429,-0.1307892299507183,0.13473854292195253,-0.6655324093457031,-0.7519595583533742,-0.8268978330870407,-0.15163935736560386,-0.6120844395797651,-0.3445938208204242,0.15219265228343182,-0.6780916087554454,0.6636839341631562,0.4790009887891702,0.03011529211533981,0.6142402406164371,-0.33278026867337585,-0.7505084816115635,0.32677842840182914,-0.7676318875662931,-0.41379149829617257,0.36172953784994366,-0.5302288361672896,-0.08347276663723369,0.47925145090109744,-0.9490708110272252,-0.0017823328917105918,0.9410178031422447,0.7447698718906617,0.15959382786841347,-0.017559781968033983,0.8923706418408839,-0.32716295754708646,-0.7269125418955127,0.3664031095113087,-0.534214879733065,0.08622454722931727,0.1663899434316345,-0.9651280974557783,-0.1325640714280243,0.5799577619818148,0.48976862508034924,-0.4555055531630823,-0.7301943938689712,0.08023672321015574,0.2744287268832959,0.3419235331860617,0.04749538567003553,-0.7507756186312355],[0.03934854833618551,0.15110090045781632,-0.3347577819732641,0.6202644564669137,0.138937557215709,0.9223889578732412,-0.9994447138444904,0.15253261928721384,0.2490564034309044,0.2550143592043559,0.5278087658390018,0.7174919602204375,-0.9688338729253534,0.057207646545887725,0.5791064969686239,0.18932845575920298,0.8921944522250449,0.22846932312957424,-0.11887797489340612,-0.0559550821941317,0.3040963769925773,-0.8864667370434685,-0.6607507335628722,-0.7903844662276327,-0.18412638964758377,-0.8305245103474774,0.4990845033979805,0.09540684653518516,0.8500942568033851,0.37856330238790625,0.012813180012070546,-0.22101207928497346,-0.4825192154695874,-0.5731711616123596,0.7415730972235897,0.732757158556633,-0.3745972645068867,0.3187304313615926,-0.09845788379483777,0.6116959192271478,0.3720227482515246,-0.46822385865835514,-0.8514504293032874,0.5495768062519195,0.5289680058413093,-0.6214489191687631,0.6217215389632476,0.385318863045665,-0.7849690646649883,0.00591527750807086,-0.4527526921405711,0.2541245316400291,0.558229892944401,0.6257411108165802,-0.2104697407462941,-0.41685846910813784,0.8174334874004359,-0.9885472670886928,0.765021367855329,0.2625738050107518,0.46071800385234085,0.6441903186751619,-0.26053677512246054,0.026192761522473518,-0.08729488443859768,-0.9163027536567183,0.6111189226923575,-0.8565475657563166,0.5677645531750815,-0.3252205715709535,-0.6714443105807186,-0.5644943411318284,-0.8543955764686684,-0.8031319483542387,0.4865468065484633,-0.789653977986591,0.1693914494876818,0.3221546916048823,-0.6914848576819117,-0.9227376369888054,0.5303080997434273,-0.26052612563978683,-0.538106319718533,-0.7985644345487715,0.11068482992057183,-0.09599751829288161,-0.8740174722500089,-0.4781752387080018,0.99278138283558,-0.1622496557971509,-0.10556952712351153,-0.5212333401160445,0.9449979318954371,0.7902691249029261,0.16413049970642168,0.2796464284769533,-0.6114023151728325,-0.5403072643315918,-0.5885153060673547,0.9093273106808852,-0.11042464964095067,-0.6206079350502816,-0.3959015804337258,-0.8057207219395341,-0.9103005328461169,-0.4638171093309351,-0.7608840827968988,0.4015236681701315,-0.28070065961705515,-0.8872248926514614,-0.24500875712629933,-0.6990603497457619,0.3521129417046496,0.41579392711509966,-0.002620917517688115,0.31429520704107317,-0.4455079238561037,-0.10984390188749349,0.1969988865058614,0.6000848066262872,0.9579923023753243,0.5479364348964797,0.10171688810418855,0.5877713073712809,0.8240834135289155,0.08434855078676051,-0.9516825166634677,0.9287382836275708],[-0.6704888801115931,-0.11232500290900727,-0.679154580854002,0.6447507457525505,-0.8558123290832087,0.7018599943662684,0.938751390675181,-0.41000935302784103,-0.28959087294861585,-0.7669596261686829,0.33662877526776347,0.9681161973631178,0.39981110519909624,-0.4934058532663246,0.36882891917254823,-0.696539811391611,-0.9693386720430073,-0.7078633792130669,-0.8299142664033559,-0.1972498830143845,-0.7033422690072741,-0.3402729980163832,-0.37583393050638514,0.9949853402218651,0.8589829437159548,-0.8942254493275648,0.179032260509024,-0.9523297618782136,0.7423519170331254,-0.4260472058008935,0.06951975423115853,0.5085476587352831,-0.5825127625148132,0.7928603012159645,0.3331215331125308,0.8893237417270157,-0.5342895766117379,0.8216175245889021,-0.8603236432738421,0.9399211954861506,0.6285477357609504,-0.07887946439397941,-0.3517687146161401,-0.11226754261023153,0.887207429535199,-0.5528090979105735,-0.2862600589496551,0.3692153429034779,0.9798805545655895,-0.9097503389853316,-0.999555863751296,-0.13037333322439948,-0.3072589175795153,-0.6189876680442807,0.30281880442356424,-0.052570350984698644,0.3911793180724841,-0.25222573395652725,-0.13650663328411228,0.04928876574324881,0.502736541423898,-0.7109301701153175,0.2201701703088308,-0.6666574952179867,-0.6371392292231093,-0.2522358267757585,0.5716587544452143,-0.7083501379040433,-0.3824393508679593,0.6941700905273775,0.33297570650641584,-0.06915515202656608,0.7976371128339415,-0.3413135205818312,-0.9003095087544497,-0.6582331603640463,-0.07418471813618499,0.49652091400757237,0.790893374444329,0.46803789436237175,-0.871326249888315,0.08241990974350832,-0.44795584113738607,-0.223751373304389,0.8039072053118068,0.5947519394868697,-0.6093692837292544,0.23106437430948978,-0.07338893090721599,0.7941858945803271,0.9103124856370812,0.7731721614386111,0.4567010067389923,0.481154537538107,-0.9913710923556045,0.4677606898113056,0.941186354556492,-0.8867168202370801,-0.20665180576152586,-0.9873482863284224,-0.21561963537449857,0.5835090771453295,-0.8520066724496649,0.42974892542663023,0.2996460033189252,0.1539707333839211,-0.8368164326768894,0.39941577038829834,-0.8098805755155714,-0.737512624182274,-0.39505094212609615,-0.47756875389691045,0.9396598967733434,0.9254391853501223,-0.4743330309709488,-0.8457077027778384,0.31707864363836036,-0.5011140632604774,0.724764479312987,0.6523814286573582,0.4722487806594,-0.6755155587136799,-0.06535234576408877,0.34364907467249495,-0.8845596306769907,-0.4715585418527537,-0.7789067819808295,-0.6357821394089183],[0.9288488123994658,-0.2824382471636733,0.6432842700346646,-0.7664755665316989,0.9089527250632043,-0.3871463730602551,-0.1158768619636883,0.9975318852718107,0.5346725869390339,-0.34792839055633484,-0.756459818521912,-0.2747362277776788,0.3555912514631092,-0.8081205581951274,-0.6447397820846243,0.47703646915664355,-0.1696810743359054,-0.43688160904709594,0.7570077002537081,-0.6391397095996831,-0.1610315159242639,-0.9479342512936104,0.4810972771828561,-0.70816305305666,-0.7074076759355683,-0.24097260627759698,-0.07834981511025485,0.585471699225316,-0.4646312470964833,0.8114072427039958,0.1679767429823109,0.10995380923471965,0.4057301300472558,-0.22755328412239062,0.6108475733194736,0.5386577256663463,0.0948245327791748,0.19568487864754092,0.7342360402872812,-0.7374777289983765,-0.2793516596662775,0.8444924942774412,0.13281087073602582,0.7962326296641216,-0.599465885292598,0.7807934796991771,0.2084708593315836,0.02103168176933612,0.3969408084602062,-0.2694073758381639,0.19053888054615808,0.22395635571178674,0.8741034467342883,-0.42481964150340445,0.49804175008720986,0.22873508257526676,-0.9794436389896413,0.8515234783271108,-0.16036603879703049,-0.4926934550729347,0.8131697188783513,-0.16436825497633545,0.011769143790334002,0.27511083568148553,-0.11060300951776436,-0.3089593750047206,0.9696877532283577,0.5802691711601529,-0.1527907736978702,-0.6619850470565383,0.039888720442937675,0.5144156943006353,0.8343210078599896,-0.0713581292071428,0.22306717872973314,-0.4972499841840541,0.4170731078296319,0.22494478639747095,-0.05509710272448465,0.0863782463521996,0.5945073130265563,-0.792017015585861,0.3038016276015312,0.2114097072759562,0.6342907721260416,0.16782006318078535,0.6865871601451077,0.17057015118992558,0.5139020510880463,-0.4943983272065795,-0.11392994287594349,-0.8553215186617962,0.4182231417955138,-0.6480820449153692,-0.06879949193131085,-0.21288344597332354,0.043162232281671375,-0.3724423577897229,0.5177780472112676,0.07342160287657262,-0.6315805085623845,-0.49808064807609753,-0.5677197700628069,-0.19726023233156553,0.2236169603140301,0.10607614954604405,0.3963987833436595,-0.0015971453325211993,0.5254847687771169,0.22569296794693194,0.10734695377750958,-0.8366943319233888,-0.9189104551375988,0.15282987392968694,0.5533720630361816,0.39798314293645265,0.026066662508035465,-0.4745873692573235,-0.4896339187062928,0.9840636025289016,0.9625489720546554,-0.8413509862315784,-0.7874220587900895,0.6592956222635755,-0.5726837299921606,0.860900419641065,-0.24306664697113534,-0.2671526659777008],[-0.20841124221142482,0.9722633052458867,0.9928672847137743,-0.187369272636148,0.27801177618098705,0.8412505519121718,-0.8749336400434577,0.4413218743730547,-0.46380427483747133,0.3853833899970531,0.8888285769743214,0.213149649416162,-0.19872551227554003,-0.3683882104897638,-0.7042975402700051,0.9654979926003229,0.6803222904496828,-0.7971584722646377,0.20378641896845684,-0.07395109272255906,0.8733027120809245,-0.7721714617872979,0.9802392284867905,0.9461906884805205,-0.3800639204607372,0.0017835652887214781,0.9097058126574216,0.7595110365967821,-0.6369243100408657,-0.5092553198259391,-0.012915294746537631,0.256167378753988,-0.08327733564105744,-0.6309785890855462,0.5430211577659347,0.16236634814922501,-0.07466037802854708,0.11701200965096326,0.721966818971584,-0.7668663072827657,0.895136564851039,-0.5562092758446897,-0.19764903223569696,-0.6030303597515041,-0.9860460131261157,0.21846886687949807,-0.19677788961162923,-0.5527695603901532,-0.671703174180525,-0.5138268806355168,-0.9132264356342683,0.3676545331327492,0.9479514718818567,0.6265429771124245,-0.37037308489025356,-0.09967398039004216,0.8916435872250237,-0.6266998189738406,-0.659333783090621,0.16886912185534242,-0.5111971080955111,0.5872575696404998,0.9125859081351322,-0.6639368971749486,-0.9717580193593327,-0.9211897756698095,0.023769394596871996,-0.19896511381374227,-0.985569432515927,0.5598307957452491,-0.8354469392108623,0.5724514608676041,0.02094511551580025,-0.9345373649159383,-0.31982902450297757,-0.2934757072391987,0.3674565225346311,-0.026295546628891442,-0.6177254438046393,0.4658982699834564,-0.6484363118713123,-0.33589212778145483,0.5458635327790682,-0.4730007646972574,0.3821510206842522,-0.7603147824477807,0.500868017726904,-0.9849635872308409,0.37947164032538105,0.671502578626878,-0.25788579109134435,-0.551595180309872,0.5135534965151389,-0.641060636787306,-0.769776111184127,0.23872042278536254,-0.04049223801370805,0.5835951098702361,-0.8103165783080433,-0.7779670980606335,-0.5900862984999393,0.17660964513520083,-0.5811851866315207,0.6188005449856886,-0.6379555987900836,0.5444312249247665,-0.25433457575850604,-0.5835827358451107,-0.1268380497055328,0.17936680009118144,-0.293330556399344,-0.5144486766525986,-0.588822623730257,-0.7281085984323943,0.570805616309362,-0.7452303220222969,-0.9123073124995944,0.024028592640605417,0.6277876646341447,-0.08942195461751701,-0.8829526767462401,-0.7770208742659004,-0.8138922849308752,0.501591477726177,-0.045285844917098084,-0.562211609571756,-0.9816236655873543,-0.2338520828241315],[-0.3534589406618116,-0.24961045299249895,0.7032425516348118,-0.807681745247036,-0.3177221805795116,-0.9565062078811015,0.8110570508411414,-0.5078177807714697,-0.6813450659978868,0.17429044239993385,-0.5784470301209113,-0.15183884021714156,0.8252898986526651,-0.743369594438966,0.7890070179374244,0.6534514908310001,0.2308145117474989,-0.20923357998941428,-0.05518788800751917,0.6773902358864436,-0.9703735333947088,0.2196254621785363,0.4616445718118163,0.12447011346461756,-0.41789415949543973,0.9338482001224808,0.9699132512776192,0.5580333328208404,0.6498282249278042,0.6721767171266675,-0.06611375777825779,-0.7654896897951606,-0.3402206469909166,-0.4924785198616901,-0.4757135341925456,-0.2409023275177984,-0.07369999572715624,-0.8495973480779149,0.8515122970111142,0.15018387565647218,-0.31978193607450334,-0.9556213913166685,0.588089068804601,-0.19934648161809654,0.8236519335006156,-0.48183077389079276,0.17745424134363175,0.14338061967408144,0.7585056638112428,-0.08473448117231208,-0.6772119309060467,0.0645333396037957,-0.4848558702897263,-0.6696689488450562,-0.42243681722793935,0.6858943214236333,-0.596940424579198,-0.8852567609830884,-0.009586178112378718,0.00019821704765288217,0.39891032174239505,-0.41697833365396075,-0.2408373787628424,-0.3998721642966898,-0.1564222279009324,-0.22976062054442892,-0.36384657891714545,-0.9135798280359246,0.49819600765248984,0.6304627634772808,0.12512769321205885,-0.5174379511956011,0.4552163834292071,-0.31868714675621757,0.5241900187132629,-0.7118445096667532,0.30195238526764556,-0.8322823039768952,0.0731409687312341,-0.11813192134393535,-0.3602316638910579,0.6877241680854143,-0.6703175025676762,-0.8132489667314216,-0.5822642220747631,-0.05813594919776377,-0.291921874664963,-0.9737432012341785,0.15575914390731205,-0.5057359146686111,0.38817392892054414,-0.9044464218596548,-0.9600948822717934,-0.5312134425010735,-0.3271488412727943,0.5277260673951745,-0.12399696171468144,-0.5099885202502918,0.0724028868799238,-0.7021594233722026,-0.26232775194142044,0.3379585778402221,-0.04250754189859052,0.9747042810605702,-0.6397004541922493,-0.4915512398794255,0.13164647323671863,-0.7174270318025073,-0.4481447673640264,0.8434516936696823,0.07498146939764516,-0.1476704967019835,-0.8127083035028546,0.05548933409020962,0.48933356311102627,0.6692148166672314,0.22822285023142985,-0.6778741238660362,0.17972478064133712,-0.58085432186436,0.767498169563513,0.6335461866684191,-0.4079327004681661,-0.6814147692494994,-0.794196216834278,-0.7154671351579978,-0.17595345161383258,0.44642785033677557],[-0.036635411206813004,0.8145467612024325,-0.10928709758558124,0.8226682695345932,-0.6725996726149037,0.5260220899302542,-0.3750632451915698,-0.06647174920712436,-0.7324679759747365,0.8003239505144522,0.7363668418481817,0.10950252117438979,0.866039653871044,0.859365899792045,-0.8337960766958117,-0.11760414096200898,0.5645929236247296,0.823589726747327,0.47547963665891296,-0.02500132839225088,-0.34425507055159266,-0.2616934580100242,-0.42675468319562293,0.4642197803175504,-0.5087147201469732,0.34699497467552026,-0.7465661548763473,-0.47423199269989247,-0.6212634347706549,0.2601456204025716,-0.6296280859143748,-0.2511510598855129,-0.853966542859114,0.22545244001278922,-0.4654870404296232,-0.8537594467139924,-0.5168398381946627,0.5087051654017145,-0.6215546030363139,-0.7449897278345308,0.24461986462653412,-0.030913660858694472,0.1953075610464158,0.9371042084241044,0.09886023879564779,0.4182831075832603,0.8810311572814787,-0.49640556194256114,0.6265420061874853,0.4743835734702159,0.48244027599594796,0.45731265615865957,-0.3547923580816514,0.6873047607686387,0.2749035158337358,0.8578627572542129,-0.32255782312846876,0.5969867063587393,-0.2975425714437045,-0.40584156876485206,0.9264233258575363,-0.4644082538398993,-0.8683658852482904,-0.7954048930800185,0.06906836547105807,-0.9823991328877016,0.8407271663865321,0.15415663103507232,0.8285006871977256,-0.06946497786554093,-0.6773639341868106,0.718060457925015,0.9412651107211633,-0.48245256255004004,0.4763492623740726,-0.22365202728838293,-0.7573528814145737,-0.5905752206632532,-0.6018494386964388,0.29175240344720743,-0.8863419934049326,-0.46787247573400803,-0.4965188838406823,0.826294473826381,-0.5176880191996672,-0.6087743258483115,-0.23076988953812927,-0.4521831121268784,0.21062021177361867,-0.0062950950360805245,-0.5648351120575509,-0.6879956735696082,0.5862648150803296,0.6772673209237983,-0.31906715520144024,0.8782167169785707,-0.44470028081987456,-0.3922905704886428,0.15211975758582744,0.4218526328835413,0.3523010350613369,0.19265271702109527,0.16849319719358147,0.9439403718905824,-0.7278964512974507,-0.9922182726017611,-0.4424440542480799,-0.6510664108906313,0.6656855337680405,-0.2570190154068631,0.19068817445450267,-0.7262455840648424,0.7742755753075274,0.9537172542070301,-0.3756375796842228,-0.7671461739609592,-0.26239123935000014,0.6108498763963565,-0.873834202954138,0.6501229515813648,0.9111844949473705,-0.43294120044566,-0.6084831349967117,0.7831599120210241,0.8925119554582082,0.353846040391521,0.6851241452057137,-0.7440757575403599],[-0.8226470706334759,0.12422675593946175,-0.2808658368881491,0.32031822925346864,-0.32701852131475073,-0.5181917750946682,0.6396746477084443,0.8212714102892994,0.2681934366344171,-0.04945359614362743,-0.6791881140940333,-0.2946658402669083,-0.7909097645765361,-0.7556263795579119,-0.5920845302692289,0.6844487900347123,-0.0029225624007777275,0.9095676198695746,-0.21952654829194673,-0.1799791569312818,-0.6076246479331006,0.70579728932157,-0.38146606832457947,-0.8990638533011029,0.8884315036468381,-0.6233899152105037,-0.005272705935128955,0.4729981466906463,0.3349706454474129,0.6774531133253485,-0.23910794599060686,-0.5212208723587702,-0.03559386576124795,-0.84297214537522,0.4621001764009764,0.1090785474906199,0.9575832287630226,-0.01886131764887462,-0.6243366631818184,-0.37700848781538887,-0.28040912422125713,0.7652257434795087,-0.1775303299609332,-0.4785557114171822,-0.058400782712096685,0.486670974935984,-0.8301791160490263,0.23303869848299671,0.9834552257523703,-0.8371948442918915,-0.9484977009760721,0.5637051512197625,-0.44295438228015155,0.9247085288552631,0.1416767371883979,-0.36768045623379497,0.19339694244641606,0.6170739160481875,-0.9573939806029491,-0.26084101063405113,-0.9716778459894849,-0.152646133704723,0.24188627836182164,0.7006881270440284,0.12539854943864334,-0.7441201277316503,-0.8158611465491366,-0.7814425807373002,0.5110659290183948,0.6833058921823443,0.8660612696377551,-0.7373097231715326,0.06146975834729997,0.49187697085537835,0.8410853214300446,-0.36202119759770024,0.2644742958041462,-0.03038849659097793,0.8792911639458091,-0.3843859079166665,-0.028421282060316123,-0.3286466954001273,0.9292153576439044,0.23097611288524328,-0.2799215392092137,0.8622879515377108,-0.060417770604758565,-0.3308947651889133,0.7354082445655685,0.6815555273203862,0.8993884708771998,-0.5267617726591638,-0.5339408740199382,-0.9612456603442118,0.6132571958269551,0.39695590743730574,-0.5084018909016723,-0.7199992155591292,0.45416341335953536,0.5299673783295581,0.2094447589192302,-0.519598008829035,-0.2619567389041517,-0.9185111075404879,0.7730980083772077,-0.8662585032282376,0.23851973990306582,-0.5848049904730228,0.05756462204560383,0.14807986497782438,-0.8546113216715968,0.9662200720326544,0.7291444803367054,0.7264001493780731,-0.9575466554815592,0.5516344142938455,0.699041108530819,0.8574578790629441,0.021682191122607962,0.18943530822095192,0.34684753113849565,-0.6335633256248213,0.6705457938619647,0.7676164249368141,-0.4348543364700832,0.9401720393643976,0.32544530724594434,-0.6786927584073955],[0.46473878026899157,0.7339438630078782,0.6134013908347571,0.5236826602590775,0.764999795206405,0.4636419502543617,0.8811265826357094,-0.7482227500299318,0.17074500690341743,0.3577237898018495,-0.9659562513570057,-0.803028390378931,0.0437215137003798,0.014229047275252744,-0.25380250258619147,1.0055035605186402,-0.9323403634094255,-0.6252196171895197,-0.5911905340426189,0.5522737362076537,-0.4102784786257776,-0.9078347098625976,-0.10751411096893367,-0.7095676060867124,-0.11313864617000095,0.515585419127766,0.46098201060778576,-0.1844243831128878,0.8040186641333691,-0.8473655983652663,0.832328832201265,0.7760503209801725,-0.7433149463794368,-0.6121732444193151,0.0704654163873395,0.22374954254402504,-0.9634761462206133,-0.5465923562583399,0.9677019863333863,0.04850960946288416,0.994557361561046,-0.6143844948693465,-0.6660134548670132,0.9128993234439466,0.8505554175296917,-0.9307818760422234,-0.2522270979097269,-0.20926496107400802,-0.9202718560189609,0.7938265757869698,-0.0236112122865399,0.8625738725515985,0.9775218719665622,-0.7066019023914488,-0.4702075723162187,0.6803477469024383,-0.9722273000058236,0.27235958340936817,0.1652047818098415,-0.0450056748364027,-0.9533251129487256,-0.8826668809701477,-0.02901119118703586,0.21909762929384835,0.18407266604508407,-0.4147748277772846,0.730737096718525,-0.35163714361340875,0.5196097865540683,0.2539381415525831,-0.6424077849632598,0.32332195076767684,-0.5347981436345361,-0.05154762390175888,0.8910961366018669,-0.8315058603827201,0.020368160676425585,-0.9597777551280722,-0.6645433391122013,-0.7720180650844477,-0.030413631044393763,0.3044159642543156,-0.1343874477401113,-0.3487243214228359,0.12132595441449355,0.8268581063280064,0.9572081643462046,0.8839392711134395,0.15291476000074528,0.8829399520137652,0.25843640032747306,0.4494888921994099,0.2153909365437622,-0.7722359830838709,-0.3556909788915795,0.16055729096738172,-0.6057564456613586,-0.0027524216484737254,0.07920005637020698,0.6099407060228379,-0.6401123136135524,0.9380665643004886,-0.8179237189581459,0.7767306262991639,-0.6806324754611915,0.4837493795725656,0.07468531536576953,0.05488069787878815,-0.42786291395402354,-0.05574769259949891,-0.7212480208464287,-0.6323572470507935,0.13306172559879184,-0.6923936213109257,0.8276085750700634,-0.5696328101299223,-0.7108802024165323,0.2613272850480044,0.31338550439594487,0.40047969227557867,0.28516258908593745,-0.4916261313251297,-0.8845872926219126,0.07808377781844798,-0.26598244715922664,-0.4701722711030299,-0.8612536918431727,0.8744513787091415],[-0.07529057896485306,0.8642002112368685,0.4614790294075977,0.9556076487989774,-0.28715333538372084,0.42071931623041264,-0.4202542830315735,0.10962969696826963,-0.3732211276306964,0.9542326110870331,-0.08385526230779036,0.1733333459576332,0.9795515328738265,0.3501286316152645,-0.780283310357019,-0.8914201365340743,0.01953734123356608,0.5648035648639329,-0.6572618933407344,-0.1476146530335812,0.25636551436735916,-0.4019106749881167,0.9668416858311027,-0.959261974849739,-0.11648046391936831,0.5125782864483412,0.0915926136775353,0.027020017381425718,0.1945636276045468,-0.7933852045204988,0.1501280673199417,0.39564806024036114,-0.6630077346463054,0.7532236851012859,-0.14221987639516792,-0.42068191011147604,-0.5824757727572537,0.41594033743893927,0.7509052908744501,-0.42576096674703384,0.9251009885141603,-0.7921589062479734,0.8451499176142631,0.5682885435987198,0.8025462267679734,0.10131421660078024,-0.21584806313969537,0.25619482038526803,-0.30747603263153905,0.843941798966069,0.18002160291999367,0.048689813943691526,-0.9440762431639124,-0.22191615120601355,0.5229928454921371,-0.900987321774712,-0.3587170999775278,0.98259397786799,-0.07876492417233316,-0.48653872895244127,-0.7983506443472947,-0.5781174438794985,0.8832682373922491,-0.5947063943353778,0.4597491117764541,-0.7216668810164467,0.1773176720973293,-0.6990349748285473,0.1980730275452149,-0.3219352345660253,-0.6304788399855334,-0.9648018548030012,-0.9917950465166657,-0.6601926565688159,-0.47555152174279464,0.0891048238337291,-0.4556276413432221,0.6738235010575914,-0.22927049098096489,-0.964622855820869,0.010981823556030876,0.35706092214542445,-0.13499451350513053,-0.5555062906393708,0.07875354376166642,0.8145794615607608,-0.8956406848888856,0.09543327016568613,0.5026132049965615,-0.6574510002658532,-0.1148361196186142,-0.8754330221778324,0.5111103480314837,0.5202610903562128,-0.23118707080274659,-0.32587264980768277,0.44381641698642327,0.5741388816483841,0.11753502301091671,0.5717101285862538,-0.66102780527985,-0.625428327408967,0.9422657505771034,-0.6431895618502325,0.21171092720030865,0.8025018276515525,0.7769769874577519,-0.4650195415248451,0.11090615881363548,-0.8692661196216265,-0.5264997907714236,-0.6044985450881191,0.5610805235631571,0.527980313769867,-0.9585949187281207,-0.07509185666437249,0.5979620296397249,0.49320489189387956,-0.833987672016497,0.7039803445700911,0.9838993961693031,0.3942343108148991,0.6084851772521183,-0.4596972510079572,-0.1274943570160815,0.9646687611348255,-0.2787068303019485,0.5839216314979166],[-0.5229922707592011,0.8269498086013208,-0.8204978866678835,-0.22603183909265914,-0.48818082199577817,0.8867737270060156,-0.32360893561229626,-0.7832922211444895,0.9581464273050095,-0.5220373055553431,0.5812268364787019,-0.5498332460560325,-0.20690323818729864,0.9130055647718708,0.19743783593835096,0.6269567727446118,0.7771107760449018,-0.33028563577810083,-0.9038767296123777,0.27509407231328203,0.5550326017477075,0.8822712971046492,-0.39606039235185375,-0.6363148391412192,-0.717671465884014,0.25072653340864165,-0.26271032507540926,-0.9904377290655821,-0.05891257149147747,0.5801676548115772,-0.24428818600296084,0.8863831961292054,-0.6221920112688832,-0.08466326455093727,-0.10645681346438401,-0.7285757487207832,-0.8952008778705101,0.6357489690371709,-0.9286893892097454,-0.12171496150028373,-0.3287492333435304,0.1434302523508655,-0.8178169516489959,-0.17392437879765535,0.37419540411408475,-0.7121131685849279,0.5090029949610593,-0.8849167293632143,-0.8399510394769155,0.6828933802990524,0.26291200701767686,-0.9896063439976673,0.48046406205309533,0.5189425070215189,-0.7986709415940448,-0.13756145714152854,-0.4550712206436,-0.7081720528077375,0.48990406635514694,0.5434952293425022,-0.5507954229812139,-0.396930383462968,0.08573173572824468,-0.07992978878058056,0.5558537767674635,-0.367299035749976,-0.9794202243464634,-0.6778229870120399,-0.25738697172546376,0.6551168867272711,0.8097930393949154,-0.08643603331887209,-0.7085047541125691,0.6004910981453498,-0.16423857664705296,-0.16396089041470466,-0.9930217080707312,-0.5604085738565143,0.8780662551919831,-0.14062202865937998,-0.6118757722605623,-0.24127953943290076,-0.9935856722776617,0.8410255973932725,-0.27235481238085085,-0.5897989538799825,0.5313363084762173,-0.8177896066860751,0.39210754579887686,0.43742069806326245,-0.22121531039593403,0.10969908191507798,0.15334181094565888,0.38770580530649823,0.6477482181878961,-0.7908534712695017,-0.2609859587513185,-0.2712962921957148,0.21418867788762141,-0.31730506175345846,0.15188574528358426,0.3421422190589294,0.8868434351226723,-0.40501439721379584,0.9302649569930348,-0.8753835870999886,-0.2871595040226073,0.23416844532262474,-0.24860813731856266,-0.7675690694837445,0.9046559759861058,0.7481845060886742,0.6747875602122383,0.20661223243688367,0.48328166104825493,0.47045566240691794,0.025707733524965273,-0.12139237095777308,-0.3386075247512751,-0.2638465174811682,0.1146221421945109,0.697268940483549,-0.47345308392341284,-0.05790574437782237,0.5527092144990293,0.42591267372838726,-0.12101164101615061,0.18002289026266632],[0.06908613430633052,-0.2784526271740768,0.7084322764526807,-0.8995897049720073,-0.7102964294056417,-0.46845754619391294,0.9008303288043557,0.4070173950295919,-0.22317531329809248,-0.35889888817571447,0.5609855921490635,-0.9099126636215047,0.4139184795299886,-0.06943155349209518,0.21416807697704454,0.6990613418352669,0.09465198258426046,-0.9525285351053772,0.5790348904233065,0.15733569577761322,0.20841580438270224,-0.3848886264232903,0.4741466743549439,0.296081432893866,0.2977328943460109,-0.6939967434889461,-0.6073085770063568,-0.2258095778576042,-0.36672061889459684,-0.8288303477114678,0.9226554109210443,-0.2291809957097498,-0.9600610565162637,0.2928032275471265,-0.7352629912850251,0.8652382187592599,-0.07726504990567529,-0.9209179630418866,0.19320408252906182,-0.5612202461206302,0.4218063191549545,-0.9566070171643023,-0.7788840100033427,-0.6940332941495596,-0.6156720004089739,0.4617175887367722,0.058223607459432884,-0.21962640113105175,-0.6531454478959099,1.000206986536732,-0.811795016245004,0.5564329661633965,0.19133973275082014,0.36472187013543933,0.5265452792315531,-0.7035455653250856,0.26638417657247293,