{"config":{"softmax":true},"layers":[{"inputCount":784,"outputCount":128,"weights":[[0.8666210586371672,-0.18210696233163226,-0.46726240632790916,0.5063751673969183,-0.8738474167143011,0.3395987457068228,0.6486146918422762,-0.9467569569814898,0.7595229319462609,0.9786429326100294,-0.6703460654315228,-0.4685607095503006,-0.21985491206058017,-0.42030788687532716,0.08564779032400827,-0.6704451996515368,-0.025287012441480794,0.5375718857237719,0.062194672595706324,0.4287817527432054,0.9797842371076713,0.851775984887243,0.7665485211751661,0.0749001511273022,0.8541362141235191,-0.19234196586816688,0.33469208104494563,-0.05280569080553854,-0.808061501666199,0.410022582909803,0.3940753312933536,0.053586186828343374,0.7363633968568875,-0.5566570418794834,0.5770950360126141,0.6540989596862297,-0.6866779391059485,0.05452954881979721,-0.2027902851910326,-0.25870098547922815,-0.7625527616832213,-0.7196027681909778,0.7828267524122738,-0.3525970650490675,-0.9516893872900183,-0.14933431918871864,-0.9719082239267323,-0.2949068396809926,0.31602348145997383,0.3153614829424687,-0.1155866014341198,0.994011169789883,-0.011037882623454287,0.05857080962294092,0.4713254113822365,0.04408172104705499,-0.6228323459167153,-0.68572454136794,-0.6626015872499555,-0.6791290260823377,-0.09706516749408989,-0.545073884325995,0.9309575940323429,-0.47155544659849147,-0.7187309319932784,-0.7561152254609937,-0.7876772882596961,0.7578202378730972,0.6908408840024804,0.17812427480304116,-0.14590498635992488,-0.034169748375602715,-0.42675984584911353,-0.25758051023179496,0.5281768172987715,-0.2776652033536182,0.8998145868782657,0.9206817350560568,-0.6932610894715983,-0.7766521873689152,-0.5120666122437822,0.012989494959147807,0.4927274832409354,0.26586440742548456,-0.32178096961015545,0.901034184638039,-0.3571337666401617,-0.9516197347753692,-0.4524299859848915,-0.1780221890114737,-0.027415106902363373,0.8626637373113613,-0.39528268554256196,0.44440170668315004,-0.6556290531187126,0.7632970350432784,0.1883810066216247,-0.13268822769578525,0.2841570990622604,-0.39634539147834924,-0.09089994175072968,-0.31455765102270883,0.4024505029577745,-0.26308714486364404,-0.2026260666765003,-0.16013764095269978,0.1257944351962086,-0.9237499378322349,0.31686211445507406,0.11856116444232634,0.6495683392833782,0.38558375691597657,-0.39746125677782285,-0.8221138725678747,0.9038745523702632,-0.28792945316512775,0.993107766552221,-0.4083202721814114,-0.8833199549282056,-0.5645932144505184,0.3388736733551252,-0.99308826087586,0.8167227784709854,0.42660409442239877,-0.20610409851595524,0.5757010083771545,0.4533383795169368,0.9479972061682684],[-0.4555576120446625,0.5782959815606752,0.39473455151426284,0.05256359692905943,-0.8118105398736428,0.4127902160785324,-0.10809783285260544,0.0020286703885668,0.7506310586238671,0.7653120769615234,0.00811829545922782,-0.028517853841329988,-0.3435577865331523,-0.42121224329504403,-0.7494318175644537,-0.8472546440794322,-0.22157820449245746,0.14147654916587094,0.6075879419257617,0.3322468738227369,-0.34718273102908825,-0.457481056056797,-0.39155094140210633,0.5846176405851287,-0.5479782602641237,0.778537366597164,-0.6900616759666953,0.750303727948707,0.2658310431165407,-0.41384275988799146,0.6408350908948937,-0.6313244916919281,0.3448519216919286,0.24327861772372006,-0.19650358654932654,-0.5215956470373799,-0.7743673384966543,-0.4102698474893054,0.42990706008884993,0.14831530813839855,0.3994538263766736,0.07705152524043268,-0.6614792312246107,0.8627688491378609,0.506781369355142,-0.6697275353774488,-0.290319863390492,0.6067531980034477,-0.8197286942519961,-0.019299492344749147,0.18021166237720987,-0.9240758649727812,-0.44751798662896025,-0.2370334022738827,0.247446920468825,0.2769888270275189,0.70137058636994,0.7467256710617132,0.4524318853196141,-0.2286697827093458,0.5365133650522336,-0.5254848721018917,-0.6256230080270995,-0.5593311748244718,-0.23736340945238243,-0.6431777055310144,0.6725171081273578,-0.9618841580035338,0.590387256768572,-0.13510829427094095,-0.8884490481009588,-0.6365285618124494,0.01204245084941502,0.06862893568065331,-0.4055717613536787,-0.7725716958589819,0.1059127794829493,-0.7410007447176936,-0.6248123398806806,0.3864381773666492,0.2880771842561103,-0.4547837281827316,0.15921199213143633,-0.9812310835451106,-0.28053307186645693,0.7509494244235178,0.024379888028605246,-0.4593188023534507,0.7776300672858485,0.76171434409788,-0.6949498015373714,0.46141304314634235,-0.29872655616595334,0.07939649954526318,-0.6291810186712326,0.35432597994484416,-0.31875812462573005,0.07420792865066295,-0.9623461278102317,-0.6340503670817836,0.9973892154065289,0.6161102643070717,-0.7230247258930418,0.02379027330020511,0.7569894937222015,0.5254720285917323,-0.48909310870178646,-0.5172266513071113,0.7581990215968957,0.4013072318812059,-0.879843981602362,-0.175407654556478,-0.9081449772127244,0.9240595955635629,-0.9456329372209138,-0.4667560039076124,-0.02524382263450664,0.07345763994389265,-0.49952628806330757,-0.9283824664198108,0.6440358072123324,-0.08999570380894206,-0.5476854961093498,-0.7464020593437546,-0.6202931422912827,0.8438403097501845,0.44840244916700867,-0.45053984766979416],[0.4693125416367949,0.09143703285717653,0.07961355612046028,-0.04851629496905696,-0.6466604458013279,0.7251554820663262,-0.6824096773529105,-0.15938746066762421,0.8775732007521249,0.0017627933109505278,-0.2998237616260755,0.06652467191757716,0.6664590390999994,-0.22787062628108723,-0.24923712712490387,-0.36744007528118705,0.9343526124942629,-0.44861618692595107,-0.1930072506635725,0.9610025366008277,-0.8415572603781512,0.8747739704196027,0.4997890175957018,0.5450639167065738,-0.059259779917071764,0.9576747314339118,0.9525567196229046,0.9631999634598434,-0.8774112682868207,0.09339962024568593,0.016763139769076396,0.09351849874531393,-0.504336320846603,-0.6359639607108687,0.6392443668910752,-0.862551571164595,0.19398679945385777,-0.946816727462328,0.46120951136917854,-0.5144617670332794,0.8535633970817693,-0.7095395438727226,-0.6078265100945683,-0.12673800920500744,-0.01614724005349033,0.7212876950685665,0.5387615105284727,-0.5238221217237768,0.07272130293365531,-0.9658658927211101,0.3525147502692856,-0.085223420400385,-0.6197025693381537,0.593208173380922,0.1024074692697996,0.6069321860953061,-0.2609819526247379,-0.745895003499567,-0.7250137809061692,0.2431307837232337,0.4765850005410468,0.4556919544009226,-0.7755267631068876,0.6016596348183945,0.4049574459411662,0.05133238911733673,-0.10799924832981178,0.8049515574382178,0.8067211398706473,0.08764431739775302,-0.13814048764243414,-0.7787347955191704,-0.22730167186458572,0.6055205771227812,-0.5401075341630062,-0.8150562783759454,-0.6499703551992975,-0.664442300594513,0.0350312607073886,-0.18921316196135218,-0.7342780243129614,0.9688974439972613,0.28586801183095156,-0.3472195684841719,-0.07994582358384394,-0.3000882525682176,0.715394060191239,0.3544371145538163,0.8511800733716945,-0.8507957880477077,-0.7267253781812355,-0.42907668615992245,0.7660229980323385,0.32942296428134266,-0.5233715108346637,-0.027288829146011384,0.4570771571652099,-0.6212670420226059,-0.8350516116779549,0.34283629021149853,0.30011415360464455,0.8051838828075497,-0.47545106176880525,0.6806201874111144,-0.6848831426646196,-0.9624516895888342,0.8884345357596692,-0.602608519408564,0.3277875058333142,-0.23783366794448102,-0.42519587033731066,0.820933208226865,-0.04849742559752457,0.6529669204691912,-0.374273750975304,0.6090105794385272,-0.7987567176161674,0.6034238978981934,0.5072895879973589,0.43400432138764233,0.33468450819686413,0.8871587079997758,0.41134469312305977,0.05150270115195732,-0.7159157502241493,0.45845965493526397,-0.4718992561580222,0.7660606229451499],[0.6243213730089621,0.6731527256272722,0.8344539074702311,-0.6684551223930526,-0.7728102584024283,-0.5452578405250694,-0.40408028059071777,-0.18943479047060485,0.0206470026623915,0.078219244495213,0.4050732638645349,-0.934754973478112,0.707795333589774,-0.24440540658911192,-0.04705300331549811,-0.0256610773103092,0.2204072570665705,-0.08898262249674027,0.7472683909020608,-0.31695241242839134,0.29816484390557974,0.16549014235230652,0.8707025070256771,0.5854913519245719,0.2422509879841377,-0.5484732245348904,-0.40334477394928125,-0.9355346546716272,-0.8625578217736047,-0.5431790633635984,-0.23683619544264833,-0.39604466217081313,-0.2390079799195295,-0.6884302182420754,0.8025068755952172,-0.012571720950554033,0.5963570371138118,-0.643110313300044,-0.82801805385683,0.36427995448522577,-0.19326992464655257,0.688808464830956,-0.2338149998605321,-0.09895041940097293,-0.49651691699132483,0.8934929045868649,0.38502478375092664,0.9796597654364319,-0.355325931804666,0.4159669192515223,-0.019525894626796214,0.4115536687019936,0.015018030520562942,0.6779726038934435,-0.3183357492533596,-0.46918807055643463,0.26797215679245334,-0.9973184135125084,0.553713472319177,-0.6720988707395517,-0.0688639871923804,-0.3113130340732544,0.21834646546468872,0.5346088484052962,-0.7012857008197786,-0.17877975715990746,0.17924616239924762,0.6794732552907206,-0.34156251287687533,-0.8083405681308777,0.5050333300355234,-0.8561052948554819,0.9712649468724639,-0.8843727488576147,-0.9681262001407767,0.06085962273882406,-0.6581105009326174,-0.17665894702053508,-0.18421054048198493,-0.3655379857929564,0.10432760636966543,0.5955474902502575,-0.1395368049903034,-0.8745492901925171,-0.15841954566531657,-0.603699115109763,0.1319801375720242,0.019705656038479846,-0.20864889975489942,-0.5937202779809476,0.6647800156105759,0.889084566870866,0.0013150119881315536,-0.19351851775192586,-0.5839269255579873,-0.26594981608142265,0.8561459984307507,-0.8947690881457033,0.6094814354489908,-0.5992771486664865,-0.6259008801979697,0.04558838260893583,0.8727551666365951,0.8986069139034791,-0.3059189494256096,0.7042833671461446,0.1390548862689578,-0.7430290189068451,-0.8107707728041111,0.6731549025051073,0.6677980037871161,0.5574199866315841,-0.6220277526060454,0.45684610152601524,-0.8787684714534676,0.8156093181609154,0.8289374650436891,0.17132817662817756,-0.9409952746703354,0.20314033788293595,0.6247897575901498,0.1652718163941418,-0.3952189324686719,-0.11169476161748615,-0.027665699486261852,-0.48515694832825096,-0.1883206002150286,0.7285937919586642],[-0.2787337998590669,0.14615992318893323,-0.9521812908923719,0.09300754612012407,0.6105553502026533,0.9337130990805376,-0.28640876363581325,0.19922980820114122,0.8321528432150955,0.9504333143592667,-0.8734838787724513,-0.3223900725534792,0.22838479705023396,-0.7202255673777345,-0.7081939355797107,-0.24239368392297056,0.6621397217804534,-0.5046378110857552,-0.9885560157830577,-0.7078506764556538,-0.3731927164350808,-0.07496272209774957,0.868102050972644,-0.7004821027224442,0.8214169152031556,-0.21130479504266075,0.8953074359544095,-0.8479184138017406,0.38858497957980576,-0.9455392618724747,-0.5083426215761455,0.22896138322184223,0.8218234731081091,0.26110925912697125,-0.8315486298728081,0.3958134536707636,-0.7101478457193828,0.24093201112246665,-0.15835647323699154,0.6462740099012376,0.8555066981309662,0.7198553377635166,-0.8870798397485318,-0.8499340028156146,0.0027625316087680485,-0.9863650761439002,0.1861408287566122,0.1436666004756053,0.8691859249969711,-0.2991677607296248,0.13867584743327965,0.616629950826731,0.0682780082566583,-0.5105419808243961,-0.12765463727438942,0.17146550427268092,0.6629196549344074,0.7284580565664367,-0.5528095223111829,0.6835219226919231,0.1362540598680193,-0.07099521663789932,-0.30551667305927355,-0.20268147782660484,-0.3944210262313974,0.20777058778319413,0.7283952547600867,-0.428389683188789,0.0826579545164865,0.39533746365864975,-0.6895906414472661,0.9149588340442125,0.2652162820847084,-0.25861309634895147,0.9821350261458506,-0.5536239760866701,0.110559728963185,0.7447826257384911,-0.6430604072768982,0.1265101890550202,0.81657012556362,0.6862611219746868,0.3000857500345053,0.19859346094967156,-0.821810040707827,-0.724455549118098,-0.6795542268395747,-0.9158410246312267,0.2636005106351811,-0.6509855616965154,0.9434029536912563,-0.6016470124597126,-0.4179508220225694,0.5784979159101404,-0.16065937855653423,-0.9770918712297796,-0.7936000821538471,0.07734588141062115,-0.14911037883244438,0.07470487529724346,0.7136041915050244,0.7314739660103355,0.7908868219253329,0.8444924099579181,-0.5231258345972887,-0.2077250016987584,-0.24207952272567024,-0.4361433409314517,-0.970550807911503,0.4655159598471559,-0.8949583554827711,0.23843698239148758,-0.2775397414793963,-0.21775623533487676,0.9083415847200114,0.35276790702257843,-0.39540291305067,0.6919197912286335,0.17445374343646947,0.019113624425239006,0.6375585631843708,0.49522738070802985,-0.01403956666848516,0.7147937841657304,0.7249673037166289,0.11936528352661835,-0.14642885554921437,0.1863630194828254],[0.8351780072958181,-0.1657244950974297,0.535058320284568,-0.43029945638066924,0.5356776074302123,-0.5635994803194442,-0.5805966913293836,0.04051817702494698,-0.5272747493997123,-0.4838240950517403,-0.14623837112334082,-0.9700699752596558,-0.18315667846236727,-0.9993262589202558,0.20483896473060592,-0.044177433091821205,0.9749872722849406,-0.8408644390946631,-0.7177638912132402,0.5304035723413241,-0.06677594747175464,0.8750737857200543,-0.8194242956022464,0.20487887737280963,-0.44338137027117264,-0.3185687564068793,0.9100992180751311,0.7282362739922048,-0.6745316110470494,0.45410796770301554,0.8636732696599001,0.13646696985648443,0.1803849422280399,-0.9877158949109655,-0.7267406975243262,-0.7968283574616382,-0.24400193341302256,-0.3078346227107269,0.7246177363515078,0.010400612193631087,0.4724534564817817,0.23142565930101378,0.10702611344469437,0.01759391612543859,-0.7453462683168115,0.5346783351226296,-0.047155565741762384,-0.5421022375017153,0.8096524210218063,0.22453850890756533,0.19163402068775115,0.26789705533219954,0.2619692411454153,0.35712874225155167,0.3195365426914334,0.06448002561031285,-0.5924258164756386,-0.3632926987088463,-0.586095760147525,-0.9332142146587852,-0.6495733907870163,-0.4856463662857444,-0.4180441076694392,0.0685574915597662,-0.14460728311048054,0.6726829051379939,-0.8138490373623561,0.22177749343024877,0.6995930310354885,-0.8148567496456594,-0.30691108934502376,-0.13164138710186002,-0.01347934768597403,-0.927809599908217,-0.9843180421266713,-0.639949998154534,0.09433480376714498,-0.5385351684034381,-0.0026999446272695238,-0.1539062805202931,-0.4337593436749698,0.6966516180503453,0.9942439105595433,-0.7697721829678925,0.19608030330745696,-0.703323205371311,-0.47450280915700005,-0.6317975630804251,-0.8518735521531569,-0.6900076518185203,0.8786472294504779,0.11029882063621499,-0.5732389616188505,0.5648924534518278,0.3734621365014035,-0.7604670678704828,-0.05138704553315887,-0.40960633482099507,0.42416737351762523,-0.6009571337875945,0.04096523721651257,0.7682800942057817,-0.06937029731871247,0.7505643012731913,-0.41111765396898203,0.1270198114026071,0.24296443175843052,-0.4224195545126168,-0.5423567020351117,0.866724601096915,-0.48974886409058205,0.11304439167430025,0.9836833138297862,0.7811055045059385,0.5169160355522695,0.8170145913817453,-0.7069004841913027,0.12321192379562529,0.6475640031074816,0.9848003607529117,0.7961538642392483,0.6778155766686536,0.20022352449301262,0.3990667994107022,-0.41147865964879937,-0.7391814590950536,-0.5087971213189775,0.7292146287430679],[-0.18843759142418337,-0.07237112141863133,-0.02378772135059437,-0.19300203336393285,0.5934884771908873,0.7576350253632198,-0.531616562176737,0.4112494498801935,-0.7558454195872404,-0.7687150698192902,0.43364805783608573,0.5806506391287967,0.20523752771746073,0.6664931914523935,0.945956096530302,-0.19591337266045206,0.727005120922674,0.13293854459437981,0.2975223970972949,0.40418290509064025,-0.9087204691894475,-0.4863741750744188,-0.8044590002783132,0.467360450085323,-0.0000660815454793795,0.14519163381234845,-0.9121082853762823,0.6448616287904032,-0.9756618610080583,0.7393607412228973,0.33987935552790915,-0.5155254224176045,0.49927801626563917,-0.2990283293324585,-0.2364544782097131,-0.4973771000625957,0.6752087088500935,0.6867713455144822,0.06187894082589862,-0.26379757790827196,-0.6538863142347329,-0.40834955392285477,0.7262635351246491,0.9764897673023982,-0.45893869896195527,-0.573223489306045,0.6756120257538802,0.351220924746132,-0.6427568718103336,-0.5172246212877007,-0.4441677960174364,0.6169364176899446,0.5244083344831465,0.6709380043873219,-0.3320663185353858,0.44778726403813884,0.32563446658547424,-0.5865620316154447,-0.30593979530911963,0.2352110792611688,0.5577360894700878,0.030415696019320038,0.9347739210718358,0.44448867755819443,0.3962501928288824,0.7867124285189613,0.8066871759781364,0.813286859157194,0.5541546754312472,0.45746698839981037,-0.680448001176704,0.1812696385601258,-0.6814637386806268,0.9857589379289762,0.35217798876151263,0.5487110607346042,-0.9141133559473029,-0.4508467193914849,-0.1741042340484351,0.7517965971217138,-0.7385130089927625,0.9567181093950134,-0.17563032990343297,0.67605536776421,-0.1255758924340229,0.8964956066887251,0.530622387687979,-0.9786479355690871,0.35510343322719895,0.6759280117347402,0.8203491877859463,0.2710408107431208,0.5587935175870895,0.7051990580158567,-0.13962018152555156,0.003380316774723058,0.22756000392932907,-0.6975864358267747,-0.11958044268719781,0.4843102199643281,-0.38628775457397024,0.050234675951226215,0.6280193922073418,0.10511903306325943,-0.01887166200184054,0.5237356484299596,0.49952116122315493,-0.06934566811662557,-0.2531420685553545,-0.677113860081006,0.4980961236331427,0.9241583412275274,0.9387110714818476,0.9536954137974514,0.31177544395818213,-0.2105471612064873,0.42358403172300063,0.27141883595125615,0.4438782333942317,0.3383929225654003,0.3832575661433433,-0.9194451979863218,-0.7883379181552139,0.36674784887652856,-0.10704972455545203,-0.3245630039523544,0.24250335635933173,-0.12119272385109969],[0.29699402391555085,-0.8510763421657035,-0.2278244761995829,0.04184006609465585,-0.4465061911996968,0.6774181266607631,-0.6514312022855311,0.0636372409827124,-0.2987545535323477,-0.7337261590184765,-0.24290976997370906,0.8626970484969874,0.7557348631197485,0.22642463143447356,-0.22170040712781347,-0.09371164569103008,-0.49332368238752666,0.6925938958075226,-0.7951489598708406,0.88744289689406,0.0014438638890996724,0.7164300008428428,0.3842039410644509,0.46665260041877454,-0.5536249558947866,-0.07340190742909836,0.24043727895712919,-0.2495151541856877,0.5969407177980028,0.10268645512153429,-0.9756719251578945,0.9303525520545413,-0.5320221733807382,0.4410720339025036,0.7639206866475274,0.2555965493685306,-0.6847352848799786,0.8080377353940338,0.003992682144431159,0.01068627186709259,0.971612583725501,0.08374283527007864,0.34899288286819163,-0.2983510081662295,-0.13409619794770622,0.7835951396920806,-0.5283270753600045,0.16723688383726,0.968772193644462,-0.8679084719129821,0.9750256989870627,0.904508913237879,0.35730226006147725,-0.8381674658424885,-0.3144897656594008,-0.6583845062156914,0.2451374401221249,0.4741822775034261,0.13628033903333647,-0.5882567185419971,-0.3160012600890991,0.2516384273587642,0.054891546694592064,0.6833559052433511,-0.6701150653948402,-0.5456255288456788,-0.48278893541467816,0.7550918942742817,-0.9652473602175344,0.5412991036535242,-0.8701747636672321,-0.3909691521677312,-0.0876856835691242,0.2507661741121676,0.6753111469199575,-0.18097768483614596,-0.3051807723975719,0.025360642891070206,0.5452925631963885,-0.931020036439967,-0.915108156016444,0.8919287017834132,0.5124024685399626,0.4924377032319194,0.6753774525769678,-0.08734836142795599,-0.6767003657907469,-0.6789027849460745,0.965198905765632,-0.9724572950397405,0.9152926752788098,0.1939556284930979,0.452292884976464,0.5083646304546334,0.2875174172620818,-0.43820263049029773,-0.871155238359502,0.6594953890235942,0.2739598524895879,0.7789754721283393,0.6712796994910215,0.7700171741149573,-0.11746873445426731,-0.8263349281903654,-0.8029914000944716,0.7458149518473263,-0.0838773878015977,0.9398144328853251,0.9252947951496004,-0.14350736218148485,-0.09008842602257316,0.05430218093254102,0.5694907300788139,0.816193394450947,0.7474738126208462,-0.5811479592567499,-0.4608398509027103,0.7012917416653157,-0.5546964271309673,0.24717400532341238,-0.5642179317189184,-0.9682565218672561,-0.35539841321085164,-0.27367885501684097,0.6565245017690877,0.5493814741179195,0.5783654582592408,-0.09726691259090203],[-0.5261889955037582,0.2230942282896904,-0.04020194318037906,-0.43316644589408315,0.15717299500350013,-0.5376379727624736,0.512393200060338,-0.32366240534724144,0.11017121884508385,0.2608052055677541,-0.3931857547038038,0.7774931178325355,-0.6544750001542301,0.5636623767269264,-0.5681652870817355,0.02595561195467888,-0.2767918475144282,0.658707512193089,0.2512355287218231,-0.29629513196731305,0.49678932351298677,0.5045633178867202,0.0788859371699473,0.4854891303666211,-0.8080637248191249,-0.9685071316055716,0.39423197186558867,-0.19162568140809966,0.9484818988351396,0.9599931797153005,-0.14184340842660625,0.10686326758517373,-0.0015292493789529349,0.3582211157992252,0.31810859247446954,0.7466933505551097,0.6570212228627399,0.32438583303646507,-0.8851442269757519,-0.8695253928245383,0.9465264462734244,-0.8865792539721113,0.47625596284946603,0.8384357853286033,0.42782470165520414,0.21118346293893198,0.5047505524356979,0.07748617079443743,-0.04676718192210805,-0.2723491611089013,-0.3869059779565942,-0.9668295638064861,-0.6824455177513602,-0.16824144458758195,-0.5412672010172941,0.16377145959654715,0.052100146969410455,-0.6679890095954764,-0.27513498453186713,-0.6664664693514235,0.0066195836620532855,-0.3792371634976208,-0.22412516299656282,0.9945038001637088,-0.6955659556541607,-0.8896705724651623,0.7269955244169679,-0.12348862911563518,0.9499013997892172,0.44996808952125456,0.017040552413116306,0.5180926271699735,0.595724642538052,0.9925322777387617,0.9056304442990719,0.2899825994709204,-0.4537704539403815,-0.10147334101243777,-0.18145379914316573,0.7250650519275792,-0.7535868639811916,-0.18961185495010646,0.38135749977464006,0.04562525156192665,0.8948226719404493,-0.25730784853513344,0.23197437916177388,-0.04018181322093195,0.4399476901876269,-0.048630314701523014,0.6304110179156555,0.7841935697279794,0.10059929554898273,0.8432814651525331,0.36094344942339585,-0.015339735597518223,-0.3801672382750598,-0.34087936417513065,-0.8985594868458902,0.7092406699001426,0.3289938052951291,0.5887095003574796,-0.6674618922069262,0.4858403298117613,0.1621285654426201,0.4271303733591496,-0.2736325606788781,-0.4620565533560139,-0.4099434536756559,-0.7993692200491049,-0.5858493834616729,-0.24067489199798597,0.6707351467738187,0.9013055238547083,-0.5529118430884479,-0.40694816006075185,0.48595533286502657,-0.6987951963795374,-0.04351576444914884,-0.7331552654543285,0.40061095710043326,0.002000305238822664,0.882358823052418,0.11402924938333525,-0.5135627877995517,-0.9604113536357874,-0.16003076990416565,0.05156085957805301],[-0.13416936585599348,-0.7789119976718581,0.1463385815317768,0.5417350882194114,0.8246237912773473,-0.10042224000019062,-0.12979832221384657,0.18624681255793996,-0.5775373014480407,-0.243329143033719,-0.16989847487993615,0.12362059389307567,-0.3191390609979454,-0.24969945362000878,0.5981781370896146,-0.2865852844467922,0.15316717961640447,0.8558765261040779,0.7803738664433431,0.7862513800184288,0.47421045530833106,-0.9318996640402311,0.2647028014705852,-0.7615550728398861,0.05244604418435239,0.7772889453728216,0.1727138122418923,-0.35299936753824523,-0.35767252782846404,0.43769806109839493,0.9222011260621628,0.6501464150907406,0.5255826213378265,0.478570768737429,-0.5479712658260427,0.518303810318627,-0.5160101331456859,0.478127757389633,0.38792455249410507,0.3759775692006331,-0.02934592516126755,-0.6924456782539081,-0.4939097515464499,-0.12035723732667658,0.8996446143679655,-0.17154169681403553,-0.05839343112811912,-0.9657647227991852,-0.6185202662701814,0.01943512968736294,-0.3477854554718287,-0.011226025624203384,-0.5223071333449654,0.19920767449656474,-0.5831560993066487,-0.9535704266306502,0.9438799589218714,-0.5962238279360188,0.42669619215372756,0.1978243082569464,-0.32158571313844386,0.2594244656053475,-0.9332733828776285,-0.5781763646680835,-0.7600769427861733,0.5081395163682378,0.8014028156196384,0.4830769197433471,0.6279242752598799,0.30485143754443467,-0.8158587298303928,-0.938760932131768,-0.16327748418311083,0.8102917753809087,0.6635694032007524,0.6671821276291126,-0.3159399533909837,0.7136732085333486,-0.37466811098378705,0.6334822587179401,-0.8191877546168895,-0.6441690213984113,-0.6485367183046526,-0.4077684145640623,0.676840359221339,-0.8132883371881234,0.08788559713240574,0.936672420382789,0.6006099813810792,0.43023366340692837,0.25186267448189126,0.2474799613316343,0.06965749396761778,0.8685316268007075,0.7703053047863038,-0.12565220056335846,0.845041157287042,0.8876126333688339,0.0648785168514101,-0.3841510281528582,-0.8765093600364953,-0.19871008838865478,-0.4795969976341776,-0.07072148447056992,0.24908113430240708,0.5193265178730764,0.7680122196149028,-0.330445006618149,-0.3752243423708257,-0.6649345083474958,-0.9013270760560668,-0.8751958579517323,0.03310783075569157,0.9348286206249758,-0.7054485585636887,0.45052548502371015,0.7249315032019144,0.9503164242170297,0.41296928080402084,0.44969352697247755,0.4437710850623897,0.6088682949900137,0.7854667773488428,0.6034077457700431,-0.828703412678101,-0.11452608137112108,-0.4644711358847029,0.11652153804775511],[0.6924652526349191,0.7919890524524102,0.6588277103250118,0.12055849232495208,-0.5014281270038863,0.9507042874593221,0.06073616777387203,0.9688371100072095,-0.24274116169508742,0.1597765251399741,0.1712327044447668,0.30509387327071513,0.7835548497974951,0.5732308308250043,0.2945697514978718,0.6289592571266935,-0.3390107865491838,0.9784060838862358,-0.33828329989697137,-0.6835437213687072,-0.9758728300000621,-0.5762729353247498,0.03745521365222948,-0.1767893767904134,-0.17258848240058633,-0.23106154374430177,-0.4588077442529399,0.7955934500052699,0.4333821490595078,0.333817737717617,-0.06957364764830931,0.36460489055482137,-0.8692526551934046,0.9639360488749262,0.14838173125400855,-0.059445075669661396,0.7293404385147879,-0.04385744160317362,-0.8777411515090512,0.4784476528627659,-0.15588605515414766,-0.6891641541758342,-0.5433032338445112,-0.7879285210916127,0.8283209730447034,0.1150861916134851,0.4741715562384543,0.36833968191547384,0.5417592145408725,0.3828106085405547,-0.5985338038338694,0.7628495700064748,-0.05029193295015211,0.19310464664957894,0.596233670199299,-0.27411533038564717,-0.12744807018462567,-0.9196791909620683,-0.8009736891182286,0.9122468908530481,-0.7368830525559849,0.49182147847135926,-0.8128914773918401,-0.36490426124988407,0.9772317723829578,-0.36339845593491393,-0.042934096910506536,-0.5223538553450062,0.7504326986019507,0.49144846104061823,-0.5756488253357634,-0.5809137265614315,-0.9068948490751338,0.1306887953606939,-0.39589009467995306,-0.5633703230671712,0.5197131564751207,-0.15411050961675232,0.30306878505717894,0.8610662640978131,-0.8849552814510588,0.8518490237795031,-0.18721389714744463,-0.6373146469510182,0.5402277575322136,-0.37012391219204166,0.857270536984672,0.647177691996915,-0.6948045779748118,0.7149423003490674,-0.3439637031808189,0.21644891959127888,0.20524082498553908,0.35052210854543264,0.03988348606473591,-0.6657189480881993,-0.13848190184741727,0.19032320523649537,0.4752080335393305,0.16370430246751422,0.5263369114437388,0.32269943184290595,-0.020917294082213544,-0.39174287849932043,-0.35555967035052705,0.03248476904904485,-0.36239238562813747,0.6006984731041951,0.13547711486090264,-0.9300758773000553,0.4747830810651428,0.4624695780338193,0.09908902872884684,-0.9677717458576267,-0.3216939739871232,-0.9129419281836015,0.1930002038288352,0.14309407486511483,-0.033114596995950984,-0.16182421583112783,-0.6518822043558827,-0.5825538592045822,-0.3420491693223664,-0.8677708877081687,0.3601284799532658,0.8681752381899104,0.10727929573648631,0.7742905509766216],[0.591383131478125,0.8094500876691524,-0.028023051759455075,-0.47477901624087293,0.009898914970830841,0.5415976097788364,0.39663536072681316,0.8861394032569301,-0.062298066019327525,-0.09293206262197806,0.7897115600026128,0.5265735137448637,0.7078303213843065,0.8207152781523483,-0.7034371388020362,0.863081171245186,0.9526604858451164,-0.5421778769385366,0.5227010283009028,-0.7680649881506123,-0.2553607436367191,0.9047584877321271,0.3503532850201445,-0.8560909548737798,-0.3516234567897749,0.3729911283656142,-0.6936964108619461,-0.3590385078943914,-0.39870787242507677,0.8367048429499659,0.21583345599060588,-0.6918189732237998,-0.5858440034797385,-0.7222109946453292,0.4878093972141633,-0.8760310153685853,-0.6872281124710904,0.3732001523378212,-0.6954613865974444,0.21442641831720777,0.8785636591779833,0.4948167335500562,0.5040470920629756,0.4004682690748096,0.365552369399069,-0.36809680365927044,-0.5345300371102972,0.7018841939822571,-0.5601776951840365,0.8701450596734361,0.49774065358186537,-0.4182383335827653,0.4246598333232734,0.3982033597406396,-0.6369323802897686,-0.3706709572312894,-0.547780247256519,0.48310152799551886,0.4037160554002497,-0.8139692283569526,-0.4527389788593117,0.1554633440953077,-0.2726441737694756,-0.43823714184297224,-0.19279051371482958,-0.2373413411453129,-0.9656243948182153,-0.4005195388164886,0.7098998626124797,-0.05633930950789234,-0.2570703505922556,0.898828536637228,-0.06504505786651604,-0.9832136653306702,-0.8436725229129556,-0.9536599628619711,-0.4493458581946925,0.610068074882425,0.36656343242152434,0.5773497177852887,0.9544738533974817,-0.2868596888234638,0.7538989836680843,-0.3487287869442901,-0.3309680695653896,0.4141602534506621,0.6384392020905321,0.15137225383378716,0.2505843693248089,-0.9801216119680698,0.6392594810031116,0.6226919162937035,0.5846927910105815,0.5988135839950621,-0.11340958531427581,0.6238672191545913,-0.7172984684418415,-0.5063451793837916,0.5208397361883303,0.927499284951439,-0.7126715487045263,-0.5664099223999537,0.9059447243094234,0.7309439366871766,-0.019767858470325805,0.4867194920987321,0.3143402299085425,0.7475142274914695,0.5438805461537173,-0.7287875988326102,-0.6135757492439398,-0.39578846781378996,0.04470096934334178,-0.051799040300050336,-0.04542721833025154,0.4826722990005812,-0.7033546021267922,0.46841200701013275,0.21539592265645569,-0.44919723829880365,0.41993339994320644,0.7192913511687591,0.20155787091316357,-0.19273590770380733,0.004913592905907649,-0.7808404057205258,0.9630466349483551,0.6954032427370322],[0.41562600334655453,0.8960712799599858,0.8630310600283614,-0.3937284490429765,-0.3293486653974883,-0.8132727294568144,0.46602486914419944,0.5996625751195414,0.9299750846948477,0.2799932460193677,-0.39440404415464037,-0.5244388306507852,0.2447242391138228,-0.31533287420278844,0.08388506148581111,0.6807355956676062,0.8912073078442443,-0.8759727300184923,0.9225602137302582,0.4837891802890982,-0.3224181128230849,0.1960307783541381,0.1423057795510727,0.5436732434091494,-0.6289395108337477,-0.8402200424712424,-0.4151159415234832,0.21855201641962638,0.4320864860872591,-0.12188995038014554,0.6071546241216457,0.31223286488769697,0.5320361681220972,-0.5446947119461609,0.6649613095524982,-0.2768583262705241,-0.17121868693838413,0.8702535405891267,0.20438096644818468,0.4127869170165054,0.034280467297896744,0.4729842794571979,0.34139338413324055,0.6144029481247474,-0.4456743961565283,0.6432609316614155,-0.05511814860365793,-0.7919265307978934,-0.57008115092695,0.8497852883335681,0.665833127465808,-0.8819543152497281,-0.5219857199601106,-0.5101751801362829,0.7873122103633317,-0.10778229139948821,0.5651155532664045,0.7028416516055092,-0.5436902490468661,-0.8833741821954394,0.6010723096285902,0.36990769509518684,-0.8523912526274594,-0.764628109861256,0.8600281326536834,-0.31759881621475744,-0.15905848107286671,0.18613114172756726,0.6417667044127373,-0.22763878382940334,-0.8662922351397546,0.3070437392190476,-0.9157755051940698,0.60487349156666,-0.5812138441138747,0.39688994105370773,0.4754321711216096,0.08498312146143684,-0.8814539889245862,0.7713382298215037,0.09325020678162282,-0.5538960227929073,0.16172120046209734,0.40252985602149843,0.8440528649427226,0.36804039432379304,0.8122165990109743,0.44729260767171003,0.6963150598604015,-0.7463712504607681,-0.5677576032791138,0.0032819244042323124,0.06651312493819553,0.6590726032140057,-0.26117762984955434,-0.6384805922120497,-0.768050574073046,0.8457596457772318,-0.7496368053410272,0.40586906608399875,-0.8816111918904747,0.8106474981217021,0.7087537478419224,-0.21523484528550174,-0.6935966974753497,-0.399012346712903,-0.5053895543126092,-0.0354728379211921,-0.6665924454481186,-0.2775217781558009,0.5573397582021061,-0.36636133551433187,-0.9847515898269092,0.5103986741599843,0.6372711303567989,0.7228096697454124,-0.35094158342136234,0.08992175701731299,-0.036931837415467114,-0.7077106194283223,-0.6001647533580348,0.7741820160033873,-0.8706194105089291,0.6827999850743536,-0.8570383974458271,-0.007145032414291803,0.7793226864334024,0.2836021864076427],[-0.538177703218337,0.2765640604014505,-0.10859314414953038,-0.4974116054655146,-0.04417752340010769,-0.7952073546922829,0.6892390593944111,-0.9437226407537493,0.29138027060411553,-0.8993300547428096,-0.7731749511161955,-0.4566054745515064,-0.513620082607332,0.3344274927504944,-0.03750035426747002,-0.2636672547672501,0.16470503314294796,-0.22428475481016086,-0.5723399302487644,0.6587106511099062,-0.5998369615044646,0.4382006031205859,-0.9369603206337347,-0.9414485405804471,0.8738849998503896,-0.15922562396641038,0.9920636191779048,0.8312813258819072,-0.432142863872398,-0.783054320606703,0.713413927805314,-0.7923399514723553,-0.9302155413951306,-0.22841468925230562,-0.3523653625983786,-0.19975526830303902,-0.3044347745042869,0.6292443108343504,0.6929643210326617,0.9553189667991363,0.1492101001739269,-0.8501801040619551,-0.8332144931011101,-0.050284360110905944,-0.18790622529664064,0.9539463345067751,0.21685348358692053,-0.8085550285347969,-0.4691940701044574,0.6051736537080904,0.3603742828580445,0.73963780471336,-0.9008594478375674,-0.05425746376669695,0.8372540706696923,0.48109395092572976,0.618850777014632,0.8730736185574787,-0.6527350531202698,0.6592393564511555,0.24772170639228333,-0.06581692755835052,0.26813096522612845,-0.20050444788934005,0.6675769197909334,-0.17267568874422806,0.543344532666474,0.9509011500874652,0.8703750152918436,-0.4082500931704155,0.5061314657750298,0.5326716326772128,0.21115094684678765,0.7710783693642983,-0.38271399950380186,0.9231926359599375,0.9695401671940603,-0.13597482171575553,0.12096675901005435,-0.30633276849302704,-0.31524725167209405,0.054277017343011665,0.36086406422834766,-0.11476761343040612,0.12067202828635708,0.5800016020819431,-0.0738896053879154,0.08801863822194098,0.41271984510795123,-0.9797180518872959,-0.8549945947585822,-0.6505208676061841,-0.4215552750718126,-0.338375837046651,0.26030096894752036,0.11138575008869132,-0.9009179050236084,-0.5398292729279706,0.09134193190227871,0.950554729351684,-0.4001907391730636,-0.04113359271386399,-0.4529709296610311,-0.3139718311190756,-0.5987887845292561,0.7944027433381353,0.8706958409995426,0.21030715729502855,-0.01047278414799925,0.5073480715456158,-0.49440270232710193,-0.8877858466154457,0.28384740322129487,0.24777662323485292,0.9236409906348699,-0.19586924426322833,0.11815078511332998,0.5331440649139826,-0.8398781997858485,0.49532297546033754,0.7943295869820968,0.4299885727326744,0.5647181522097895,0.5798960548717523,-0.8555278237483507,0.46094400674489,-0.2920927903980069,0.04726836545254929],[0.1380597607239087,-0.7106277016390812,-0.7858978172711812,-0.28742121930735165,-0.22210360322108974,-0.19073656006680517,0.037261872967080625,0.4396560280299777,0.3293321366576874,-0.15752863358545247,-0.10907837919612975,-0.06714458324307,0.6059808364277095,-0.38611985526019266,-0.9556907884271136,-0.17735964988302527,-0.5131440261295614,-0.12945466124751612,-0.9308484758445498,0.9001491280425623,-0.12966987378717765,0.590545649391523,0.17617468433459663,-0.8833861190965793,-0.42644205852728645,-0.7690991196285439,0.22253221724763494,0.799975575909002,0.9985339819008876,-0.31455954771876943,-0.6123427694196406,-0.8112239388525815,0.10369767368417332,0.583357152971014,0.8348577447982076,0.07900287370727577,0.5841046464018972,-0.04283975189424121,-0.4412112213347751,0.1273851302505137,0.881204849489643,0.6493085097500852,-0.4085665242991413,-0.52634607521261,-0.6865256999618338,0.9459883465999246,-0.7034692529746635,-0.5929752942317096,0.3673063271248698,-0.8113574718315161,-0.7910572914944027,-0.8208218731630148,-0.6966022301901995,-0.5304202656995807,-0.47158233554287754,0.9848115122528518,-0.8938758379733128,-0.9016711718306659,-0.6350866613682816,-0.7258030205603169,-0.05191007664243927,0.2900918499272983,0.15762591168120088,-0.3632076832228984,-0.12069965877833128,-0.6338734235126163,-0.1330621043274925,-0.43621822780623953,0.6024322655312799,-0.7401561691838088,0.16260162389644509,-0.9288675753211098,0.7731599061554736,0.9719394498621051,0.5704572164197189,-0.15433115209466838,-0.8604803579876286,-0.8169862757470034,0.7107582538549457,-0.43544608443505584,0.755098226001986,-0.25617240961244747,-0.8756817801792963,0.4865947221276434,0.4154616640020161,0.5834892856389985,-0.02499365282828493,0.2078219592162047,0.975195937280097,0.8542072479171077,0.5197169785051458,0.7832646922087662,-0.37099400800908755,-0.8811212107037243,0.17465936156012365,0.5561615676863813,0.5456692449656775,0.4242526550069199,0.3385465845111028,-0.38649235989855135,0.21385719897093164,0.039298833035062694,-0.5069642631843468,-0.8742159590385976,0.25685837187294625,-0.8760708570370324,-0.21684316396871742,0.061088127312852125,0.7815394173341119,0.3863469709796423,0.8437717678082972,-0.784172544283985,0.33578047215855034,0.6884390119402186,-0.14367005561068505,-0.41360340376299465,0.45474515228843393,-0.95003006849184,0.8887487089203563,0.7088053068441941,-0.31750333322825725,-0.0739066703845162,0.8042057099391835,0.6682623408676966,0.07985511732501754,-0.3769337889568043,-0.8479916581323816,0.4771179459634485],[0.14942037851593487,0.8653154482532528,-0.723353452381794,0.8405998769812846,-0.233262531868895,-0.20873562593637776,-0.27689869334043904,-0.018527559819138662,-0.8125796423840377,-0.8262143432541069,-0.9088643456999577,0.5990999894094139,0.48364703717358,0.3570791595582558,-0.752295776279054,0.9873362776727755,0.8492193252836188,-0.22126752977721129,0.12765675197686702,0.9154148705736189,0.4568305821971066,-0.31303363927400424,0.9896225909266901,-0.5357348734115629,-0.8253099628761915,0.2811365195223818,0.05873177593462767,0.38059619832322616,0.10181860474952817,0.5210375403592813,0.7546265786444586,0.5220545737151909,-0.12959085633240044,-0.5813036258628363,-0.5976374574399337,-0.26585417466480366,-0.25777469808348613,0.8834501909822792,-0.22261344615119494,0.6702180758105497,0.841382946001882,-0.24338449243954238,-0.4021367789521815,-0.07603172071467351,-0.49018415366240886,0.9509829121394487,0.2509435662944321,-0.5969739949805261,-0.9686003204528738,-0.8785354011876516,0.9944774618362536,-0.27329048923384264,0.3496633319737968,0.6420573461142209,-0.849849240305185,-0.031555839746050494,-0.04278563678669979,-0.17270799264784395,0.9406473916046316,-0.24860002730215813,0.07837354670963777,0.46131885947456885,0.1925289142793309,0.46612331214018443,-0.7032949117419194,0.45065036717068857,0.9207381183094677,0.7551455437582931,-0.22690414849238688,-0.2884021397903486,-0.37874688569555354,0.02307314987799737,-0.017798560443942252,-0.30911169538900124,-0.5489804120204753,-0.6501249847240609,0.04584490351560584,-0.0925522924653568,-0.2588193219502596,0.7389564923967854,-0.2856799999790748,0.6861900215188909,0.9927349735336298,-0.014178039239395,0.1269951645187024,0.04821725785430083,0.07918319969403079,-0.6084461778894894,0.9698939148573869,0.8095375416017783,-0.28017969649780866,0.40502636384867224,-0.9477048479304845,0.8841702930643287,0.5701499645250437,-0.23047840857606763,0.30880106107044386,-0.31691698409798646,-0.6937464726608866,0.18111587039361668,0.6551440127297014,0.563718701068073,-0.638543188069039,-0.13456260901644967,-0.5524105606295928,-0.3435715055893988,-0.2312669461715088,0.10466653910419282,0.09089975979821642,-0.31897969744268573,-0.29630917053886896,-0.2577172849937346,-0.7780218703360658,-0.050845563466497185,-0.9818999687259709,-0.0762587882597155,-0.07105573490440793,-0.06547946574425889,-0.4819570952433453,0.9902489637370308,0.7729694166960306,-0.5380605029647033,0.11360528462183495,-0.07954958640537313,-0.03780578109292141,0.617191688977564,-0.0260936002464585,-0.4067078960011503],[-0.6001744816521817,0.5816718819504718,-0.6954627329033909,0.49728618892268406,0.30771557342871914,-0.221971555371558,-0.45812045144821534,-0.6144135300669926,0.15742907823785313,0.014394590183421707,-0.39595925180185354,0.018397064297792864,0.470900118924402,0.28675519324775456,-0.6817009500953652,0.9271881261346662,0.649565425345787,-0.941689685295996,-0.9423882329184372,-0.622795891296887,0.9596398905284629,-0.38191207054144916,0.8009286515683403,0.19421123001981844,-0.1001826424576524,0.3710921888110219,0.48905339782023605,0.9834768433640866,0.7444134353463734,-0.25950055068964084,0.49937522661150036,-0.8512985582060588,0.5627831830633179,-0.4433784834363914,0.5072169580959571,-0.2772944556896577,0.4740525551129413,-0.7959876706356868,-0.8127891260439051,0.5658929128826986,0.0076495702888454975,-0.9420853351142626,0.803268358614962,0.17616189337035126,0.5466904487916275,0.31075382472398716,-0.608057829870599,0.07118854290069754,0.7764013182775289,0.984304751242133,-0.7970423934868187,-0.44683110350519706,-0.4607648014670278,-0.04067563866759749,0.28451192741766307,-0.6698466576989355,-0.991711357225451,-0.1804316265753394,-0.038711668507481756,-0.8023572572002788,-0.7824825262804462,-0.49387552178891414,0.4317281958003423,0.3372914520755057,0.7190259604792786,0.09589412819783072,-0.5491508112947938,-0.3516473597196048,0.06679315202977687,0.8187344784737534,-0.3101872221143094,0.7950072189171593,0.6751830625571085,-0.85228526861611,-0.651820621736948,0.15247061114590643,0.7683588123993275,0.42471757150461387,-0.2422008991850546,0.9927838240892426,0.3449532188513358,-0.9753236357825654,0.0017614302207344945,-0.35737811756124493,0.41286688706212016,-0.8128230880563774,-0.7485814288080999,0.8372194470536218,0.7959346415093849,-0.7829257691276927,-0.7278097714612715,0.17177996408343388,0.7763689861648089,-0.18346867354968843,-0.8319054323008224,-0.2638023290952569,0.1004800415121756,-0.6054590983658608,0.23906196808560565,-0.37302340995935657,-0.7614786114555716,0.28182234592714117,-0.3983169556968573,-0.002396500668113699,0.19595153821906686,0.736151231356627,0.05954734348736257,0.09260756920670965,-0.6828265588283413,0.5611894394214623,-0.974093347796589,-0.2566813943925239,-0.2718875811820274,-0.8616218800812214,0.7732814189949828,0.9443133398110275,0.3521797023238018,-0.1408578889715979,0.8920362266756678,-0.3502638137078522,0.33364322914712297,-0.02012192337431018,-0.6899732175685973,-0.7409246516858248,0.6167596006652629,0.9365221145830571,0.3898036741501161,-0.7224736521565309],[-0.39729784001417934,0.07468680157312435,-0.17719382870138478,0.49405351327666125,0.0613325003187597,-0.16680656934605298,0.4489044425883908,0.5408683497779558,0.6996856628532633,0.1745994490279834,-0.767879257978922,-0.14926264172516435,-0.22470702597949477,-0.4363019765009386,0.27242184931506874,-0.5468523972905928,-0.8864280223919621,-0.9126125440622357,-0.23734247819363952,0.9023070853696928,-0.7576543407737424,0.10522918592335295,-0.8376701186984676,-0.2941914040196978,0.8048154001901178,-0.5440014641521296,-0.20251414370573628,0.8077794244225163,-0.2233705173181475,0.9033409467435873,0.6041976972311152,0.8874119173182473,-0.09940911657750551,0.8141598727141226,0.025407124833348504,0.24078950393675913,0.803893216329786,-0.6779519795022699,-0.9284713402464322,-0.731172672193003,-0.877867970360215,-0.5295341847585711,-0.37754226032410165,-0.055731404834955534,-0.5794518964032482,-0.7386547934078742,0.5003688377288702,0.20640784591937789,0.6790979018684891,0.9676072924578012,-0.5561169802827086,-0.11813702668826709,0.29247785460901254,-0.8381680678649968,-0.17917921446652962,0.7887559114464586,0.2981303617552402,0.3706479585689595,-0.0594516179270721,0.017242581130741064,-0.5999900077009028,0.6342273940841114,-0.7754534599682175,0.4962835590139556,0.710187055851242,-0.5135201582413509,0.851373636925846,0.09820931780640141,0.491196763288976,0.18649736433232844,-0.49102068471171023,0.7163713723673013,0.2164671213791176,-0.1795421321000248,0.5036979386243325,-0.05307447502870133,-0.02203437467249647,-0.006587590069572213,-0.8923087618329155,-0.6697281580912657,-0.29788696698059214,0.4237165858906333,-0.966206096684326,-0.6766360471842341,-0.7692025909756381,0.7971697262846806,-0.430116472521179,-0.44015409554610985,0.9313908183030042,0.529683843284988,0.14424819588479543,-0.8317883903163263,0.5745996707384917,0.14588712256375436,0.7012783563406595,-0.07883026824871431,0.9556540533816056,-0.6635547258697054,-0.48590914111238637,-0.6695554062668094,0.8793806133614448,0.13560330158264722,-0.33336683118423016,-0.4182730743017149,0.7455476907969758,0.8000256407104673,-0.6526758263293817,0.04681208536964099,-0.5859375505375741,-0.12421854034223911,-0.44140312700009865,-0.9300695185831744,-0.3923969553937927,0.8904281640879301,0.5495255998497091,0.46907200616745537,-0.9901967237064426,0.8089336975859684,-0.9885837019105643,0.6739449142314038,-0.17738538765021872,-0.09043664125991069,-0.5430413614728076,-0.13022329526146526,0.2853006995684386,-0.43752495758011656,-0.9873593748533676,-0.36987068047765836],[-0.30129971539067757,0.957658204179574,0.13194435194214948,-0.5965005009160407,-0.28644118523796713,0.18533549276911887,0.41010929389009054,0.4233928510167382,0.9820886233610397,0.392637707689387,-0.07965073521968269,-0.28171366539647646,-0.9775623076400897,0.23299795096382292,0.22914204177727626,-0.013476866393583808,-0.5343671166963162,0.3058304803913938,0.03400584284634722,0.7468683632940625,-0.09496615686624588,0.3506372779404554,-0.9055556349481433,0.6250543474675314,0.28297416791191266,-0.03185553800869734,0.04210846520514022,-0.7480896481212356,0.7974250524478996,0.0579317461072526,-0.24407425653102477,0.5203211129638277,-0.23379157025836528,0.5899108621792157,-0.4738285123444177,0.570914534250115,-0.2132754638768246,0.09627099825297658,0.6914031647355317,-0.828109876220442,-0.4283084042593117,-0.31384874026053433,-0.6963653358071937,0.40737109480228617,-0.46904429463717734,-0.09460569392751284,0.6690480249132063,-0.18847515334255438,0.009327383201995776,-0.1406307285405728,-0.743943528239845,-0.2652970975365869,0.35359706678046465,0.4251217577183375,0.27068384560521896,0.08668026978459609,0.10923234590231212,0.07434580351159004,-0.4872053782657859,0.374898230038357,-0.06103748206302462,0.7238614503724727,-0.03729736563964092,0.2857760670369045,0.3381230435060274,0.1953216130647042,-0.47330334874996294,-0.6187490845241583,-0.7212410686200355,0.8361381678724953,0.07759737001552258,0.8772524360854441,-0.7902679873290175,0.2820307244191347,0.26975274523428716,-0.3128440456362258,-0.3802830457941093,0.44140343037482577,0.5311388624369093,0.6731942145687375,0.06662384012141254,0.1332396199044137,-0.16166820178460295,-0.22279864374696312,-0.19224400777825124,-0.4856465762562998,-0.8633291551243021,-0.1260044425646587,-0.7386802352408142,0.8686897537793696,0.42973229418729075,-0.10956830203701662,0.8356050880938561,-0.5968146440289916,-0.4399450783493739,-0.8002888071008896,-0.5260385820977422,-0.9116923141736506,-0.8930164225267074,-0.6735281172320133,0.6922980503140672,-0.29155576893782076,0.6120491819680929,-0.6291724282980913,-0.8417302580000261,-0.3374161243122258,0.7029919353057361,0.15663998159406467,0.3764721041450563,0.8160135633622967,-0.9521583081731573,-0.7287105324363645,-0.13022733892292582,0.5979536773892631,0.13342501196647238,-0.6154216921023248,0.1276987149639346,0.6597720087362369,-0.8893986116588528,0.21301640121332377,0.3378748751181666,0.08188924381119578,-0.01738567320774531,-0.28706554410846064,0.8924446895836622,0.8680986997258862,-0.6141328850448085,-0.02290066464468321],[0.07730016551373353,-0.9628264288943886,0.7365677814540674,-0.7919983740489931,0.7978508407024194,0.5474390323966072,0.8137562168875476,-0.6646776989416427,-0.5125893403995856,-0.2554693926501741,0.9185122270989099,-0.35153112607081494,-0.011058413455931282,-0.7709979332004797,0.510116078378998,-0.6474459135715984,-0.9818288010467444,0.6436552429973559,-0.324905082232277,0.8562746093839069,0.5353522161837985,0.7859019869055246,-0.786117557030767,-0.14966546732017494,0.4476074335782292,0.12841496125127905,-0.8889436502764791,-0.291378621632318,-0.5826115250225017,-0.20692261883867547,-0.6884825812176432,-0.22669441409311486,0.4035706484552015,0.24290832123115402,0.812525353803385,0.37630051632446726,-0.07407048375153358,-0.9389469154494465,-0.9502596576147042,-0.8896841777932776,-0.7247573253132997,-0.8818096520756973,-0.4216635173853034,0.9468013589281421,-0.33330140759165316,0.9531840017341324,-0.812761769240036,-0.346081996973133,-0.6563767353078169,0.9354510507786953,0.8428393364370834,0.4432347011364921,-0.545503669136576,-0.21221539031129488,0.6979329921133535,-0.4210175628428816,0.03948594376119652,-0.5059314025619064,0.8313257867330766,-0.1163524977533521,-0.7979216795996948,0.8236622978972739,-0.3844086786683436,0.9741811295602611,0.13900206894510947,0.7096864579603042,-0.30880712712904024,0.4796392128458671,0.14428126619005122,0.016396211344222644,-0.1569686606649543,0.2447540484798496,-0.026356373339938566,0.9533944895250412,-0.691376187397855,0.12322103540359941,0.661154888478857,0.655564843021976,0.31344788398815515,-0.8553394884528536,-0.037855788158799974,0.6569780268646883,-0.9165650033246564,0.5357628230158882,-0.7931856173907954,-0.032277977548851755,-0.9622769718966617,-0.6006899177801137,-0.5909581638977708,-0.768667984924494,0.5216841289399203,0.11732291698885877,0.4411585957081656,0.46880316163011004,0.5418334398464912,-0.9963226200937985,0.3616938678885169,0.5109664350279837,0.9819492214166619,0.35139388711032815,-0.4078751962465088,-0.4896051427969441,-0.9520039305909624,0.9394067680988429,0.24736910880378127,0.9444768678841033,0.2015991546157616,0.029693302424101065,0.6858757644965201,0.3327044684384193,-0.4558984404767976,-0.17329520472848703,-0.28520587915515705,-0.6931229937514163,-0.15556911244651284,0.7418316856152278,0.10557350124819531,0.08711712011778716,0.253118815040579,0.5418741606482007,0.7834130242275277,-0.8705235616643345,0.5863070238127428,-0.12920981191996517,0.5579566748420923,0.54628528525938,0.3180650312716966,0.5376847038634276],[0.10904852284170641,0.7873515718076118,-0.6923486671673613,-0.1667642821566131,0.09153317171814601,0.9465182681313697,-0.25615578220686874,-0.9737610272764241,-0.2595248952491087,0.2407420201345889,0.5863242621290856,0.8049831327250756,-0.6687981825667288,-0.5557949713679096,0.2670405511906433,-0.6464380192057282,0.9620457407418581,0.7591889569775554,-0.28832750750589886,-0.4962609623640162,0.3550984142562599,0.5483316248561576,-0.6806683738089463,-0.9498813462959843,-0.2652347441240346,0.4239496914281822,0.9527533373653241,0.5110507275696465,0.15139082362834988,0.22654857251773608,-0.2637276974846616,0.6984193413049884,0.6986028205478831,-0.9545929576802248,-0.6801617225925258,-0.47348522078975286,0.8564436719142599,0.49127229221321,-0.9608833375382517,0.5895052800992697,0.15925670564229777,0.7867704532923485,0.06309409379389797,-0.5730893900984424,0.6290333725600215,-0.04794331065389401,0.6945604820296698,-0.24616552105049117,0.44244277367345,0.00979867747476737,-0.42132855034097205,-0.19558323767652697,-0.7274797719255912,-0.16592181453070465,-0.5048111639019897,-0.6936343400975358,-0.26748905736119055,0.5327511398534932,0.4701335688812147,-0.6568542828643278,-0.17438604436324767,-0.03476666762443115,-0.27970511040207224,-0.4443854917618095,0.4338345538855335,0.8117434716318552,-0.6124342624145107,-0.20804909195136445,-0.5970743046123097,0.0355575137926345,0.29854910443299065,0.26160123431141824,0.550261988064864,-0.4874510842850528,-0.5270907507641929,0.37303900595455275,-0.5386363213315799,-0.508928296691618,-0.5694273708893076,0.9707197795890035,-0.4674079546513825,-0.7592016528011101,-0.9087466150912558,-0.21408524940683527,0.49265400660049496,-0.14178919983095484,0.826348640356825,-0.036565819648891607,-0.5217312046571163,0.8041547168562386,-0.8575103643840118,-0.460479887530153,0.08384321808764317,0.13873235267038497,0.48279184687105725,-0.24140352541298116,0.5517073255279581,0.33684646287291464,0.29038280734537625,0.011070109640535009,-0.7936543752329317,-0.9933463385506414,0.23197336315850947,-0.6985679246229677,-0.17307178600477968,-0.9576896348532717,0.823150729613289,0.22624875570404646,-0.8324818007359092,-0.4165050591046491,-0.6825323936593264,0.7128279070895334,-0.6669753826578273,-0.24986550248103012,0.46695609919206005,0.46389782331732166,-0.8011336156628215,0.8082527923189535,-0.9247009148891374,0.9921088857961364,0.4865059816263355,0.10307600150851015,0.5914587030768554,0.8836619706270068,0.05009441517362068,0.08105428114479785,-0.7447144463930881,-0.02874399566067165],[0.0609178687068932,-0.07407537665310882,0.9911338071158631,-0.3108009840775152,0.6851419278750515,0.2818132907443316,-0.45589629936099474,-0.9505765999533773,0.8421519424356223,0.8742019607935227,0.5136018160441354,0.06847321326013245,-0.40015804883732486,-0.09122391537992813,0.31905428903340427,-0.1719612342255612,0.8721647856323507,0.6983636323677038,-0.6707234754201146,0.3830522416830038,-0.2599500343649763,0.0007462210377622291,0.32349253506192865,-0.9237211804340801,-0.1941321556246396,0.13722076309941467,-0.0998386937543223,-0.06712829256780584,0.5687752172870755,-0.9076835727505983,0.18591230819860094,0.7874030176827109,0.008436634815371713,0.4207958170965196,-0.9042589247604798,0.664871848617393,-0.8223520691301067,0.3195370440443406,-0.6743899666090336,0.9956904713631698,0.09118150068360009,0.9118592140167143,-0.3313771191058592,0.25371936768336667,0.32975025278435144,0.7534187990953001,-0.17998312667319527,-0.6961680131852515,0.45043076384359404,0.4740526942087666,0.1103942783341052,0.8355265307772233,0.43745939825889635,-0.054581259738372356,-0.1338211330842658,-0.754725093026344,0.21308007976647247,-0.8556340329649232,-0.8155276642371723,0.3612654493052352,-0.4681506928827386,0.828388794922021,0.9461932954907701,0.03882220571746897,-0.5256940546000795,0.1987909805800907,0.4322570435056514,0.19239351580328723,-0.050231037681850665,-0.4680544329195082,-0.8452568016695063,-0.2384894700008382,0.2517164370553444,-0.10220582596042038,-0.8742873079772537,0.8807902365020379,-0.7415063297867139,0.8668106949433887,0.8232454783320993,-0.6434863850363086,0.5947979875411178,-0.7871184666438968,0.3927252669074972,-0.877174445476963,-0.5629346711289711,0.7472402366525062,-0.7382325930386151,0.26906824931099793,0.01706637571126235,0.8647208881591295,-0.9229872481181485,-0.575764211369667,0.5783030697608127,-0.7437080905212694,0.7082061429549706,0.328191960281228,0.37929816962808816,0.7810608289904943,-0.8534849169721708,-0.3418003351347576,0.9210681480625356,-0.6224887033367712,-0.47167513486457135,-0.5080337308100762,-0.7208466714236332,-0.8879556420078061,-0.14229747780460977,-0.08512029110867236,0.47718622186825077,0.8488924885245646,-0.2846602965158207,-0.33300388345302245,-0.6411005823337201,0.5564849309150095,-0.8808832022622259,-0.4793360253519263,0.09669062186918409,-0.9794001272616131,-0.14224744792374677,0.10911095548772876,0.5605061265041682,0.47165192015720403,0.6884311772203509,-0.7071737223763634,0.15191941727090263,0.8236044238858633,-0.8673605742720649,0.904072031994281],[0.9420619554161278,0.9207516416257437,-0.4471356714506902,0.16275599054643175,-0.5187898199741348,-0.44607344708113295,-0.493215434022539,0.614563698057853,0.27320218884372127,0.6393861548588542,-0.44943694586540595,0.971098353863123,0.7147158303613539,-0.6806199805950943,0.5497439237989155,0.47214397050759116,-0.30832370947956256,-0.6091573428846155,-0.56124539315709,-0.8464565347382109,-0.6995893990094941,-0.780341369772986,0.13001231345319209,-0.2767903061512529,-0.9012405766661433,-0.4762616407558633,-0.4719048701702302,-0.018859833062798037,-0.7482002992790555,-0.46587682661830354,0.30846793342233125,0.5572498048941403,0.8191019586874686,-0.5286289455090878,-0.5706775457090254,0.8445850370886763,0.2467148915806594,0.1114998189412979,0.2404807081718019,0.01770265337264232,0.42517951872656945,0.028683629178926084,-0.9186454218443856,-0.9835108284913534,-0.7129322351004126,0.5841887731359918,0.6057984773684035,-0.12328901797818825,0.23017278374630745,0.6507250501359096,0.11773583530787324,-0.9149212689954509,0.8372558007905853,0.373558054168766,-0.6206888673376088,0.7256439828823451,0.5017939455290921,0.23323123280930047,-0.03763239971305543,0.17811759009394335,0.9152657531698101,-0.11210242070616894,-0.39858713026503967,-0.5880795086981749,0.3813188153870799,-0.5015950051290063,0.5703107944626222,0.5778310393366497,0.039899030675446756,0.5608658539452913,-0.16840141270558595,-0.11382793658832746,0.6222194557216179,-0.3409264388719757,0.7377219591459234,0.3267767164264901,0.21220156866333384,0.6688240811732113,0.6693457962614793,0.04223677768460865,0.875598491032733,0.06293670518818217,0.6663502019141068,0.6032389813968677,0.2964264982417084,0.11250068885007547,0.9486904290745299,-0.08513859136553559,0.41798002872445683,0.7292809271167304,0.4553379719349133,-0.7498987341910697,-0.8247625838822394,0.43313918730051415,0.9687062973976655,0.3500494058983463,0.22574352722377578,0.8812882507162956,-0.5585362213773093,-0.9915900724848066,0.5245966549576195,-0.8267924103323447,-0.9437503865875303,-0.6689418567635834,0.8036683240563756,-0.035235725519580985,-0.017060330664608436,-0.22426980970682764,-0.6826395651896899,-0.9752382852391477,-0.8813904000760056,-0.2702611935958892,0.1547608043872306,0.21080476963470773,0.14874509864723184,0.6751520009144938,0.4607536300590003,-0.6783842056341707,0.7662916565203619,0.15842525186449508,0.8350495106782949,-0.6922314818509085,0.4601026863635542,0.7293841542553241,-0.31316360047887115,-0.30802871074037363,0.8186683196984066,-0.5953724004537657],[0.5123271393119988,0.4266734673488717,0.6118636198038705,-0.35949984007704217,0.8398388783863995,-0.37160659579028565,-0.2830528950317537,-0.9587518250226079,0.682064060354437,0.4126313958418355,0.09368860185886074,-0.21314033934232834,-0.2752055672634506,0.13108276067607605,-0.5829989443792327,0.23355062836224105,-0.8145249193379891,0.5415020995327839,0.6959361573969249,-0.3883134918533504,0.5884080336588959,-0.3023738882727327,-0.5040678008934116,0.8327635163115907,0.6113616829634052,0.5873232493318608,-0.5105363969916059,-0.3909201901067676,-0.4505459688009861,0.15950955728781668,-0.9314021895167137,-0.05640356700167648,0.26900081643922835,0.9321774979472075,-0.7578795986661815,0.05742715499644513,-0.8242179676545178,0.11418175427962485,0.5026734032483358,-0.6468154481507533,-0.5365637318678746,-0.6538427260474045,-0.34636532736942804,0.1044178340300741,-0.1532895565269432,-0.14141125038531754,-0.6273437200666436,-0.040080562024856325,-0.8963982244258668,0.37296110193227006,0.7759008731168686,-0.11627058833068848,0.6049873877075764,-0.4451583539402584,0.24259374854199556,-0.8703619009591514,0.22649916399566905,-0.6354368355548898,0.6499553650625114,0.9980267295700875,0.37930794716510685,0.40433775316613296,-0.4559289298724085,-0.8402199702940871,-0.5618369275229662,-0.8035759667906412,0.393864724714748,0.5339421528726218,0.9234795322935851,-0.1922127813802057,0.1020017482811586,0.4899401086602613,0.6940561066787296,0.10488650325895543,0.8056619719108844,0.22859237486920803,-0.6949507239050841,0.06977312096026944,-0.9348514469941942,-0.5469393796044688,-0.04482731504636983,0.018716274357504892,-0.09939184403530787,-0.6068030979386625,-0.5406410262612724,-0.014315874099230408,-0.3382114759447805,0.9360501720586396,0.5123401513542469,-0.88738992163847,0.17231485231379584,-0.11154240836052054,0.9700862904577665,0.6215581984779994,0.19886626050933653,0.5449939427975377,0.3986366523218807,0.4564362777340114,0.6973094722671305,-0.8736577204446612,-0.38356112322560576,-0.5388561036283295,0.9936469126343677,-0.08894567624411343,-0.06405231317845095,-0.07962549089047033,-0.31662637466714205,-0.7668117150267995,0.09142260484858111,-0.9722132467577476,0.31902101170891717,-0.8089342169339369,0.15080426579592787,-0.21039315630382616,0.013990374355860258,-0.49145144689248554,-0.9388521600488628,-0.03135036624007781,0.5189223455398617,-0.39195439256743114,-0.05251138026696767,0.9537496443788085,-0.05518206038054374,0.6406223889965159,-0.5187250703947974,0.2625389924176349,0.48841669231642815,-0.4566065577384062],[0.7096839570015565,-0.47370096178707466,0.6878727042435684,0.4735208075368673,0.32650628144910354,0.6610578363524342,0.2457799201546622,0.6699261087712596,0.9603691154324536,0.004843458295977543,-0.7685418572515585,0.8633972312400211,-0.4971879129504597,-0.20247051337728528,-0.2269694999614964,-0.7972318558600255,0.28599744961783435,-0.32163615458312145,-0.13406964627401874,0.5672722439245872,0.00393964554104298,0.9370255773749807,0.22026312859296082,0.3811765424278275,0.10522187919762027,-0.5021386901226645,-0.5167503428988338,0.37391167918702095,-0.16879826369468942,-0.050398698069544556,0.5813729358496458,0.6342844916232884,0.63982438482332,-0.7831644650482257,-0.4703524617956387,0.16507575772695748,0.20948335845887134,-0.9650330659145767,-0.2764808395137397,-0.2023419222438576,-0.11464438508926311,-0.08755578714583967,-0.028011587065521093,0.2510489144120467,-0.9917781287814524,0.8313145019493104,-0.9084016614195105,0.7731052655023989,-0.7408351366175201,0.5065166439253961,-0.10342374347354011,-0.9136332192452723,-0.5606525634513846,0.5020603318934771,-0.5191865760223309,-0.46446916108256997,-0.2888958854115098,-0.5533449860925228,-0.10586870676306437,0.3195702162391105,-0.6125376368805164,0.848186609215988,0.3195165624591416,-0.16209018136393216,-0.6568384411023118,0.7028433938363081,-0.9662669230497447,-0.8198446019897678,0.9107542133465913,0.6239509315016485,0.11269990565937738,0.7299856787887342,0.31779297303565146,0.23509004545094525,0.7313983770895531,-0.268036249897021,-0.7820869911609927,0.9426033542429919,0.8920017981639146,0.9788837323408852,0.9417249083694514,0.9280334642175876,-0.10673853213140583,-0.7097746333140122,-0.28434038235539205,0.657951505378868,-0.045180017251402305,-0.9301631228061453,-0.43422681546151054,-0.7980127383750841,0.17139699005604747,-0.05714537752119231,0.4894663359342015,-0.07800872527234426,-0.2788828761075768,0.19679521367684538,0.7723542894043323,0.7467942384007937,0.7059162498335043,0.33354850597696006,-0.700951416832883,0.5800455197177763,0.939782263716159,0.15375919148206152,-0.8443000914707834,-0.37669104415842414,-0.008134809445785374,0.8447278121733559,0.15361497030070637,0.52197397306387,0.20471178747842034,0.05915748892479433,0.028871369677669456,-0.018677117649283037,0.29578556509158815,-0.009603325320137746,-0.16259318778589216,0.30542055891893516,0.653376833865229,-0.002251138478474468,0.8323542441824574,-0.05361387967354725,0.8973642680293017,0.06294674191613692,0.7652692648052901,0.5008995700600958,-0.3843703304916932,-0.13450669345306054],[0.5676584687098889,0.12416560658565423,-0.8267042605815993,0.8840999236763494,-0.31799138444408404,-0.5166064183190757,-0.27543476322068106,0.4341795647497493,-0.5632842360416093,-0.7465983876192526,-0.6230358225727783,0.12952519486841663,0.5980965406939716,-0.9928199699498379,0.5261067976489631,0.6159320292450445,-0.7215286378256034,-0.178390355072789,0.38136496365937345,-0.20412538282821946,-0.5516350241970971,0.626653482130124,-0.3807694660956944,-0.46952986359732285,0.6341263012407419,0.14449733220696048,-0.8142153126182234,0.20622454421099112,0.930057107803139,0.6194167875488967,-0.1064821096763886,-0.9346064259315445,-0.29421187986617237,0.4182379911090093,-0.4198589763193137,0.7221906323548895,-0.891602780439974,0.8867094763596408,0.699090826242581,-0.9338375709104694,-0.06663048423071816,-0.8257836667073564,-0.7394327622383279,0.011474437096955281,-0.9327285628416069,0.5056498503074933,0.16846609746687657,0.034054872986423845,0.20883552879443235,0.1902865082793348,-0.6953070744701744,-0.6817608354659501,-0.6118729206540043,-0.6515998580911444,-0.11980124090797539,-0.7425467054882633,-0.7666202196171641,0.577395261436372,-0.23426876115386142,-0.3203864471153628,-0.8910602509491907,-0.20688279361735007,-0.7268765182528356,0.3451808460572827,0.284534365884586,0.6154028541683318,-0.9017726651808315,0.29838051924499664,-0.1308030155923119,-0.8814544084722844,-0.012527947394509908,-0.6567646089904875,-0.37010714382152865,-0.9111858818066416,0.680970397520382,-0.805675541980623,-0.25878703210399956,-0.6790433838620518,-0.5360057147377071,0.37235705172270905,-0.41675132420529026,-0.5897558380368704,-0.6886137132194916,-0.24147783697589675,0.9405349287254314,-0.6688550621310372,0.04019628144731935,-0.8858922694238671,0.9660348587907133,-0.10810475757548876,-0.30509151665241574,0.24739309611584281,0.4254179368575004,0.6275834865199645,0.33844489062693817,0.5726862788809655,-0.029728327485608164,0.5751996585166417,-0.4695176455451806,0.11530109943078193,-0.9035987135739831,0.9068469499139435,-0.8263422021491558,-0.25617568758902465,-0.8944390016766437,-0.0940428677043672,-0.5397895122950715,0.3020750158082004,-0.2727575325220033,-0.1738027893968721,-0.8949743238057724,0.5796605315810801,-0.4291671051861963,0.4118643878185233,0.2379970218093188,0.24761233513684844,-0.2641054560793872,-0.817235288013255,-0.4096442093380692,-0.04736633536715518,0.5366488280415274,-0.2291626295680831,0.20864916134472122,-0.9678645583601924,-0.2704650179332153,-0.3246766036911062,-0.8373489602137394,-0.5048479309710368],[0.6240899249428582,-0.7981266215591387,-0.3568953218113473,0.08799343908700297,0.42826356058165893,-0.1880963536213418,-0.9216240375486464,0.8311416051860905,0.019059596549205082,-0.6907371354103118,-0.22287426381611586,0.5300958460205427,0.8524984325981555,-0.4207540048462417,0.5464919004590214,0.9734223496205883,-0.28844620798878506,-0.7471856514068791,-0.11503258385534632,-0.13041267398584022,0.03253870395825609,-0.8104870467506009,0.4644602377210505,0.9410497559315847,0.6117415071099019,0.18757061193544722,-0.7973559717677721,0.6754205102310062,-0.8576000385807836,-0.44142126329291687,-0.12464917204249559,0.668557855832153,-0.20801575276857953,-0.6537735401800917,-0.7742179746086375,-0.7409844764915392,0.4344509249041928,0.48828363279927767,0.04113119540640753,0.9587491521441232,0.9198773865912082,-0.2230397499344272,-0.5336565959550348,-0.4063917797826402,-0.8646890489472265,0.6763368023585898,0.28811435367493377,0.6529628183823404,-0.5481956600407314,0.007565436762213107,-0.7350068441199142,0.7628149635281969,0.6537652856832932,0.1972734737097015,-0.30405200190530457,-0.7308349276738497,-0.4070692160082263,-0.38634841497299965,0.8755924396645591,-0.2389907811122891,0.14277401547011803,-0.5819914881336603,-0.12007784413551437,-0.09335869501026495,-0.023527806918917538,-0.43732568101744973,-0.7150622099969584,-0.5745729975739158,-0.2764474992309036,-0.9020378983364894,-0.9420100907882321,-0.7000305234671835,0.6107746950158317,0.6604620103455721,-0.802632151970651,0.4956928749532141,-0.44455911922463565,-0.9642502612277695,0.16197179812640616,-0.5358498595001069,0.3820946272218686,0.30879668247289627,0.995788721702654,-0.6482447707233594,0.5929453559417246,0.7060790132699226,-0.7311519763285121,0.3230075268304591,-0.6100771034855956,-0.450643693610407,-0.677575024786573,0.8049137731940388,-0.3704897797777196,-0.07149653472563511,-0.13597091765220504,0.2699758416718192,0.6000329415677612,-0.1360250508847518,-0.8553488739022963,-0.9346144476302156,0.19685122579468817,-0.8380347607657925,-0.8914501924819549,-0.4399412859254881,0.5966744266898876,-0.5870269472845413,0.40085552916548206,-0.8250063590278813,0.13375598399170063,-0.6000721355412917,0.7021898119107715,0.672839721188861,0.34457961356547107,0.9467660126100603,0.785828859001805,0.1149179766811641,0.5781212631108561,0.5636266792163842,0.7553930981107126,0.356809521079144,0.1268478085737219,0.8776329433456418,0.7014920630746904,0.6762266059208806,-0.8312405188912928,-0.3013200990183311,0.9444793920288812,-0.46467030981762836],[-0.7662823058081198,-0.14005135494768028,0.7357123164244033,-0.08121597944489545,0.46495970605842274,0.5639707782634877,-0.040614673891219866,0.34002728069021715,-0.30672825057299913,-0.09083157890695581,-0.09796610030565067,-0.8024225848721,-0.908275757553394,-0.10009816504656532,0.07762483691257938,0.3696609212176245,-0.9882294331477284,0.17898850740655226,-0.24278047030497496,0.11888219202190053,0.6626377299580732,0.8290360158373051,0.2152282011739748,-0.6508154135781898,-0.5837262480175214,-0.596081232250379,0.5579484376470605,0.2778950971548164,-0.03240810445076603,0.29802226767676876,0.7424226347903042,-0.6130404131190901,0.3065084655040693,0.7050721230743704,0.03897623609304701,-0.6654392246074452,0.6521348505971756,0.5141304669110478,-0.45705409762609595,0.034153091444156125,0.8554833238975401,-0.9769463007908734,0.9788818401399817,0.6633076844662122,-0.9854087110405894,-0.5142863312886155,-0.4785974478324,0.02601384983725663,0.5424787920411183,-0.5103835275532589,-0.45761801589082207,0.3254522429399247,0.42176414787927197,0.2366089781472438,0.3671632857717384,-0.8301703671123855,-0.8164105205982866,-0.8505897315397184,-0.857468154805404,0.8084348351289745,-0.7521957062733275,-0.003279561800760389,0.45386364250876765,0.5734742353897682,0.4298236369923505,0.16801640570348342,0.7347898889445339,-0.13271172313954338,0.3783007069946538,0.7770837871925456,0.8000328943842665,-0.563094733808039,-0.756810575861897,-0.2077701231114244,0.47740164826054055,-0.26318451924754505,-0.5655269276468462,0.6082972364542898,0.4413723037234798,0.34240341290220644,-0.6994003375120033,-0.3100815648441886,0.7103856561052468,-0.9958659507954555,-0.17793300971198578,0.9690491845827669,-0.3185401745141627,-0.05222725817649443,0.6701776671773889,0.47925798097329153,0.033871829280523125,0.949659006909338,0.3939859602434743,0.622694636800109,-0.46661481289120865,0.0796048427265712,0.7765569432754382,0.14834426727747752,0.789911677937222,-0.26261962415942963,-0.5127626572124855,0.4061112267688374,-0.5690669028799946,0.34259327099393855,-0.846603183715404,0.2268286447204666,-0.7555436433368974,-0.07395466814291662,-0.30042330340919854,0.0020307877788214856,-0.02470672861540546,0.9393732183610475,0.9070098539332698,0.551590159635744,0.0323527017210381,0.36025822241432004,-0.7614444173126771,0.8974167463078049,-0.5717324496231124,0.9018547590250268,-0.20510648051256797,-0.8553410508480705,-0.829495174053761,0.19209158251989034,0.1114995414041351,-0.09818652982574605,0.9790103165383068,0.551547615567924],[-0.0719798909709155,-0.3781367201304693,-0.470174047880765,0.18208197504512325,-0.9532040261795793,-0.9301105204599196,0.9745586705421765,0.6933609470642632,0.5660255074949352,-0.7638265320633859,-0.18299338174271385,0.8530978080957474,0.33515873910493155,-0.9130960116480489,0.2184786535079406,-0.3703670796803331,-0.2984342526044792,0.333594352390127,-0.26109441567041447,0.4900049340617423,0.8142823887315289,0.6423258480815615,-0.9590133562037022,-0.352710244633367,-0.8001211060752522,0.5489937041470501,-0.8428370713271001,0.5873275747977091,-0.5592232922827427,0.4404512498118245,0.8926841727227635,0.19032159748575728,0.07214175868812256,0.6850799243171999,0.15531989352881248,-0.047052077160433026,0.5885224414072456,0.18958097343557578,-0.7772174796443077,-0.007268893995642234,0.9384098188901964,0.6597821497476786,0.020417727638393224,0.15717352403805962,0.3072124095946014,-0.7269134786680582,-0.29297559872089796,-0.8569037135401809,-0.8197922947702274,0.14667859788724114,-0.2573218598130076,-0.16478649823757596,0.6733732071331913,0.9171220070153454,-0.5837386821475441,-0.20578932797533556,0.361195006861307,-0.42388330540991426,0.4113623942318565,0.2116682294870882,0.42385455572082775,0.28548364687646854,0.9754834585936178,0.037047257125087496,0.2186868803199924,0.5339187659344808,0.8324874089844678,-0.14108191047306917,0.5711276045745937,-0.14725744376152017,-0.26071422143999023,-0.1985049566882695,-0.1017843699751908,0.8224852423848827,-0.88964045280468,-0.4234448325949409,0.8504044512339375,-0.46890567763800317,-0.8880677962856227,0.543414997679802,-0.25132627280343556,-0.6558905376630795,0.05876068919809452,-0.9733532804926943,0.3966210253619682,-0.44616980358804037,0.5211874830851257,0.4697498852732953,-0.5049611825655691,0.43136432369817057,0.4647994129300048,0.8670727739110069,0.2324112468427424,-0.4970981157708072,0.9860948341491602,0.09880984365071499,-0.8619178887781662,-0.9218678635229209,0.7263055242159817,-0.2806379701642292,-0.3110873821542808,0.9182165085737175,0.3465426499656483,0.8252702433499219,0.8958090589076377,-0.3454270376914299,0.7263492674710212,0.09328356251427605,-0.43550778896254716,0.5627317441226258,-0.5105804891479819,-0.07157152638858544,-0.10268258465508473,-0.5070817546429838,-0.7070050859380439,0.4136624053773459,0.09253652461392803,0.892336665381229,0.4068510186253862,0.007190713509282354,0.3298506032352375,0.7592146640087913,-0.9736883373109986,-0.8950379132807798,0.8003211970024604,-0.7746784538773059,0.8874121070274235,0.5311793252552977],[0.8759863064070048,0.8937329119272559,0.9131038591025904,-0.035567172501631106,-0.05220906007949244,-0.5452106780519903,-0.7324188198411228,-0.0016119539540770944,0.38612086573418636,-0.9025413322519118,-0.7021224973309523,0.6498970946003197,0.13917608979252893,0.8828207625534752,0.2026171002961472,0.40927834218744885,-0.7410200263233298,-0.5347868038415364,-0.29952829398845826,-0.8928195820375111,-0.9295035458758034,-0.5391103353186841,0.2129645819676842,-0.8266866715753893,0.5003792929421782,-0.6017166980436379,-0.34760386833002843,-0.23983865032678686,0.009273479120252004,0.46680358099315367,0.741062998277844,0.8299954052762673,-0.27572397995509146,-0.41001790053054066,0.5110984743938878,0.3667909750532843,-0.34716794369174186,-0.2369371442658661,0.6273827644432175,0.4279081492535268,0.3636664900290911,-0.34787461570289135,0.6528024615341901,-0.21222501164685648,-0.27212186779282055,0.37300083011587715,0.6322014727083485,0.546979384583804,0.2620498399703586,-0.6181868439548515,0.7430740508211413,0.7892400221466609,-0.032941458672667734,-0.4698152027742559,-0.4086943625491066,0.35966646218679466,-0.039995572593261475,-0.423961175058128,0.45964378850464693,0.9170857175821949,0.017711024256214625,0.34697963258922804,-0.6544321907905561,0.12144513948917779,-0.8617715855597823,0.6873171919645675,-0.4510389312804408,-0.6336592821239657,0.022190704932276484,-0.09711221501980782,-0.2344642165802553,-0.5142333787734277,-0.872393417431286,0.8852072383820899,-0.5542730100496562,-0.1725033750206293,0.20969857191716956,-0.4273175910724927,-0.7644856272372136,0.7423132200017406,0.2155248543671635,0.8455296568633894,0.12796799608461806,-0.8037131674608622,-0.7149369125246692,-0.05952363916362868,-0.8397207939189559,-0.48914297118654626,-0.589027070810427,-0.7622876415589093,-0.6803859135265942,0.5677819123320265,0.6595463607546648,0.6808542930380119,0.5395328923276259,0.7816267284846823,-0.8685198647694117,0.7190583148828456,-0.4691569457256346,0.20202040688347322,-0.9210611733768246,-0.11021802800821079,-0.8219124710254544,0.25040838026494927,-0.8722129230051203,-0.5783002279664182,0.5520848933066307,-0.23500044077509608,-0.2584306577229336,0.3479905391946847,-0.17264909149137453,0.20247304708469716,-0.19250484679629287,-0.4013922722745522,-0.4461641960552938,-0.6803497378647778,0.22043573907367375,-0.8520326404573828,0.9310682765064693,-0.9148738545687753,0.8660146169983913,0.64988782487103,0.3313463981873035,-0.7165466391509958,0.9234026165087545,0.7613834865917777,0.38849090517416207,0.513712856776048],[-0.7137679089159246,0.7898413539740581,0.5021023784680121,0.21105103199674646,0.04986150276197865,0.34792765633642486,-0.545968926277774,0.7667497786921758,0.894290191156607,-0.2835053746219396,-0.5724835588298449,-0.7324215954863575,0.9107232569159422,0.19133956101990401,0.13839011275100632,0.5064275770239985,0.029452067012634586,-0.725306810337192,-0.9584640935893258,-0.7114447123199712,-0.693383762328188,0.7984274989407845,-0.9644079387629816,0.9205889154226998,0.7650566761132436,0.36838723096304316,-0.5725092366896081,0.1112926691873104,0.9888383278365362,-0.27079199935667764,-0.45197388580400855,0.6370721665006343,0.33796765965509556,-0.09908980717567495,-0.42581552648503584,-0.5532695015169393,0.07605457953567707,-0.09933012711294054,-0.9467803976318565,-0.3476645233972888,0.3015022889532921,-0.7642510829586138,0.37860196485940123,0.9078472110415972,-0.8643296187410203,0.17269965072626814,-0.5648481270866024,-0.4032094913341078,0.15289857850278898,-0.2653004254778226,-0.0031067226029584116,0.02874263630374929,-0.0053288794072723356,-0.6575597144401477,0.4817513053601392,0.8440802009454476,-0.9355753511180591,-0.4446820029599792,0.657620759915722,-0.88967111324936,-0.5186258172976601,0.2546108569297978,0.5841220815180659,0.5179015513030458,-0.24412642760523506,-0.6794750887324288,-0.7968212574784628,-0.29334495493184987,-0.600409770020961,0.5175057685133462,0.41306079060923606,0.9427642272214751,0.297033056234669,-0.3898153129146762,0.4502185041776734,-0.27503512780306183,-0.4994174370833506,0.15843691573096907,0.736878376272962,0.2806915250154325,0.2819077360104234,-0.4323243565228303,0.6392503977932555,0.7598183322500667,-0.709251085700995,-0.2564070351961256,0.116082181108639,0.8993774048200702,0.19739229857382834,-0.2843186365057522,-0.4614227526976207,0.11308068572388863,-0.15932846350362873,-0.7560609332604715,0.4206052996877385,-0.627382994556615,0.9643864955469212,0.5957241018701689,-0.7489199042101851,0.8391197171747637,0.08718879234629284,-0.12760552687077142,-0.5609665152120968,0.3068569125982017,0.34213707488235334,0.19152451035953022,-0.993705961666886,-0.07142392543261478,0.37977498415564925,-0.44822697416166135,0.7857811024562495,0.7827514139790925,-0.5093065118971722,0.09479138302194445,-0.2957392529858949,0.9307055293668725,-0.8363030108569667,0.676392260419667,0.1333674870753354,-0.08779309276145297,-0.19306326130311002,0.2706108331557453,-0.5598728080710129,0.19678085894546293,-0.91206727892962,0.6359575704062235,-0.47946219037299165,0.6372364769464955],[-0.06662056178500997,0.15344578205709003,-0.37728733480847376,0.40730072586186417,0.21235344916518173,0.8066501555758601,0.24940470507753254,-0.017378172585632345,0.5335736238015172,-0.7122086189144592,-0.7609238949555981,0.021558313933818907,-0.42079267225191797,0.1960292950283682,-0.8701201546411841,-0.23967593647358632,-0.3412000356753364,0.3663909691550167,-0.8860377752335076,-0.5397143137452849,0.7815223499811088,0.6615734507046966,0.7901402690804711,-0.22748845520153194,-0.47879359067268434,-0.7361732326542065,-0.006450580396278438,0.40647228247965606,0.006905380423437801,-0.7548548648604256,-0.4962996182708652,-0.09354769069143565,0.7000094005426207,-0.5597517571957729,0.5282582114321841,-0.7378878334270644,0.2978089560051136,-0.677882921127005,-0.3916826587855722,-0.8701849763094134,-0.11709320369949938,0.7388055626422461,-0.9626613189600968,0.6865644891453029,-0.7890729194898323,-0.3635300851142351,-0.7796371289789183,0.22524621101017428,-0.28071947452641144,-0.351202626044991,0.04707550719195597,-0.06728448219980487,0.8972667434613868,-0.6839000849814469,0.3885456676939181,-0.21760055698558856,0.08675119735271508,-0.6157737602111908,0.004628788372317283,0.3056377767511893,0.704853328083946,0.05845648594345754,0.6141876396664943,-0.03803878342014233,0.8708659226219146,-0.32142520612839487,-0.7943697682721196,0.9698696612852387,0.8219559962455685,0.7542404640911788,0.5845954552057324,-0.7461091963378312,0.4208682787726612,0.028956395842615335,-0.3942787645583874,0.44357657016315843,-0.17999609007445772,0.2608104977203365,-0.8053241559919977,-0.4833994791038356,0.6602231248593033,-0.20834152060063804,-0.8125769361996558,-0.38628611302242777,0.9432048714600194,0.4641010951543305,0.5862478945354337,0.9136439226617563,-0.6799414472127996,0.624699998616248,-0.4520198010405063,-0.4662905198483065,0.9141965923443118,-0.20007333180917186,0.6637649194109057,-0.8837253524408903,0.17534118909979535,0.14837230509716326,-0.8639895141548661,0.5495883990863999,0.022007228943415003,0.08666683477577175,0.5404511218227506,-0.581521478842387,0.9977761426190006,-0.2032371159064168,0.7288534513736054,-0.9181491564706334,0.19124552959046515,-0.9889503640398865,-0.31402304496537936,-0.511092002108247,0.32020720722880114,-0.42331555803578613,0.001730441601293542,-0.6059469290311268,0.38739683980187545,-0.6557011093608953,-0.8119592283412946,0.1212617087451704,0.3546003423630122,-0.45366918407504664,-0.4479003892467306,0.6560656048276474,-0.7989262586933124,0.48993430709974817,-0.3135904237917573,-0.5730156280774326],[-0.49006034419379674,0.601256259483872,0.7191087480313738,0.14102232830473138,-0.3763072394648659,0.14906757121552494,-0.45107177958244193,0.7164666750972999,0.38005495600516226,0.7148033039082249,-0.6835549061913424,-0.016562819917248506,-0.8460451134467957,0.09230006589496531,0.2428740727064429,-0.6592690407778063,0.010694017449532911,-0.8180382254338106,0.12410906630468377,-0.05715175386744775,0.4545260107181677,-0.3286846666794614,-0.2505384148903189,-0.25039801019653307,-0.5362022469397045,-0.5532840010116031,-0.9649869870670305,0.6532519969194881,-0.8122737935868451,0.47281729937607175,-0.2875416316033983,-0.8057682574972855,-0.18866301613031333,-0.3280937309919618,0.9509385156230992,-0.05729439007410653,0.42992649358448487,0.5742954647594869,0.9403917611113801,0.7850888940162657,-0.9297687285645027,-0.10716316986463781,0.1670911492250864,-0.789074500233516,-0.27271805625929524,-0.9851786184815301,-0.8427006120735374,0.3867687955764143,-0.6848891642288277,0.8057755323406686,-0.1421157376905895,0.6136948457672649,0.4879913841966188,0.44841624399416924,0.6658722834032309,-0.679899604794679,-0.6463222647968387,-0.016364682043879863,-0.23028987903886144,0.11352840189803959,0.8521039443938221,0.9978382113087019,-0.5026578953646674,0.08651562574051108,-0.33726564239379453,-0.7962324342263511,-0.905270184677949,0.06828881972195555,-0.008447213304400236,0.05444846924976421,0.6747095879337226,0.26106723771089513,-0.65017115393935,0.8666396037183273,-0.36889634156695394,-0.4088069098335054,-0.7354928977049855,-0.11696408315465812,-0.9024222445228252,0.3706687039868919,0.7536913558636418,0.6664313620149702,-0.3133730445372638,0.009649071686814947,0.950911914181737,0.9171392719440068,0.35849730986355555,0.9052037354124665,0.5148473758155365,-0.2606248007427525,-0.970918049809113,-0.44815898212870997,0.5143441241147448,-0.051311534719260754,-0.31603761808100495,-0.32125760238251755,-0.7926196895838709,-0.861646159112144,-0.9425575603217342,0.7031612767095081,0.46942395491011557,0.9474042140092038,0.8202403409790937,0.45584752140663554,0.18374245776809484,-0.2968658471698269,0.919273767103649,-0.8442780326787975,-0.03458351456660802,-0.08855303136008996,0.4182499554935073,-0.9140857325727894,0.49466207922158056,0.8037691689129653,-0.44060637079472675,-0.6670424291118244,-0.6121574952885798,-0.6647553648344324,-0.29137278344786766,-0.27366045494575286,-0.4736871111754104,0.5709712372793041,-0.4597618447918299,-0.0809518720665443,-0.7605165558794214,0.8446958998022296,-0.308958112814538,-0.4290627284756281],[0.42242068551002254,-0.8467820033914877,0.7457850799177563,-0.5563691527740349,-0.12425157040959323,-0.09606859567614179,0.43582836760003674,-0.6766874258906612,0.44793825363613204,-0.3244592163365354,-0.11181534157622974,0.5274348149087695,-0.3703246312901547,-0.9016271404299188,0.6359326689337466,-0.8497916567850758,-0.3591602331153163,0.45374256221894327,-0.6537309261003168,0.47288230858605873,0.38136889258585716,-0.16239533828924335,-0.32636878678301184,-0.21583911220133212,0.9043181883331699,-0.2172100525494307,0.7786660515971253,0.04706009332973893,0.44924242558244076,0.7268598647911064,-0.8955026246161484,-0.1586109629310024,0.3550847760166129,-0.1352029047838843,0.03103385024486105,0.2287633639174016,0.8963513973964294,-0.27173100204363476,0.35021131373975445,0.7685564482021126,0.5287813635012988,-0.40120370505919345,0.05103944995245824,-0.1521720670160227,0.6001291390918058,-0.1847588752605176,0.23892475367154975,0.6865100691984256,-0.5715869295853704,-0.6375047883170999,0.23279219873108015,0.1059998224739589,-0.28364238245926865,-0.35843686716672307,-0.8229686516047332,-0.9931209258415805,0.24278698151950162,-0.4751791029062309,0.08992036564671779,0.16121095277415254,-0.4852896727178688,0.8730116857462022,-0.4739697313407809,0.17617175180941058,0.03443657371705,0.5552745719245051,0.3225630528602015,0.22204146307895178,-0.11113413457670318,-0.23430345410553333,-0.3049546613122507,0.6032456737192524,-0.6899936293138316,0.22471285925418805,-0.2117824835578841,0.7166213662246979,0.6363147054584828,0.12130822047759815,0.09646058143628711,0.08899949601143087,-0.8386695692532402,-0.020284051969551298,0.05443761064940644,0.05062405726102992,0.7033446658898477,-0.21952667808330628,0.7734484910310686,0.7461582105711171,-0.8079025476068589,-0.8053326609275806,0.8533523899263489,0.9225768850212854,0.39557694520174125,0.5599503996161017,-0.5010877160156157,-0.9530795754462889,0.8172121405349042,0.21666200734126284,0.15689715000868798,0.5403746222570962,-0.8232216975438968,-0.9831242475171473,0.27901516101703017,0.2467615866158206,0.7737293311907651,-0.1872898187407126,0.35647607840300255,0.6721410211379684,-0.1219582686695706,-0.0037141823838187094,-0.981735983016131,-0.7891259351388442,-0.49704912352431885,-0.37850760334435796,0.07572677308143372,-0.639675945277612,-0.7360318889155038,0.8572898142795564,-0.43199956942293083,-0.23905937788741327,0.4713330653719099,0.2556604316448907,0.9676942929131738,0.6382588313775936,0.3261849453393335,-0.9180628951666907,0.8512623708222375,0.5080018014004279],[0.08111059505677243,-0.7526850481246019,-0.5543307068101345,0.004177238389593619,-0.6280751189032573,-0.8709105115089348,0.4871847386393402,0.8817286088213829,-0.9763505858958469,-0.5735331514003965,0.48687719336355484,0.5769746751101318,-0.2336163446457722,-0.6527637722434666,0.9430351896771382,0.9045791165461526,-0.9857507164277091,0.9482343422455983,-0.2591511413024478,-0.7962044567973977,-0.26037731911735923,0.47697597066968395,-0.07732328788444383,-0.6102340740667808,-0.8228157208057207,0.686097226067933,0.5083133568349613,-0.989250489827145,0.44004482408749906,-0.6107009318225265,0.8515700806986878,0.0015139037244520828,0.33291131238771443,-0.6322816061602119,-0.5455393546491869,-0.30645332372581396,-0.578988245416638,0.1146906803325622,-0.576208995432257,0.38850014164929103,0.054450051908069765,-0.2548654030101237,-0.07330496576054596,0.8847916596954604,-0.6719870942135058,-0.0004790561299006832,-0.739757710533914,-0.9801040866514065,0.855472373329595,0.6946488352300942,-0.9779934550311462,-0.2970053578261943,-0.859696185463845,-0.4389977116289595,0.37292849830393693,-0.8620123408328294,-0.5183851688496851,-0.42691235179226156,-0.9768863356809592,0.43040296819882873,0.13566864508851717,0.6915106589996171,0.9205329253507227,0.9292929735376108,0.21916840820098138,-0.6277390879441874,-0.29042950044002236,0.4553409607928294,0.7976153955709954,-0.2996357343766176,-0.6243343586433276,-0.21934580969466866,-0.8482352175603908,-0.976817958521256,-0.5364000405830142,0.5051329251426109,0.5531804160098172,0.7321733381751508,0.12322547135832568,0.26494546630919164,0.9766643042045187,-0.8615886020448325,0.3337685517527367,0.2713669434955842,-0.9922248434745585,-0.4048062885499352,0.9124997954416469,0.7115938837965033,-0.8548983625687017,-0.18403783027766585,-0.6070333497437369,0.16786234855628057,0.7728123757241668,-0.30345061413191066,-0.18453967189894996,-0.2574343656833765,-0.921960210021313,-0.3708217752536743,-0.595580750845998,0.572633685109026,-0.6419179156397343,0.7028343341869778,-0.9770242753064194,0.6894257075986292,-0.19794048645473997,-0.6766903539243856,-0.524473927637544,0.1955282155394388,0.8729268297711357,0.19517816673017382,-0.17557103261497392,0.8561695582906571,-0.11016442919674417,-0.6649437951965911,-0.5602653231421426,0.3992061497980993,-0.2518951322720518,-0.6889766508128615,-0.07870641411323115,-0.7034203037512052,0.6464334438604544,0.23999154101363618,-0.4330705580690838,-0.4175541173550474,0.14516997473800453,-0.4519452650104339,0.5694914993482947,-0.7338165180372572],[-0.20384245689289632,0.7472869142761245,0.8746115712554108,0.5373209531897597,-0.9063180905845013,-0.1311036376726988,0.5549160897025797,-0.9116035191482257,0.42722297838209977,-0.5706630196644319,-0.8406994900763402,0.47049504596129066,0.8809572348630548,0.5003736683170844,0.24930652737988887,0.9327327068749782,0.8561622443966292,0.40732694095660194,-0.20052490715833907,-0.44169134963662704,0.2432870425343213,-0.42947042795012025,-0.9409416251063338,0.1621862773400516,0.3075666881465147,0.7488563271276456,0.6079738389918438,0.4381897637469401,-0.7403304026467834,-0.5327210665958159,0.21159566628042956,-0.6936962881932875,-0.9127986585462612,-0.33011257701975644,0.3689670158037943,-0.2505677895424432,-0.7222565033649863,-0.8908201268500328,-0.5784900695005213,0.9981623420698067,-0.6442767482294754,-0.3989376520913482,0.689134558629836,0.8497186160170807,0.6556856890199316,0.808471819561569,-0.36421567700376406,0.9484543164328986,0.5978578817895227,0.09006172139487277,0.5273541909551633,-0.3431072005938311,-0.9974202126966232,0.7134104504117724,0.679629716348498,-0.027023108994683007,-0.8112932741778782,-0.6461520171088863,-0.8512989398471669,0.18065235441115812,-0.5171273553637752,-0.20262535600384968,0.44417841335837094,-0.06039025954365461,-0.9500802208993713,-0.15170698796290585,-0.7120753606743966,0.048817154559100226,-0.9338369996282291,0.9553202937162469,0.7995124429135776,-0.8585081133007066,-0.3187049999886843,0.7436209610666242,-0.8828455554344807,0.06525312344566284,0.17078076899554967,0.693769180975584,-0.0930546760482434,0.24865676636069772,-0.43366317429815665,-0.27074406565786496,0.8187810807275361,0.2499331684635331,-0.021112397826455125,0.9110813564399811,0.17091341605078444,0.1345755790794451,-0.39603166201571555,-0.12657976826271924,-0.9571662333231618,0.1874822232624632,-0.3708343320623312,-0.05251419894017268,-0.9226975221392683,-0.707087444366532,-0.6723985869648335,0.6061926377790638,0.8979289694704803,0.8008032679439793,-0.627812065829627,-0.34343358301265253,0.19226019956555856,0.781023855920513,-0.903788281419435,-0.5921152856394736,-0.9942981106760811,-0.17886264124198284,0.579060364234789,0.989867973653728,-0.11576846522539944,-0.06243824042337363,0.8809598802577682,-0.19477469275637058,0.7212642670682198,0.19093038883604693,-0.4193294389220341,0.8488373094836877,-0.6980691549223631,0.27259634836945,0.18479508980813353,-0.9085476895317066,0.2840677435335132,0.005742494137413502,0.8505001039497947,-0.8673359324921068,0.4950832740759482,0.5023914498780812],[-0.26298568433513214,0.3434782892439393,-0.21516931011665616,0.9094750279937386,0.9037206053567483,0.6134021508295413,0.9228532284277347,0.3034278428539634,-0.8787063308717169,0.5756656364649136,0.1635658251367513,-0.10466395383803273,-0.3150444395227227,0.5225588236460632,0.8310401531812447,-0.8625953190588572,-0.49485057043496866,0.3861818275966649,-0.2695573044767169,0.07235070434225095,0.6413214213980064,0.5460647413893671,-0.39292586614139496,-0.6304006065659697,0.3940142592346402,-0.49489190722171505,-0.13934012505443596,0.49901328124851463,-0.2673005669308656,-0.9393956032401125,-0.7508782193265967,-0.7656762371498173,0.6055090530050488,-0.24913309192791588,1.0934042956347534,0.9720277904583742,0.31095070790693297,0.44512123802491654,0.17393725198531237,0.10759473815658321,0.08761019238493592,0.5845362340838876,0.40906621147094496,0.5224268213096432,0.8501612246973964,-0.8977848965298493,-0.08186648464237897,-0.40599943656041837,0.8516391747649457,0.6220387155781477,0.6191679377616324,0.5151426290051975,-0.36010030988980385,-0.1586942691167173,-0.9390107983629068,-0.7723931757621156,-0.3158002180023715,0.5067571500121637,-0.9574073891643299,-0.4671996310468524,0.278023616083069,0.2296251085015128,0.692856295709086,-0.979100569261448,-0.630749465258052,0.03647717432313249,-0.8088316183010003,-0.278405010813358,0.4873132104311675,0.4614555894770091,-0.7563435884260489,-0.08813284141597447,-0.05630947267005696,0.895735102465724,-0.9202682816365909,-0.3468747986544093,-0.0011279589421396919,-0.3487634794901693,0.8225796137240108,-0.7494954168963448,-0.40195275544615017,0.6905024595538518,-0.6531336736053768,1.0012482410264438,-0.8666578815382758,-0.8224798075573576,0.5581064606494899,0.7481315471486236,-0.47236823248047416,0.006629635685826476,0.20835561610691572,-0.4938166236358456,-0.018986582818978977,0.9870182937728843,0.8986792677631469,0.01908950436142689,-0.29350105044028935,0.36447554198173693,-0.559151807216021,-1.0411551049516266,0.84021578787063,-0.6815666836797792,-0.6159365906072628,0.797806567886941,0.8082707244564429,-0.3629455187883507,0.4153611788268899,-0.9783830317533895,0.41904557098706563,0.822123604238027,-0.030859583998003214,0.03642652989517719,-0.857208640834759,0.47868143614411646,0.4963703946681191,-0.2091685513490276,-0.9838846971289839,0.9152303144191146,0.9343668717749162,0.3983134952736321,-0.18014424874068952,0.5536457117342677,-0.128599996246381,-0.8018901745324708,0.8728049242321029,-0.4220099758206175,-0.10724932956247574,0.04563004067638763],[-0.3194222770139635,0.775866057474351,-0.3618703098123585,0.7023167242814732,-0.9495130317754448,-0.3036377442911533,0.7473845116483235,0.5229819586427641,-0.7386365939723942,-0.679106352461969,-0.18175283923836247,-0.10913930131091643,0.39611605493644936,-0.02165333443884555,-0.4051214779160071,-0.29123480872589025,-0.517686089590227,-0.2668576653429967,-0.780117278205038,-0.28573636556793464,0.06627204518513541,0.5951635779507677,-0.7651096921938165,0.3808795880333265,-0.1428810195412024,-0.34769108684794364,0.14021548022980318,0.7692643854700122,0.5908725018606173,-0.6078164584618982,0.28568483971573355,-0.6464647526901837,0.6405985831715363,-0.9744523577168377,-0.9179031488526538,0.413142372481345,0.21192940107320973,0.5920046709367933,-0.8433709732966495,0.8002260237368852,0.6087817374922423,-0.2410696117362771,0.3305116918407179,0.9352890472895361,-0.4451862120043167,-0.9605120971354361,0.2338246761790055,0.208313778862263,-0.4276340251956367,0.8235918894753766,-0.14903315828730865,-0.3999034192963808,0.26308005599550155,0.7545803244544069,0.24162101045529688,-0.07046920187606932,-0.7784782317271478,0.15840738075143815,0.8535684817174422,-0.07560088863735394,0.6418627950903567,-0.12076700767118394,-0.5208324224556532,1.0066801221025017,0.2843847060834546,0.8906033636209526,-0.9063280324091258,0.510423075427169,-0.36546742616788125,0.540634181441665,-0.7805420341095686,-0.5548339148032411,-0.3308778545537445,-0.6591422235590443,-0.03420713970285526,0.6214027513682413,0.37594909331963977,0.7986927490378205,-0.09320399202599892,0.5955215997881138,-0.9941501382418728,0.38871631558029657,-0.618070926551378,0.19234019514107834,0.9110811019842358,0.7743034300000301,-0.7932964874021657,-0.4977437172408179,0.08908290986871535,0.9736782010121916,0.9814322319804382,-0.39348980597315303,0.9327114355073725,0.5670049679676579,0.3114972735401296,0.4136999697958578,-0.43280904054576136,0.5911191694107889,0.5741335241178978,-0.6377620504312064,-0.596847323676441,0.43219541920338644,-0.06707169031873945,0.6303308252700232,0.830630364262889,-0.1684095934036073,-0.3058765431311744,-0.5277058836848022,0.17143509178119512,-0.5638446187813321,0.6578246082323373,-0.8825348734919118,0.2641020305312367,0.4112638642570899,0.334392450467641,-0.5145993616716313,-0.36074896192875805,0.4155207984543015,-0.8561077369293031,0.5961268021885372,0.6679549770786836,-0.7410302821742157,-0.012671892507791582,0.2184207854788448,0.3627158192863901,-0.4673755373982719,0.33066416811902233,-0.24604620723158804],[0.12612952199928798,-0.013948738668610315,0.28731203449211,-0.782603608321974,-0.3927116133430311,0.8694699868136941,0.514947249391185,-0.5808911704337288,0.16831809123171218,0.7199858170398016,0.2842600533690233,-0.1745865965270601,0.6341503812423248,-0.685966046503202,-0.7159539090951266,0.17610271768866,0.6013636564147176,0.4566876278012385,-0.6231602691691142,0.46767444457119145,0.1453549190445498,-0.425992538179298,0.3315469637397598,0.6504531396486782,0.5380972514377397,0.17616709174379305,-0.8362019591034043,0.2198725879980323,-0.6954362622237588,0.28071987079901595,0.5520794712500819,-0.4161476205442377,-0.40783980510735096,0.41140185254472644,0.2919063918551455,-0.3288047914098723,0.6122794902469649,-0.3526936397346683,-0.1436540404379378,0.49841417739422905,-0.5831811645435354,0.17672821297201372,-0.9108044819987302,0.7750657884703465,-0.26808884183336323,-0.23480370698437336,-0.903870716463448,0.7536004000856192,0.8060490636198145,-0.7211934143818656,0.16814293959822127,-0.46805076749107466,0.9276470892942937,0.25215662245688536,0.9948227021976193,-0.9186951486733181,-0.9795500524517954,-0.33273501240528686,-0.7775261183570116,-0.06376582097141159,0.9918205394377937,0.9705722099018811,-0.3397794154599891,-0.6971608032261452,-0.5280954107384875,0.4739212130357547,-0.38848116124184223,0.7926296938940569,0.151544845299415,-0.9332936399354056,-0.8015890416510095,0.7860346374617662,-0.7131917716904983,-0.7052516789168243,0.3320050383583783,0.6674698287185594,-0.5645575302951423,-0.7281477834453757,-0.6399256647201254,0.4220335156192445,0.8105533903487003,0.23049981162712951,0.752777335292972,0.941269594889841,-0.8481370208158261,0.647925937003537,0.49230896937276797,0.7250318207418058,-0.27475358248488524,0.08015513151328567,-0.7873843218243427,-0.6629748263075964,0.6224567841351029,-0.3858162576180056,-0.868343179957755,-0.01146814765568354,0.27690803238415745,0.18309248349924678,0.7619856950273729,-0.40167879007089985,0.4747629988029226,-0.09504695553189167,0.33877182676919304,0.764917739683835,-0.9206095071381938,0.463340746223784,-0.5848654427933112,0.187211524782752,0.3584414526619769,0.13300838029192097,0.23218070580246397,-0.11638735248753197,0.4297169466371229,-0.8901951642725465,0.38827660033681094,-0.6970025964754489,0.21127189315674322,0.8113874534573554,-0.9718358482909489,0.24782230526992582,0.3674470953670622,0.2644600199441901,-0.6149833273943135,-0.8515746666444811,-0.9390604124195229,-0.509530079323493,0.14381834556351145,-0.02163267230360899],[-0.5715055600295399,-0.3393518431779284,0.5699109696630552,-0.6015437842663921,-0.37939575025629124,-0.206609382541657,-0.04244021227648894,-0.45844348956816405,-0.35050799237180075,-0.7407762949102131,0.4438799593883045,0.7552950246297051,-0.970665018294019,-0.10679538994393643,0.6709294082575699,-0.6664357050942451,-0.3944184208319365,0.3719670447381725,-0.774783272470076,-0.7500912959124147,0.7903033354944122,-0.0477426463048447,0.35631030113781215,-0.5233112676237739,-0.12017301253697071,0.5669626314126496,0.31015677906370964,-0.4582864435866615,0.1374061452038119,0.8850816187349875,0.22934230486098298,-0.9462880517036327,-0.16887413082265293,-0.24039580281683814,0.3036120604019372,-0.5671709745440788,-0.3614882608326013,0.5482769735537883,-0.8352377457564109,-0.720250567591434,0.6174629983384377,0.6866037410794679,-0.3265714015358479,0.30134342684163024,0.5327138486713909,0.6170365184939932,0.7502197456411384,0.08018143097511535,0.4881629963552196,-0.7814862534168548,0.8717300886153011,0.8796953399188293,0.8206919438755715,0.6174054958296715,-0.05990070375305337,0.2389988555768783,-0.03232443779836558,-0.6013835347517368,